100 64
1 -0.00511267 -0.1643499 0.07291986 0.08132272 -0.09767864 -0.13737218 0.111681096 -0.14053793 -0.06221996 -0.16882268 -0.01584879 -0.09809314 -0.18468034 -0.124014124 -0.05869279 0.15443327 0.097882494 0.035754822 0.05577145 0.1565148 0.041289512 0.20761271 0.18127014 -0.06894567 -0.016636524 0.08843276 -0.03258749 -0.100664705 0.12977014 -0.18430077 0.030937107 -0.15252928 -0.020735225 -0.10749881 -0.03133238 -0.07719016 -0.122318015 -0.13771084 0.090302184 -0.032730922 -0.108926184 -0.09186174 -0.05904676 -0.014082478 0.20914967 -0.18929455 0.13730289 -0.12231755 0.050497912 0.28671178 -0.041927695 -0.120170794 0.1886283 0.2202321 0.21634386 -0.030902877 -0.08122813 -0.037939537 -0.076410435 0.17360987 0.031306464 -0.29362482 -0.04053702 -0.19522735
22 0.078833826 -0.15799677 0.19905317 0.15758704 -0.10680652 -0.18091491 0.13073829 0.0013421816 -0.048382737 -0.040947195 -0.007751057 -0.20305212 -0.29304594 -0.12672506 0.03796868 -0.021164019 -0.06025685 0.066907756 -0.08736424 0.28294227 0.049491826 0.3580846 0.056524422 -0.076937914 -0.11488312 0.20361714 -0.13956016 0.03680266 0.0873086 0.008671988 -0.008489516 0.0039633005 -0.12409208 -0.13107392 -0.15534024 -0.004660502 -0.011073261 0.03846773 0.24872993 -0.0063050585 -0.12796403 -0.2182126 -0.064498626 -0.19063279 -0.059655152 -0.19839117 0.22170888 -0.23771398 -0.09190482 0.07458099 -0.14510053 -0.10887306 0.018112278 0.1842892 0.063402936 0.04653879 0.16638966 -0.32348478 -0.14476669 0.16409037 -0.016063595 -0.15419345 -0.27427885 -0.13929117
40 0.024326058 -0.20608824 0.25251073 0.029506546 -0.11552356 -0.11506302 0.06533815 -0.08923915 -0.129373 -0.016608445 0.119405374 -0.20470048 -0.21137144 -0.32293642 -0.13823216 0.09806199 -0.11349099 0.10068563 0.09287037 0.20556885 0.016541306 0.23738457 0.14527616 -0.18316701 -0.0038117964 0.14030738 -0.071762 -0.13872816 0.16147146 -0.07718566 -0.08474192 0.015552279 -0.042356595 -0.17148528 -0.1637513 -0.11336762 0.046780717 -0.050975773 -0.013639413 -0.09073767 0.14616624 -0.12324465 -0.12820332 -0.25531584 0.09193153 -0.08287479 0.10286453 -0.29405767 0.070996106 -0.044909265 0.17777096 -0.06777199 0.061605323 0.09820188 0.11687337 0.036045983 0.08478703 -0.20128971 -0.10811754 0.31326666 0.084773414 -0.17435604 -0.11321462 -0.06308349
18 -0.014298976 -0.26574364 0.18340261 0.10360813 -0.08296782 -0.17398767 0.06443735 -0.1382187 -0.16161032 -0.2334116 0.20249026 -0.12875614 -0.28936514 -0.18201557 0.0051325182 -0.027071405 -0.2319328 0.016289696 0.097935356 0.12058252 0.123970255 0.22678426 0.13017431 -0.06825663 0.16342945 0.24396263 -0.18261434 0.088752076 0.021173736 -0.032225408 -0.053874295 -0.01900466 0.08262389 -0.22830762 0.2447311 -0.1489451 -0.06233765 -0.075490974 0.15222955 -0.16810168 -0.05650958 -0.21335249 -0.15170702 0.16176131 0.21313815 -0.14974657 -0.0642833 -0.04612164 0.049025934 0.20047526 -0.008321012 0.06437866 0.13308275 0.19737954 0.11229189 -0.11674113 -0.064891405 -0.18688087 -0.13278803 0.28137615 -0.08911715 -0.1754964 -0.1694417 -0.17606992
84 0.025913734 -0.34016618 0.092747696 0.13546067 -0.06377469 -0.06994348 0.2490018 0.02425189 -0.05822453 0.08066131 0.015234741 -0.10857445 -0.30646214 -0.13187148 -0.0031936246 0.052713152 -0.0015903439 -0.021177685 0.12393117 0.17501809 0.09450337 0.47082514 -0.06239976 -0.041829426 -0.08849677 0.11803777 -0.13996461 0.048432708 0.123570785 -0.023070425 0.012425856 -0.20810634 -0.054097705 -0.010304801 -0.1324648 -0.15678346 -0.06815952 -0.12672019 0.23542714 -0.061692722 -0.13280377 -0.16974624 -0.088168435 -0.18153957 -5.5550205e-05 -0.1390433 0.15938225 -0.05893715 0.03248206 0.042792834 0.11207274 -0.30303603 0.025523886 0.24097678 0.17801669 0.0806679 0.14542428 -0.21160711 0.095000416 0.30164182 0.06640775 -0.22470012 -0.08086729 0.142586
7 -0.07484882 -0.12356975 0.19296035 0.13373144 -0.34877592 -0.21176152 0.05583033 -0.26338118 -0.08317037 -0.23343942 0.13544138 -0.22910333 -0.4226752 -0.21938477 -0.070510775 0.058600776 -0.14278324 -0.009073256 0.067641966 0.23961067 0.013675504 0.344515 0.30822358 -0.03696951 0.11568921 0.16031772 -0.10225725 0.0071665747 -0.19215031 -0.30707628 0.06807193 -0.107936114 -0.014281787 -0.3755874 -0.08656757 -0.059894305 0.2240584 0.14409389 0.15860452 -0.0284502 0.08548579 -0.23523535 -0.09523302 -0.013705868 0.23717654 0.027802287 0.045370176 -0.084008455 0.07774017 0.07261228 0.037957218 0.16247243 -0.004087261 0.16291311 0.094703555 0.055169225 -0.04807022 -0.21529666 -0.30093718 0.389783 -0.08540365 -0.027790124 -0.0098271575 -0.15303907
32 0.05030469 -0.31683922 0.08205362 -0.052166756 0.06245058 -0.18294312 0.085150294 -0.0042159166 0.034201637 -0.21724334 0.08410432 -0.12370799 -0.060235072 -0.36025274 -0.039190006 -0.0069925813 -0.12164998 -0.020486992 -0.005702946 0.19116387 0.11746192 0.19736983 0.048542935 -0.02887751 -0.04502272 0.18034042 -0.18095785 -0.00042480745 0.19452175 0.0016751182 0.021972273 -0.17026429 -0.110415645 0.02773606 0.06697079 -0.1141181 -0.2509581 -0.15422802 0.10749317 -0.19524436 -0.16456744 -0.060897943 -0.087979384 0.0533939 0.05311459 -0.10286782 0.2704888 -0.11208417 -0.035178035 -0.029215598 0.049751222 -0.24813308 0.07091636 0.29691812 0.18709794 0.026464816 0.17709827 -0.20738666 -0.13933474 0.14922552 -0.114459254 -0.40198734 -0.091561 -0.09646745
51 -0.0176874 -0.33268392 0.065856226 0.174038 0.07707125 -0.07474929 -0.077301405 -0.05820241 -0.18945338 -0.1265293 -0.012596217 -0.15649642 -0.24601087 -0.28172305 0.16333379 0.099548675 -0.018513732 0.003102178 0.0889582 0.14622194 -0.09846886 0.12246978 0.0887122 0.0560636 -0.14378704 0.16735888 -0.12623002 0.04772997 0.15325037 0.08464614 0.0552608 -0.23683754 -0.48041546 -0.12661077 0.062212188 -0.10977448 -0.24284633 -0.06424107 0.2881661 -0.10173629 0.021028427 -0.11286054 0.12385836 -0.10504874 0.1567272 -0.17062993 0.14619328 -0.20314313 0.07521335 0.16994463 0.008236708 0.017727159 0.023545172 0.17866883 0.05370718 -0.0015393238 0.068924814 -0.15410379 0.19270945 0.13639113 -0.116152726 -0.38531393 -0.21193846 -0.07809624
2 0.0031822254 -0.4569602 0.0074619614 0.040293984 -0.026800012 -0.06419707 0.1418905 0.028392846 -0.22804919 -0.14866656 0.12476473 0.023264738 -0.35163575 -0.2334856 0.28918716 0.03935088 -0.00048562864 0.041159138 0.1448547 -0.10454741 0.07236691 0.20971629 0.060531627 0.021163017 0.14583932 -0.078517675 -0.021166718 -0.033993326 0.19870792 -0.070329204 -0.18550454 -0.16259317 0.03624517 -0.07311104 0.11876763 0.012554346 0.117380455 -0.097159125 0.36060768 -0.09792364 0.032290332 -0.23714618 -0.15268464 0.07909305 0.31371158 -0.1393512 -0.13182896 0.028234221 0.115507536 0.39925605 -0.2353996 -0.025772857 0.09969623 0.3205507 0.20162016 0.10865203 -0.07956022 -0.21323545 -0.08005833 0.3354056 -0.07770167 -0.06199016 0.029174518 -0.116505705
35 0.0868863 -0.2584436 0.20915624 -0.10246056 0.17384137 -0.2734675 0.2493898 -0.20094074 -0.084315225 -0.3232145 0.11778173 -0.017324958 -0.25229648 -0.3135354 0.034594536 0.10774386 0.011997816 -0.018059753 0.18799904 0.17058858 0.10117821 0.21225508 0.07263199 -0.14106366 0.06354647 0.030006938 -0.062273055 0.005876651 0.05122699 0.12502997 -0.13343614 0.003145908 0.025410235 -0.003983896 0.01731841 -0.0054834047 0.1518457 -0.010299954 0.023530828 0.022412589 -0.107644156 -0.09211874 0.03544746 -0.101419576 0.21748158 -0.19978279 0.097572915 -0.08607804 -0.0014157502 0.12988813 -0.22047137 -0.23955499 0.03891089 0.22574028 -0.020744724 0.11643531 0.0140465805 -0.055611208 -0.34014833 0.18763164 -0.13607892 -0.025898442 -0.18707134 -0.4287308
88 0.1886888 -0.3586758 0.10575871 0.08795545 0.09320193 0.06333104 -0.004113605 -0.106252536 -0.20727903 0.06768427 -0.016617399 -0.32425776 -0.32277733 -0.13581656 0.0878683 0.10594724 0.14497419 0.05751128 0.042916503 0.21771549 0.19661668 0.32628387 0.052026253 -0.04086814 -0.363638 0.049264155 -0.16564819 -0.049753316 -0.10515767 -0.058896683 -0.15469636 -0.10829832 -0.11813202 -0.06192626 -0.16684769 -0.1525268 0.066498786 0.045803796 0.21168032 0.04433228 0.0030533075 -0.2538493 -0.19981246 -0.20204039 0.0976038 -0.14181758 0.122771055 -0.108994685 0.03893255 0.059667 -0.23075336 -0.10365693 0.103061765 0.2532657 0.03613976 0.18310028 0.079897195 0.028762985 -0.0069650505 0.25590396 0.031180082 -0.028418446 0.064631395 -0.054056656
70 0.036437754 -0.26324213 0.24362278 -0.07683556 -0.09197025 -0.30685723 0.059250582 -0.19851598 -0.16308326 -0.083692126 0.1423693 -0.07089715 -0.30821395 -0.35719997 -0.08630424 0.16938502 0.017093515 0.10135312 0.10394942 0.05797805 -0.052405365 0.24362926 0.15097617 -0.0291301 -0.062886044 0.075272836 -0.10927365 -0.08786238 0.02856547 -0.062284987 -0.14235067 -0.016693462 -0.16362315 -0.10975479 -0.12881309 -0.0143725695 0.21066831 -0.044717528 0.09864051 0.09032333 0.29402828 -0.14451502 -0.03371403 -0.08877999 0.26398408 -0.08701661 0.07520335 -0.15104467 0.17943452 0.09429063 -0.06475111 0.032939285 -0.0043938714 0.07271043 0.06483019 0.17977402 0.114503406 -0.13144371 -0.14657119 0.2937272 0.009080045 -0.114634186 -0.1524708 -0.1517192
19 0.09654577 -0.22636804 0.04987917 -0.07455823 0.2152853 0.08113006 0.073101714 -0.014091611 0.010249799 -0.12898113 -0.1421447 -0.2776464 -0.046378706 -0.1597088 -0.20046954 0.12272028 -0.07029886 0.0918782 -0.067218594 0.42298797 0.244718 0.182473 0.0022539685 -0.06683672 -0.239735 0.16764455 -0.15083009 -0.36924836 0.20448539 -0.13249035 0.14028393 -0.19154456 -0.15756316 0.019913647 -0.27766883 0.07322126 -0.099460244 -0.22584866 0.16539235 -0.18603532 -0.19923963 -0.13247228 -0.22331853 -0.11953494 0.16757701 -0.20428413 0.3267765 -0.1795992 -0.24087733 -0.16779336 -0.25583497 -0.1467459 0.077489324 0.2667452 0.11830324 -0.02282818 0.06545055 0.0349637 0.008043241 0.042834803 -0.07174036 -0.35952204 -0.1486622 -0.101062
34 0.17596571 -0.018196007 0.1468793 0.03189902 -0.18576185 -0.23609045 0.060710397 -0.052503604 -0.09477805 0.034253046 0.030937249 -0.20829096 -0.23666903 -0.28061387 0.019103311 0.23829359 0.14104667 -0.1160689 0.027053064 0.117550045 0.040531173 0.29596677 0.19780256 -0.0874192 -0.00032224404 0.16859381 -0.07269099 0.08972501 -0.12831734 -0.011293384 0.004899516 -0.13746846 -0.22733109 -0.20462821 -0.23182146 -0.047499973 -0.06663771 0.036665842 -0.0018167456 -0.06263117 -0.03844431 -0.046113197 -0.10538132 -0.14061794 0.13034375 -0.15599336 0.18320002 -0.25132236 0.05691698 0.15737021 0.026698524 -0.10032114 0.063635804 0.18081877 0.23440759 0.043153007 0.14068231 -0.1298971 -0.050698046 0.24433929 -0.03809493 -0.18779027 0.085319534 -0.22135146
36 0.041590583 0.0010502867 0.15285441 0.067365386 -0.19848049 -0.13495633 0.072555594 0.032375682 -0.10168756 -0.16485624 -0.015322177 -0.18227002 -0.1688851 -0.0037009076 -0.052482408 0.29684365 -0.19506592 0.01960558 -0.1308587 0.15643996 0.0894457 -0.03948634 0.2446994 -0.17847194 0.06343589 0.16391961 -0.113645814 -0.07564294 0.07039661 -0.282002 0.19324781 -0.18588784 -0.29756975 -0.31307662 -0.05736267 0.021166524 -0.12785621 -0.108780466 0.034977075 -0.27319577 -0.10029271 -0.01999957 -0.081951536 0.030181963 0.325037 -0.10041506 0.1696851 -0.2859974 0.17438976 0.20934202 -0.096601665 -0.035638284 0.17667541 0.27686054 0.32814556 0.06499692 -0.056078125 0.12371782 -0.16842887 0.088748485 -0.07490737 -0.30378783 -0.08156611 -0.019643681
100 -0.08524271 -0.08946499 0.2929494 0.10826556 -0.12727916 -0.15524083 -0.011866634 -0.0851404 -0.29362872 -0.009617144 0.17702217 -0.30998012 -0.33966792 -0.12982678 -0.048127003 -0.015817415 -0.076726854 0.020201715 0.23038995 0.27339312 0.03001207 0.13413122 0.12455472 -0.030457485 -0.0005210355 0.2032287 -0.16105181 0.07695565 0.04139577 -0.028589461 -0.027186958 -0.036968324 -0.12814333 -0.17778876 -0.04129192 -0.33563265 -0.15795584 -0.08488298 0.04037467 -0.20006827 -0.03822666 -0.09441474 -0.062156938 -0.16688985 0.088739164 -0.13909021 0.06396966 -0.1884047 0.19983599 0.11180952 0.27672037 0.018098596 0.17717592 0.057173796 0.11771591 -0.021088071 -0.046242863 -0.070593864 0.05640236 0.29987964 0.13442485 -0.3620411 -0.008630691 0.02968715
78 0.089369066 -0.18507965 0.25682965 0.15073206 -0.035343666 -0.0068960944 0.10715367 -0.24176288 0.13468 -0.10765201 0.0956477 -0.06529275 -0.20238337 -0.38419715 0.012234944 0.19632465 -0.06632378 -0.17772353 0.016582875 0.27269205 -0.09788336 0.24996617 0.21862422 -0.048702426 -0.14089674 0.0712026 -0.13033605 -0.01893155 0.0666955 -0.08228231 0.051788587 0.01887102 -0.32541406 -0.056988657 -0.12544785 -0.07632062 -0.050430395 0.05777957 0.21158971 0.2701196 0.09940625 -0.1673418 -0.015280092 -0.26306355 0.2048231 -0.16986276 0.33671707 -0.08301618 -0.097639054 0.15901792 -0.2832824 -0.039531313 -0.0076862336 0.13348536 0.061742544 0.2145499 0.21662983 -0.0702766 0.05423587 0.28168625 -0.034331158 -0.15144984 -0.075273946 0.022340681
23 0.020549951 -0.12709482 0.25798625 0.009077958 -0.16488104 -0.10416583 0.0049193897 -0.1045545 0.048553262 -0.1509511 0.24937409 -0.18338083 -0.052189436 -0.37143302 -0.12272241 0.1686389 -0.09692855 -0.27789766 -0.004557153 0.30908024 -0.08069794 0.053227562 0.3690142 -0.1514528 -0.03659639 0.16497503 -0.067985006 -0.09738159 0.060323365 -0.24944131 0.019036423 -0.067954265 -0.26600486 -0.16277297 -0.3007216 -0.17742078 -0.016612621 -0.1407033 0.018055962 0.031005831 0.1897273 -0.12422345 -0.059340544 -0.36931264 0.2065437 -0.12437606 0.22859374 -0.21665764 0.04502428 0.0121143125 0.03024203 -0.08011202 -0.06646437 0.13843973 0.15714142 0.2720733 0.15019079 -0.10393624 0.11876269 0.29299653 0.018168014 -0.070550255 -0.055872858 -0.11431456
65 0.07216818 -0.29311475 0.063379474 0.08083836 0.034059253 -0.102362394 0.17779 0.039335724 -0.30453756 0.0629401 0.046782035 -0.2378322 -0.33389068 0.006431889 0.14297293 0.14990646 0.034881577 0.121211134 0.10200286 0.17167458 0.10896921 0.42511722 -0.058487598 -0.031897034 -0.07419136 0.2014038 -0.12839016 -0.1870376 0.07795242 0.020604178 -0.14792834 -0.21922226 0.04221646 -0.15020502 -0.14079826 -0.029079532 0.09906533 0.03344177 0.21041575 -0.14989811 -0.0855811 -0.17139159 -0.046624415 -0.14209205 0.09166254 -0.16494235 -0.06580676 -0.13354181 -0.041818555 0.18031356 0.023609005 -0.09852623 0.1764513 0.19768126 0.07490744 -0.080748424 0.0074152523 -0.14634974 0.040209375 0.19112557 0.04215212 -0.094411045 -0.24179852 -0.16790079
15 0.06303467 -0.243508 0.20740004 -0.10339036 0.04805375 -0.023968946 0.009924105 0.11390975 -0.2175309 0.15141347 0.10042299 -0.16572438 0.033472966 -0.1043325 -0.10971694 0.17536628 -0.21215305 0.20344245 0.11224389 0.1534599 0.16875966 0.06443365 -0.0695229 -0.2510474 -0.120411895 0.20651707 -0.28534377 -0.11694023 0.14631626 -0.2449636 -0.079284996 -0.06396084 -0.20114996 0.02769197 -0.16575772 -0.20170122 -0.010838694 -0.399396 0.15020974 -0.2882482 0.011909243 -0.10232578 -0.29899582 -0.029900983 0.13311702 -0.025711004 0.13789475 -0.04979356 0.14918569 0.20286475 0.13321158 -0.054829285 0.048397895 0.025651753 0.32220307 0.2533394 0.12741065 0.1293039 -0.017859662 0.1889265 0.025913192 -0.33636096 -0.23005714 0.051824596
56 0.09548066 -0.11901402 0.08450855 -0.04066207 0.016145267 -0.13733049 0.031098513 -0.09681376 -0.156738 -0.067264155 0.13104758 -0.23101445 0.0067209825 -0.18154685 0.084148 0.19449905 0.07505371 0.041066807 0.21242754 0.33448452 0.111217976 0.28020635 0.0826336 -0.24178009 -0.04642856 0.056419853 -0.30218557 -0.065259166 0.04856411 -0.14618681 -0.15243283 -0.009972612 -0.078828454 -0.093831845 0.007681012 -0.1744129 0.17350289 -0.13662425 0.21988706 0.022605028 -0.10865022 -0.22555523 -0.06966673 0.06042282 0.20716754 0.037838973 -0.1632609 -0.013145837 0.05578959 0.29022825 -0.13299826 -0.016221395 0.19648151 0.2199077 0.2228272 0.19327228 -0.1335943 0.16218571 -0.19208685 0.21371073 -0.063995674 -0.10603582 0.017173626 -0.1122246
4 0.014140277 -0.2542661 -0.054044522 0.006704605 0.08779651 -0.19545391 -0.025637295 -0.06960373 -0.35411373 0.0040724194 0.06664422 -0.21037658 -0.07661705 -0.05782668 -0.049243122 0.23732115 0.1804989 0.07160252 0.10619562 0.25960344 0.23451605 0.22013922 0.024984512 -0.19033533 -0.031224556 0.17136316 -0.27902088 0.06948063 0.07659121 -0.12539922 -0.022886269 -0.13814536 -0.05122008 -0.07591369 -0.15370236 -0.16631997 -0.032597296 -0.27465746 0.07695466 -0.10858872 -0.013843926 -0.062921494 -0.07192618 -0.004187572 0.21058282 -0.2381613 -0.038741414 -0.14679636 0.27992243 0.060337592 -0.017120231 -0.16561022 0.15595965 0.26884598 0.17814341 0.17195643 0.031689763 0.2305454 0.021586446 0.08910351 0.020403862 -0.17336538 0.043566335 -0.123472854
10 0.16219325 -0.33563066 0.22266503 -0.03660383 0.052517787 -0.41956452 0.15476277 0.01294412 -0.27323338 0.04899512 0.11533259 -0.13958544 -0.22666848 -0.29667622 0.013737006 0.17812903 0.19189669 -0.10209031 0.21465445 0.06213957 0.17574856 0.3102769 -0.091258444 -0.10743931 0.014545137 0.08863792 -0.24687687 0.048317164 0.04817518 0.21317929 -0.0760191 -0.077808976 -0.021119561 0.017820919 -0.16458736 -0.044243805 0.15134667 -0.12530962 0.05792227 -0.023284798 0.025560087 -0.046562765 -0.0025048093 -0.114749454 0.19928704 -0.19761287 0.097842366 -0.107692085 0.15905355 0.14806893 -0.025083346 -0.10838204 -0.034389317 0.030488225 0.11217697 0.15725692 0.12521484 -0.0065712254 0.07505973 0.19900016 0.03559816 -0.1694468 0.0055319504 -0.2063299
96 0.061169636 -0.22099394 0.01350771 -0.1593848 0.10416267 -0.26640698 -0.06134846 0.11455204 -0.24736255 0.027232902 -0.0064363573 -0.38977656 -0.0700695 -0.31991553 -0.031581298 -0.0036231352 0.048872262 0.071811244 -0.14776853 0.4827505 0.05534252 0.11680344 0.19586101 -0.06125187 -0.1465826 0.18682349 -0.17255251 -0.053722337 0.08004221 -0.08476453 -0.2798055 -0.076329425 -0.09663515 0.03544028 -0.34214655 -0.1329872 -0.118310496 -0.15616441 -0.005832526 -0.20926045 -0.082002655 -0.09940575 -0.13658215 -0.108455464 0.011604407 -0.012731996 0.13707127 -0.19972125 0.039131142 0.01231435 -0.15746596 -0.08965187 0.07983137 0.15774468 0.12594187 0.17253008 0.09393054 -0.19628833 -0.03736935 0.06593886 -0.1277141 -0.15073046 -0.103435904 -0.25038892
60 0.120524034 -0.3265788 -0.036182884 0.045278225 0.22256362 0.017190581 0.08077957 0.0018998985 0.0056782416 0.016518353 -0.1894703 -0.08156789 -0.102849856 -0.24537161 0.08166325 0.058901478 0.18880218 0.19371413 0.0013221656 0.25031608 0.10843299 0.15067028 0.075668775 -0.079430714 -0.19166867 -0.05673998 -0.1401752 -0.14911912 0.35304183 -0.011862367 -0.16423039 0.0033593124 -0.10691558 0.20369908 -0.088969015 0.0030706986 -0.1304382 -0.12056522 0.19656233 0.024382416 -0.23378684 -0.16282989 -0.034903932 -0.08846294 0.04988157 -0.15054213 0.18073933 -0.07146216 -0.22749463 0.21967371 -0.38275456 -0.30500928 0.26752117 0.27074394 0.15448403 0.067517206 0.051068757 -0.11819296 -0.15251349 0.09111608 -0.067347534 -0.32866842 -0.14706625 -0.17834924
17 0.13110286 -0.09520229 0.35261458 0.077069096 -0.12238463 -0.14518641 0.21066436 0.048739262 -0.052717585 0.10768442 -0.02344193 -0.10937059 -0.27300373 -0.2872953 -0.030797493 0.2734608 0.02578822 -0.03689707 0.14648877 -0.0696112 0.010876075 0.16498639 0.0737554 -0.036399793 0.009214712 0.12530923 -0.1024475 -0.044619404 0.024686065 0.016728055 0.15908581 -0.09912225 -0.30443427 -0.10086228 0.011962936 -0.17667559 -0.12949698 -0.11464136 0.0017263044 -0.22869663 -0.09852498 -0.004678862 -0.08015492 -0.022950498 0.12262194 -0.10930228 0.33630282 -0.15283781 -0.016212935 0.31015483 0.2004501 -0.21590413 0.19814809 -0.013918543 0.32726958 0.013358222 0.12564099 -0.1674236 0.051523566 0.26156884 0.1081632 -0.4260806 -0.0327639 0.032171484
29 0.03150453 -0.15647595 -0.03266219 0.17426585 0.057999153 -0.0026852288 -0.015224701 0.01998645 -0.11438632 -0.012348475 -0.102859706 -0.30172452 -0.046349354 -0.16371337 0.123614036 0.09518977 -0.020286568 0.13031784 -0.11759728 0.2720266 0.14716199 0.23493712 -0.10006417 -0.2061848 -0.18696325 0.15919353 -0.28357962 -0.034428954 0.18072423 -0.13913693 -0.067209944 -0.016288757 -0.24781688 -0.08486863 -0.19444302 -0.036961645 -0.11453637 -0.12712245 0.23283626 -0.10139397 -0.0044828947 -0.1189428 -0.20400655 0.06405367 0.036568828 -0.21367757 0.10969863 -0.18911202 0.0088804355 0.15293935 -0.19539942 -0.005090576 0.17686363 0.120957725 0.21896407 0.17667736 0.15700899 -0.085777916 -0.17552342 0.06983952 -0.07096139 -0.30298227 -0.13288379 -0.14104705
27 0.10457615 -0.41181904 0.08866994 -0.00090783625 -0.08125619 -0.22032744 0.30346808 -0.09766433 -0.04739965 -0.14580221 0.2036354 -0.0056303637 -0.12303275 -0.4557854 0.060272347 0.10225163 0.01919529 -0.19716041 0.026919456 -0.055218365 -0.025097735 0.18045078 0.15037435 0.005906368 0.114910446 0.062194224 0.035242166 -0.022743143 0.16726491 -0.0008653942 -0.12378501 -0.008068206 -0.13687538 0.0032614404 -0.25529203 -0.0014400373 0.17809561 -0.007178505 0.09948203 0.12709881 0.15598278 -0.103649214 -0.021083493 -0.272534 0.2064408 -0.15467627 0.17961375 -0.08678182 0.16899867 0.2592756 -0.05316253 -0.1503671 -0.15238854 0.21310613 0.101516046 0.21550684 0.17328987 -0.23843749 -0.02555111 0.400048 0.03422304 -0.0010981673 -0.14906456 -0.29742587
62 0.11845799 -0.14867324 0.26947397 -0.027020082 0.12990108 -0.19970113 0.30650508 -0.28363964 -0.021254746 -0.22157301 0.097451024 -0.05726449 -0.044395886 -0.23522146 -0.26101294 0.16014878 0.009840648 -0.030856555 0.14761949 0.1688581 0.08074431 0.31873775 0.01718346 -0.25970966 -0.031095818 0.26003337 -0.118897565 0.0020372064 0.15785544 -0.05170658 0.06482671 -0.14237835 -0.10748681 -0.030618314 -0.31295738 -0.071035594 0.07998925 -0.08002664 0.021831889 -0.06128404 -0.1533613 -0.006070139 0.022745395 -0.32546875 0.22782424 -0.17970273 0.28643012 -0.25189322 0.065107584 -0.10521738 0.14179921 -0.2533113 -0.066342175 0.13709821 0.06042104 0.117764086 0.10762534 0.15755624 -0.083622016 0.10372326 0.056179415 -0.17737608 -0.21460998 -0.2583239
57 -0.07394854 -0.22381318 0.24398312 -0.006569982 -0.042492095 -0.00038679704 0.35287845 0.026255934 -0.1392162 -0.117613085 0.102385156 0.14292982 -0.25397164 -0.24128881 -0.07370995 0.055979535 0.002676236 0.07649371 0.22239767 -0.07273285 -0.08763244 0.075374834 0.17424901 -0.07867759 0.23370981 -0.09637591 0.12479607 -0.24743982 0.3649446 -0.14855525 -0.014575618 -0.07611187 0.13937302 -0.058519352 0.016161388 -0.05642024 0.004897818 -0.13028306 0.058611147 -0.14600669 -0.061154556 -0.14549881 -0.042119104 -0.1755451 0.33193335 -0.15702634 0.09106507 -0.117664784 0.042621017 0.38680422 -0.011769018 -0.26961353 0.22140831 0.22452277 0.27662283 -0.024850305 -0.1548977 -0.21989322 -0.037740763 0.35831988 0.21192513 -0.2649683 -0.10829266 -0.03830226
46 0.10450967 -0.13154528 0.02225503 -0.16011871 -0.027113322 -0.29000527 -0.056297384 -0.081606016 -0.13179812 -0.11268311 0.11179265 -0.2931233 -0.2984232 -0.055049535 0.04446632 0.09370305 -0.24613811 0.15451564 -0.031586435 0.36478877 0.07313988 0.40903348 0.19034667 -0.10754219 0.038320865 0.1692038 -0.1338374 -0.020877654 -0.03656787 0.046877056 -0.21675546 -0.039848633 -0.10833151 -0.20805946 -0.081735946 -0.107628085 0.018621236 -0.10809412 0.25907245 -0.16784269 -0.22789213 -0.3289295 -0.07889594 0.022985933 0.06281205 0.078077406 -0.035026733 -0.08543953 -0.119541846 0.1334725 -0.13113663 0.06289341 0.13177927 0.10623495 0.029059531 -0.0322414 0.15574662 -0.10531495 -0.23623918 0.07316133 -0.28952697 -0.14067024 -0.2995783 -0.29111236
14 0.043816783 -0.3096379 0.074336655 0.09649753 -0.11093805 -0.24228607 -0.02989886 -0.060886323 -0.3041268 0.02374723 0.18469611 -0.11588066 -0.3214815 -0.25379074 0.116649576 0.1847259 0.11597292 -0.047387503 0.025160147 0.13773106 -0.08710956 0.22554106 0.3196152 0.0061966395 0.102540866 0.014416428 -0.0437401 0.03461371 0.07957394 -0.11136056 -0.18685995 -0.09255074 -0.107007466 -0.17595273 -0.11636371 -0.11814481 0.17928657 0.0070060138 0.119759515 0.09610252 0.17759296 -0.2628319 0.07519808 -0.2273121 0.2136103 -0.031111903 -0.081055894 -0.15855151 0.23110926 0.21549599 -0.113721184 0.04714821 0.044071294 0.27054217 0.12884605 0.20229475 0.06167724 -0.13820453 0.04458457 0.327766 -0.03951447 -0.026347494 0.03323407 -0.116441466
38 0.1294938 -0.0044869413 0.18682638 -0.1595032 0.045681085 -0.08548369 0.06697765 -0.14055265 0.036396034 -0.14311077 0.16022469 -0.25906566 -0.09116903 -0.27806416 0.005173193 0.12831391 -0.2798513 -0.013137041 -0.045764454 0.2882562 -0.02086162 0.05181641 0.25467172 -0.19612323 -0.011401125 -0.00017710146 -0.008513069 -0.02252269 -0.028749054 -0.110946655 -0.18580246 0.04269213 -0.22517163 -0.15191811 -0.17852078 -0.13293786 -0.050607566 0.022089932 0.07821071 0.030395545 -0.053577337 -0.1813982 -0.24082772 -0.1516589 0.19419321 0.07219705 0.21197456 -0.17285493 0.004487478 0.2854478 -0.39163092 0.08111127 0.1406496 0.06913777 0.21319391 0.20618571 0.037044093 -0.040909134 -0.32529768 0.22045144 -0.13927077 -0.10503042 -0.1285827 -0.2763157
47 0.11994067 -0.0833505 0.11703163 0.0023146197 0.034027312 -0.20102075 0.13954444 0.024360776 -0.008155154 -0.09147149 0.09082744 0.016267655 -0.0292943 -0.31743264 0.15586963 0.19303736 0.28444836 -0.2634363 0.10238519 0.13135715 -0.024517477 0.20722903 0.1673531 -0.28592837 0.043526493 0.05966674 -0.093738325 0.08067111 0.17920312 -0.031290926 -0.061343826 -0.0922517 -0.09428285 -0.004381391 -0.21867537 -0.04938009 0.025117282 -0.006375652 0.06264434 0.062027063 -0.17820564 -0.13452576 0.022773894 -0.29029328 0.15009934 -0.20302275 0.12617299 -0.28749022 -0.054761462 0.30583596 -0.23537605 -0.3334789 0.042739727 0.31756997 0.28166923 0.24293528 0.1069614 -0.115566306 0.08780152 0.152008 0.12756158 -0.0040140767 -0.050188858 -0.20002729
6 0.10707532 -0.106055565 0.16565023 0.044642705 -0.12335283 -0.3254722 0.25479442 -0.032457817 -0.14333959 -0.0896697 0.10036285 -0.3179304 -0.30026636 0.1341065 0.04844802 0.058887433 -0.14057243 -0.055523545 0.010318872 0.067403376 0.23635393 0.28781033 -0.025327545 -0.1630913 0.054929215 0.25166452 -0.15972695 0.095031954 -0.07232883 -0.11596209 -0.0017200141 0.051693175 -0.04912584 -0.16154477 -0.20411353 -0.09829624 0.11418947 -0.094869055 0.04553128 -0.0372111 -0.19576056 -0.06658625 -0.2098227 -0.057398096 0.094967134 -0.15903158 0.020209145 -0.020370807 0.10517656 0.44967586 -0.091641866 0.08135559 0.10089203 0.037395258 0.052596908 0.18223551 -0.030432202 -0.028257122 -0.32125863 0.29392204 0.050925553 -0.09786619 -0.16901435 -0.1926039
43 0.2181348 -0.23679222 -0.052932974 -0.043202944 0.045299433 -0.16601594 0.110945515 0.024567435 -0.03457971 0.11748177 -0.025129465 -0.25455594 -0.06371007 0.07335997 0.09966049 0.16239871 0.043328524 0.02328745 -0.027587917 0.15698099 0.19400953 0.3321684 -0.029768309 -0.14182769 -0.15473928 0.16911392 -0.27576548 0.08761288 -0.05054476 -0.08192198 -0.124951616 -0.030046202 -0.27249637 0.07469219 -0.321966 -0.16863935 -0.052016877 -0.19328678 0.27793175 -0.02187186 -0.29773295 -0.14479578 -0.24258699 -0.058799025 -0.042671222 -0.07937837 0.2000249 0.08453659 -0.0059192628 0.3677422 -0.15500535 -0.15492727 0.059903033 0.12013237 0.17691335 0.19624595 0.13613176 0.058835197 -0.2056687 0.12497849 -0.13452645 -0.2588281 -0.11601799 -0.26264313
71 0.030391308 -0.0018554085 0.09050925 -0.18901078 0.05154102 -0.12099302 -0.1211305 0.12409532 -0.12552813 -0.11647927 0.12172871 -0.1089702 -0.032177206 -0.42117453 0.10719655 0.18411213 -0.029642122 -0.06400381 0.08105817 0.2974635 -0.0013604475 -0.000845712 0.30543375 -0.18961713 0.08422593 -0.07913543 -0.117753245 -0.049403675 0.07852364 -0.06020185 -0.124735154 -0.120382346 -0.1906257 -0.10237921 -0.050998412 -0.02694721 -0.026244028 -0.10180693 0.14788964 -0.17237553 -0.070503265 -0.2015073 -0.051800784 -0.013548573 0.28161067 0.08753986 0.11502256 -0.18102822 -0.06515231 0.35268 -0.37201148 -0.003092258 0.13402145 0.25039533 0.36712533 0.18271369 0.004260986 -0.089412495 -0.02177563 0.17031151 -0.107667804 -0.25256515 0.07246726 -0.1101145
67 0.15387675 0.013495007 0.26965687 0.14267994 0.087414525 0.048919525 0.10178212 -0.097236805 -0.049817298 -0.041397225 0.07526976 -0.00080576626 -0.22445723 -0.22848395 0.15786886 0.30663714 -0.08847866 0.035701342 0.007988636 0.34152567 -0.15093969 0.12876774 0.2543205 -0.10508144 0.04477697 -0.13429162 -0.09629322 -0.087116376 0.14066055 -0.018834302 -0.0014422955 0.0075038825 -0.35027725 -0.076173514 0.13546085 -0.16462757 -0.03152141 -0.17739263 0.3333182 0.040734414 -0.12526214 -0.31418645 0.020299692 -0.086591244 0.2785126 -0.06599344 0.12798409 -0.08703224 -0.10413347 0.25888047 -0.58468544 -0.046538718 0.20291434 0.17946695 0.32134256 0.17126895 -0.006615976 0.054251652 0.10424912 0.11631791 -0.17511356 -0.21689922 -0.041154973 0.061012913
50 0.25600934 0.06452522 0.13297509 -0.11747194 0.07593375 -0.30944476 0.13151596 -0.0026615458 -0.16113017 0.038639247 0.23900114 -0.30340028 -0.10994008 -0.18281028 0.17494626 0.21702753 0.1146703 0.0006354792 0.19377168 0.27330765 0.12651938 0.19994634 0.31167448 -0.09891188 0.100621976 0.09388371 -0.053716797 0.022132967 -0.0925974 -0.012405006 -0.1561913 -0.046690416 -0.17583416 0.047950853 -0.15257698 -0.29573622 0.20283704 -0.12977254 0.12143979 -0.13687842 -0.26431504 -0.18318485 -0.11277218 0.0037229927 0.18036738 0.13110976 0.014415593 0.08722113 0.051986232 0.3876661 -0.21632412 0.014638576 0.22503775 0.10583058 0.21823172 0.18783343 0.012733904 0.17586084 -0.108024724 0.20897745 -0.1209277 -0.08055388 0.08135622 -0.29977202
30 0.13496698 -0.32059386 0.24072956 -0.17941166 0.18233295 -0.155413 0.08843192 -0.107204 -0.12569924 -0.17390987 0.1392257 -0.12523378 -0.19139239 -0.44286913 -0.024323795 0.006616943 -0.08670077 -0.06051382 0.124016546 0.31591374 0.11468998 0.23354468 0.0014245058 -0.07522383 -0.038991183 0.0013611639 -0.20012963 -0.102584265 0.05855919 0.17382774 -0.17435439 -0.01647068 0.011894741 0.036249977 -0.11369946 -0.0036755076 0.044676267 -0.08142025 0.15376817 0.007656244 -0.0145938 -0.16866587 -0.056977093 -0.20040202 0.22715175 -0.16125192 0.1549655 -0.108126745 -0.13748206 -0.0021144564 -0.23921895 -0.07247022 -0.05906293 0.07862648 0.0116191795 0.06801089 0.08496674 -0.12164625 -0.0049645277 0.16781047 -0.20124024 -0.10412277 -0.15899548 -0.3123968
90 0.07798238 -0.17616509 0.0849244 0.12677066 0.098006986 -0.1626244 0.2512909 -0.19882043 -0.17463806 -0.31190047 0.060295876 -0.2370697 -0.24827191 -0.2106309 0.1044749 0.11243316 -0.13435715 0.042842407 0.09427943 0.17249458 0.20326254 0.34080783 0.001009477 -0.050398413 0.11154882 0.19659133 -0.119533844 0.0208563 0.063065514 -0.008477003 -0.07885774 0.0126893595 0.100899994 -0.18653925 0.030828482 -0.038998332 0.079467386 0.09946088 -0.013818732 -0.050771113 -0.11428429 -0.0957693 -0.15120558 0.19586192 0.1759843 -0.1619848 -0.013160199 -0.11492872 0.03679158 0.21660523 -0.17688908 0.02237425 0.22759086 0.26579526 0.09214544 -0.014297098 -0.08295792 -0.10073264 -0.360152 0.24957466 0.016968265 -0.117040895 -0.045232166 -0.20016968
31 -0.18460336 -0.0727007 0.14189391 0.20294945 -0.32533857 -0.22442782 0.17398152 -0.1338238 -0.11359863 0.112804234 0.011387639 -0.14032625 -0.3846596 0.025153533 -0.05600385 0.07416787 0.0883379 0.099024564 0.09796373 0.24452147 -0.12286582 0.24003668 0.266528 -0.17053004 0.022332987 0.13555238 -0.037659004 0.13105957 0.027530275 -0.24070953 -0.08954955 -0.1178445 -0.057271466 -0.11521088 -0.21580316 -0.21818373 -0.05116616 0.066967554 0.048108783 -0.065812305 -0.14404938 -0.12334065 0.032197826 -0.2704758 0.040005866 -0.06787363 0.1468256 -0.20427282 0.19912632 0.26062593 0.033097852 -0.20210457 0.19054827 0.09395645 0.19526091 -0.020694613 -0.03041992 -0.17592297 -0.1636838 0.2438152 0.14103918 -0.23663141 -0.18127733 -0.097729385
87 0.19489047 -0.26412302 0.23035392 -0.0582201 0.04653113 -0.26194757 0.21112578 -0.18022794 0.04716866 -0.12858768 0.25168768 -0.06482188 -0.21710669 -0.31871682 0.13029824 0.033507474 -0.010512145 -0.13570815 0.23909023 0.069602214 0.07909693 0.37742695 0.09100206 -0.1526769 0.056002356 0.1467303 -0.13016634 0.10230327 0.030483527 0.17198348 -0.03717896 0.041835144 -0.14709313 0.06561286 0.05237939 -0.20927016 -0.049329337 -0.009520791 0.076459065 -0.014345157 -0.1875064 -0.09690948 -0.025024692 -0.15387936 0.03914348 -0.10842289 0.18325497 0.00041179376 -0.11695356 0.30890727 0.08059803 -0.2563413 -0.031050853 0.10597424 -0.025726106 0.05520282 0.16910818 -0.20623487 -0.14187151 0.3342881 -0.082993284 -0.09820832 -0.16219226 -0.25476244
95 -0.07798941 -0.20398803 0.31224984 0.1758231 -0.14751644 -0.21862233 0.14319131 -0.10876214 -0.26785448 -0.15897301 0.13301148 -0.22906369 -0.45840785 -0.13056576 -0.03448291 0.01840156 -0.08514575 0.045326684 0.15691818 0.21589176 0.044447303 0.19221446 0.12012324 -0.08270937 0.010796072 0.13212863 -0.14950277 -0.10467848 0.032307174 -0.08957588 -0.061395198 -0.016431551 0.09707659 -0.19556633 -0.015640585 -0.13480969 0.23555054 -0.01421826 0.117617704 -0.025595287 0.070890464 -0.22745511 -0.024857221 -0.0052197087 0.20533015 -0.106156565 -0.07269913 -0.12280581 0.12856965 0.22387624 -0.102017544 0.115897566 0.13180695 0.021630289 0.08107976 -0.011346761 -0.1461102 -0.13563693 -0.10022996 0.29175332 0.18092887 -0.11591921 -0.14940314 -0.049283996
24 0.14728683 -0.35283414 0.04754188 -0.14203465 0.33831227 -0.16957477 0.21615727 0.067750245 -0.10357699 -0.122016445 -0.11652853 -0.2677324 -0.08133417 -0.02214847 -0.016175507 0.17124617 -0.007229482 0.05177242 -0.014348285 0.26540488 0.27057043 0.18874261 -0.24515629 -0.14978242 -0.23198901 0.18592456 -0.2549223 -0.22728413 0.23440742 -0.04274877 -0.10982229 -0.05961502 0.036812373 0.12714864 -0.25431684 -0.14321932 -0.08669994 -0.356769 0.030247563 -0.1281723 -0.12114735 -0.038477413 -0.17701292 -0.0090179425 0.09795226 -0.20084019 0.15990771 -0.08990985 -0.004638434 0.096114025 -0.22362863 -0.24668895 0.17085393 0.12587178 0.12668578 0.12381881 0.058040284 0.15986514 -0.06968371 -0.0046815653 -0.01830305 -0.2253876 -0.25268894 -0.12006689
39 0.047770698 -0.1301072 0.14859526 0.0057752244 -0.17008694 -0.38576776 0.29970127 -0.026422592 -0.006225832 -0.19126713 0.07226521 -0.061010174 -0.36541784 -0.21544354 -0.029161425 -0.017392611 -0.01369732 -0.09333055 -0.037009977 0.12519085 0.010130368 0.3235011 0.11214014 -0.12246497 0.19560267 0.11654918 -0.026993651 0.060723547 0.012637974 -0.060725406 -0.12927286 0.02991375 0.056838963 -0.044451002 -0.22651657 0.005525215 0.14286235 -0.07909853 0.086757064 -0.015698642 -0.16249767 -0.10842036 -0.10278503 -0.015864924 0.12231388 -0.19036464 0.081671335 -0.106060386 0.06651153 0.26246375 -0.12776089 -0.07886326 -0.035593987 0.10551474 0.14533502 0.09442827 0.07458109 -0.2766823 -0.28033254 0.25278717 -0.06876616 -0.06803604 -0.13258652 -0.36020437
97 0.00025483253 -0.36206883 0.026515236 0.3500948 -0.038040746 0.017007472 -0.0071986965 -0.14754619 -0.17547779 0.030627334 0.0050251535 -0.27053294 -0.3024029 -0.12151922 0.26634273 0.15261258 0.087829165 -0.058931377 0.1666722 0.059394114 0.15031694 0.29557326 0.06733162 -0.054447282 -0.18153535 0.059664648 -0.1647173 0.13026439 -0.020094272 -0.23680158 -0.09032021 -0.13555421 -0.21344975 -0.06132232 -0.075618766 -0.14875829 -0.042523004 0.0005305671 0.19524598 0.105335414 0.1722493 -0.14048983 -0.19172496 -0.09051897 0.13950084 -0.10760211 0.09269378 0.023540929 0.20396136 0.38485512 -0.19088791 0.13175194 0.13901506 0.110260755 0.13912527 0.29347363 0.018780118 -0.029037591 -0.016896723 0.31594282 0.07690814 -0.12500997 0.12919046 0.03603754
8 -0.006697064 -0.076708145 0.32430464 -0.03652544 0.025782734 -0.19597894 -0.00469876 -0.25856626 -0.027461648 -0.19470128 0.06846683 -0.10563978 -0.16278578 -0.46862787 -0.15254955 0.13959813 -0.06971103 0.08215211 0.06910165 0.20594853 -0.022880541 -0.060549084 0.23784563 -0.07017335 0.03932576 -0.040510997 -0.13494685 -0.10734561 0.1834777 -0.057447955 0.011419288 0.07259218 -0.2779859 -0.09199575 0.103895895 -0.02865965 -0.12224199 -0.13154325 0.093719766 0.036121577 0.06988331 -0.06522959 -0.011071912 -0.0012949328 0.2846325 -0.0335558 0.22934957 -0.166844 0.020355904 0.1763394 -0.29131392 0.13137574 0.16273242 -0.012800398 0.1839952 0.08409793 -0.10792299 -0.08381878 -0.17720845 0.20793422 -0.013036019 -0.42750844 -0.04371428 -0.17289463
82 0.17684925 -0.26557276 0.219474 -0.19563556 0.060035426 -0.153758 0.14164779 0.0019522026 -0.21115234 -0.1364867 -0.03261188 -0.36271146 -0.08056068 -0.14732216 -0.22897424 0.23297505 -0.080018796 -0.008204009 -0.059000455 0.21029635 0.28173605 -0.009887786 0.076951735 -0.075175524 -0.19152543 0.1277361 -0.09331713 -0.36084822 0.095277175 -0.24280322 0.03187409 -0.08515759 -0.047843654 -0.11111357 -0.48316172 -0.021790378 0.07243372 -0.37614042 -0.1789725 -0.1614931 0.14093198 -0.00045978124 -0.24008906 -0.1954477 0.26353097 -0.12710236 0.21485877 -0.21042836 0.18709202 0.00048312463 -0.019419005 -0.10405462 0.06313188 0.1114279 0.08353263 0.18223177 -0.08622736 0.2334374 -0.066510424 0.213403 0.11499487 -0.16475809 -0.021707494 -0.07850306
53 -0.05801745 -0.33321148 -0.017991494 0.034882642 -0.19171475 -0.30942756 0.05227175 0.09734709 -0.17204116 -0.07595898 -0.02013125 -0.32305923 -0.22278616 -0.088749886 0.11666798 0.057136312 -0.08075224 -0.14162757 -0.0766211 0.13077123 0.09603141 0.27387872 -0.0054877335 0.08254379 0.0126224905 0.28823686 -0.18898039 -0.005559658 0.046287976 -0.25594312 -0.03289833 -0.16540341 -0.09864866 -0.19836591 -0.15995574 -0.07523854 -0.052910093 -0.17994712 0.15264197 -0.12960069 0.07218113 -0.06365757 -0.20291843 0.15207195 0.1061234 -0.08686787 -0.024290413 -0.026979938 0.14275688 0.3165742 0.09711254 0.039753035 0.037359703 0.17212647 0.18359883 0.093163975 -0.06844762 -0.260312 -0.06756348 0.32246056 -0.056623966 -0.21958248 -0.051195167 -0.034197524
79 0.20053789 -0.40985084 0.05693364 -0.11574438 0.029966403 -0.028985161 0.009120498 0.15526494 -0.04794676 -0.18043941 0.26042852 0.15451601 -0.22448514 -0.41327816 0.1896056 0.1886971 -0.0203482 -0.29713616 -0.015930697 -0.0060958215 0.01905396 0.180203 0.27375036 -0.09804171 0.20917913 -0.17427383 -0.017721226 -0.019665612 0.19935188 0.1435391 -0.05204145 -0.06305212 -0.07091594 -0.08256109 0.08162771 0.03478259 -0.03552673 -0.2596883 0.31515884 0.092503905 0.032020178 -0.33702037 -0.08315904 -0.16801602 0.3161975 -0.22515039 0.04492327 -0.05880955 -0.098998 0.3134459 -0.40231615 -0.110435955 -0.060459714 0.45067334 0.20886348 0.19946027 0.16355892 -0.21604446 0.10721055 0.3217582 -0.18881324 -0.08987545 0.21915352 -0.0404065
75 -0.074107274 -0.24189928 0.09952571 0.10820604 -0.026597029 0.08317062 0.19697751 -0.060067967 -0.05941513 -0.20933333 -0.0673685 -0.1207155 -0.22633436 -0.09298951 0.0074331844 0.008865681 -0.057750396 0.13592483 -0.053359024 0.23439798 0.06590216 0.004799093 0.27688932 -0.058982722 -0.003522949 -0.052286867 -0.03309291 -0.2871815 0.24996279 -0.31789908 0.026082145 -0.08438357 0.11083673 -0.08067493 0.10197064 -0.07619363 -0.20130135 -0.11581862 0.092467576 -0.14687246 -0.18497865 -0.19330579 -0.027977047 -0.017836886 0.17296627 -0.15890612 0.10867329 -0.043897796 -0.1168697 0.35924587 -0.27505133 -0.21706954 0.35442847 0.2849037 0.16526426 -0.08776546 -0.19676335 -0.14832398 -0.16990428 0.26668584 0.042748205 -0.2264345 -0.09801785 -0.075530455
91 -0.059051175 -0.11042772 0.1706123 -0.029302176 -0.08630935 -0.18920991 0.014234118 -0.15957715 -0.19092906 -0.024514904 -0.075361535 -0.27125996 -0.3170653 -0.19735664 -0.20443465 0.2258459 0.12347026 -0.0027437943 -0.047521494 0.34893304 -0.084894754 0.06943348 0.31811887 0.11552025 -0.13419186 0.09987582 -0.03421901 -0.21615642 -0.106213145 -0.32671976 -0.033337675 -0.22719216 -0.17726465 -0.16467728 -0.29895902 -0.088004336 -0.07136369 -0.0819309 0.026650587 -0.010864213 0.07742247 -0.11388905 -0.06514624 -0.14033487 0.21621068 -0.09584842 0.30903476 -0.21234518 0.09477583 0.08005453 -0.083864555 0.08460702 0.21263851 0.014840607 0.19482453 -0.054752044 -0.0461318 0.033795025 0.061696075 0.10988403 0.059836775 -0.29974264 -0.01633743 -0.27961308
54 0.2699182 -0.059821095 0.33855575 -0.14262153 0.14679927 -0.33141834 -0.0049387384 -0.10952889 -0.21699484 0.06309755 0.11910926 -0.21992564 -0.11659623 -0.21825421 -0.06534104 0.17998883 0.031180987 0.0880394 0.22561397 0.0600404 0.214738 0.22181386 -0.14590621 -0.21140815 -0.11719901 0.27248082 -0.3125383 0.1780672 -0.019287433 0.23870794 -0.08032778 0.00616032 -0.3669595 -0.013904302 0.02181996 -0.2908561 -0.084077954 -0.35388348 0.09305419 -0.1983549 -0.13121843 -0.012919008 -0.20820671 0.045781948 0.046253264 -0.18570301 0.16061991 -0.11607459 0.1029136 0.08600802 0.2088072 -0.14947253 0.088596895 -0.09385549 0.13655446 0.15890843 0.07412178 0.14944242 -0.06422891 0.042100254 -0.0895408 -0.3535049 -0.14374831 -0.29668564
76 0.0309744 -0.13374522 0.08976485 0.092550606 -0.14966506 -0.12007873 0.23645799 0.04736064 0.10430188 -0.018828312 -0.13260858 -0.2646377 -0.15598822 -0.083040155 -0.035136282 -0.031826917 0.014710448 -0.09603503 -0.1868488 0.3202144 0.031215176 0.0760548 0.21590394 0.17550614 -0.08252161 0.14493787 -0.13060404 -0.05052063 0.11730861 -0.21171196 0.08483062 0.026769966 -0.26969945 0.092144944 -0.24628584 -0.04875558 -0.19233462 -0.09928666 0.17595795 0.031493798 -0.36450472 -0.07135184 -0.09998229 -0.10851641 0.01691125 -0.21282986 0.40183198 -0.03028278 -0.16927245 0.26383686 -0.24741672 -0.15518492 0.18044634 0.1719368 0.21138611 -0.02836319 0.025658188 -0.17517298 -0.123626456 0.15865147 -0.027017113 -0.42700672 -0.11002811 -0.19849195
52 0.00925111 -0.45710912 -0.030382514 0.05046338 0.17835271 -0.019647742 0.04952855 -0.058581248 -0.14886571 -0.1887676 -0.0044677965 -0.20495372 -0.11190435 -0.3747424 0.08713606 -0.045073647 -0.18109371 0.119018786 -0.065171644 0.2669324 0.09956914 0.06320761 -0.0487755 0.0029827214 -0.11429912 0.110227555 -0.24293613 -0.12952238 0.43150344 0.059343137 -0.06895294 -0.024797183 -0.07635182 -0.056183543 0.21393374 -0.08453781 -0.3306369 -0.10640744 0.094377734 -0.14643513 0.015854092 -0.089832015 -0.038641635 0.05651171 0.076118976 -0.1627543 0.11114641 -0.17158344 -0.030155115 0.016916975 -0.15848333 -0.12928279 0.23907223 0.2858183 0.04058843 -0.04868728 0.08470768 -0.28074846 -0.093860336 0.25039893 -0.13989505 -0.44248766 -0.19064784 0.059330977
83 -0.11588632 -0.3774877 -0.051484276 0.0411818 0.0031188729 -0.07795874 0.12948123 -0.21455647 -0.05204297 -0.2769402 -0.025685975 -0.20849949 -0.19695304 -0.03651191 -0.22116365 0.02780342 0.0029998582 0.015054142 -0.08987455 0.21808241 0.06444407 0.08342774 0.20410061 -0.004943807 -0.16814761 0.12756705 0.0033613483 -0.23211636 0.15244244 -0.433335 0.023654051 -0.16583224 -0.12193551 -0.07698563 -0.30670062 -0.015842088 -0.044086445 -0.25682607 0.09205537 0.024077045 0.0018943648 -0.1227696 -0.1557737 -0.12672652 0.24814357 -0.21342267 0.10894271 -0.13583905 0.215959 0.13756648 -0.1549617 -0.021632005 0.016862033 0.2424109 0.042841244 0.1406846 -0.16034846 0.0028097157 -0.14347936 0.13242272 0.049880806 -0.16861221 -0.11310533 -0.26675284
44 0.05537058 -0.21259165 0.039571643 0.068930894 -0.010445659 -0.25772238 0.04479982 -0.3118553 -0.17872816 -0.033141963 0.05806354 -0.26357937 -0.31217778 -0.19151522 0.03863943 0.24354866 -0.013355017 0.056236606 0.0364431 0.2199365 -0.020948566 0.16498108 0.21436132 0.017910052 0.031061826 0.09771688 -0.066977374 -0.011231462 0.036155235 -0.12408936 -0.07050032 -0.052321706 -0.16092178 -0.120091625 -0.047904346 -0.2242101 -0.039206207 -0.17787169 0.036141686 0.09536742 0.12881719 -0.104681484 -0.10300334 -0.022414811 0.21757177 0.030327003 0.10535988 -0.03958697 0.2102665 0.2774643 -0.22389914 0.1451414 0.20252144 0.00059154927 0.097371064 0.020968152 -0.054963935 0.021040913 -0.0761789 0.30146325 -0.109374836 -0.25871074 0.014503903 -0.14421353
66 0.13969262 -0.25970575 0.1761792 0.115735374 0.07003918 0.17177333 0.21686344 0.15616512 -0.12705743 0.05518338 0.072356015 -0.13051035 -0.09194115 -0.042529266 -0.051863886 0.14330423 -0.14236929 0.060942587 0.03529177 0.05081317 0.22554897 0.0864732 -0.10937039 -0.19340685 -0.12973565 0.0030606976 -0.2079239 -0.21025373 0.2818736 -0.14167646 0.065112144 -0.040483203 -0.07594773 0.012102931 -0.15124321 -0.10565674 -0.021303087 -0.30707073 0.18616462 -0.17039779 -0.051179003 -0.16737635 -0.36567354 -0.22763076 0.14045683 -0.29360545 0.188741 -0.16875517 0.0959453 0.06813491 -0.22423059 -0.13879947 0.13359164 0.2637514 0.3244291 0.26286137 0.081114106 0.049465712 0.020631168 0.19576655 0.12724468 -0.28736785 -0.01862599 0.20070061
59 0.017264431 -0.07218014 0.3937335 -0.1013091 0.06408262 -0.29071322 -0.048665427 -0.09809771 -0.3075191 -0.054752115 0.19060501 -0.09526134 -0.2748691 -0.41580358 -0.17067637 0.21262427 0.024387017 0.120572396 0.23652783 0.2404359 0.05907128 0.085212365 0.09876315 -0.12757978 -0.033955228 0.09548423 -0.17887887 0.011754386 0.009323927 0.15739782 -0.09400121 -0.11553692 -0.10690713 -0.18003638 0.07207934 -0.10750042 0.0582641 -0.06829071 0.008572999 -0.23509927 0.07588565 -0.0487665 0.07256258 0.035042387 0.40980777 -0.11580864 0.051286347 -0.285966 0.16318995 -0.058839936 0.01099902 -0.09431895 0.063590385 0.09455525 0.19006446 0.042487767 0.023309289 0.0546998 0.06868495 0.1373053 -0.06666807 -0.19249728 -0.13920295 -0.19568005
72 -0.021339152 -0.03773173 0.11356833 0.09678027 -0.09453348 0.0027173883 0.14858 -0.09454766 0.038413938 -0.24483061 0.10845433 -0.26430833 -0.1003239 -0.13743049 0.027856844 -0.009552267 -0.056967173 -0.08359894 0.048674684 0.23970476 0.11332775 -0.017868243 0.29366216 -0.25032005 -0.06808045 0.045100965 -0.011780154 -0.011073892 0.037128936 -0.30783176 0.018594453 -0.06033884 -0.053639665 -0.099580914 -0.17207631 -0.11337033 0.00037043952 -0.0040035113 0.049890034 -0.051951073 -0.21087483 -0.16276342 -0.18334161 -0.11719368 0.19226234 -0.08504882 0.124178015 -0.15237282 0.045185853 0.42005077 -0.29691306 -0.042881433 0.135519 0.2516306 0.15129784 0.2032011 -0.18886565 -0.11094485 -0.24354221 0.2844511 0.10051451 -0.07784249 0.02137696 -0.18488815
89 -0.09555054 -0.26837766 0.09875028 0.02499692 -0.13075459 0.026252575 0.13292177 -0.03490519 -0.28400838 0.0860676 0.093687646 -0.10052547 -0.23568077 -0.11282771 0.072822526 0.09828961 -0.028107911 0.098652594 0.348115 -0.032597724 0.009590883 0.10665655 0.011464497 -0.08436653 -0.019841738 -0.062555306 -0.15801966 -0.0845098 0.17206705 -0.020778771 -0.0751926 -0.15235226 -0.049667746 -0.12146424 0.112184554 -0.13516188 -0.12259387 -0.07684986 0.20083828 -0.0566302 -0.0131483255 -0.15603325 -0.040772915 -0.19122443 0.18685216 -0.1012933 0.020476768 -0.040915743 0.06920931 0.51462066 0.08604185 -0.08408832 0.33159235 0.0792122 0.22443247 -0.11464928 -0.14400455 -0.0995434 -0.020889282 0.43784133 0.20998882 -0.44237778 -0.09056716 0.047830332
73 0.21280761 -0.22168396 -0.001755977 0.03476991 0.2164259 -0.040884785 0.10499362 0.060545977 -0.17189294 0.12390973 -0.061538056 -0.16013026 -0.27173933 -0.1525984 0.20594946 0.22941925 0.078330904 0.10092576 0.055125836 0.10891778 0.13515824 0.3793944 -0.0957078 -0.14179315 -0.06153038 0.028527578 -0.123651646 -0.0069233933 0.07788514 0.14258955 -0.10500787 -0.1493889 -0.15671867 -0.014430181 -0.111989155 -0.10156224 -0.10229681 -0.15971258 0.15855254 -0.12499805 -0.12447657 -0.15716062 -0.15777346 -0.08475142 0.01876128 -0.16397233 0.14978242 -0.124276526 -0.08666829 0.18442655 -0.18837011 -0.11456032 0.20560898 0.16275443 0.16897573 0.07970228 0.23198664 -0.046054617 -0.033225965 0.12822825 -0.1459382 -0.26113513 -0.025952714 -0.118902825
86 0.11944125 -0.24428649 0.09878209 -0.0002959824 -0.14228535 -0.1682232 0.07365562 0.2722964 -0.28372827 0.14975141 0.11905962 -0.25475642 -0.29084158 -0.3922031 0.16371405 0.15860231 0.24009748 -0.29381695 0.27563477 0.020836437 0.14213267 0.24789862 0.09917051 0.0879006 0.052617554 0.021113759 -0.17707345 -0.025659613 0.064917326 0.22379045 -0.11838562 -0.07523179 -0.09147094 0.05195362 -0.10945301 -0.17175592 0.15008686 -0.0968291 0.15501079 0.038973145 0.0980984 -0.049747672 -0.11512341 -0.109972 0.17302494 -0.2061975 0.07261105 0.014197137 0.053628556 0.37368378 -0.0009217339 0.0031124277 0.1849056 0.08975758 0.2861078 0.17673051 0.09478422 -0.13939674 0.27468014 0.43231875 0.15219668 -0.37582988 0.3604555 0.06730121
13 -0.02248716 -0.11874932 -0.05488617 0.06853625 -0.086221576 -0.09674849 -0.006310125 -0.16599406 0.046374243 -0.2183897 -0.10255866 -0.16838744 -0.14991455 -0.055716254 -0.028503917 -0.009612743 0.2312736 0.083708264 -0.02554158 0.22098786 0.080872454 0.3169769 0.16005635 -0.2762279 -0.27478716 0.2524177 -0.10807696 -0.0048161526 0.09093429 -0.22964744 0.0019690322 -0.22908334 -0.17270294 -0.10167781 -0.20739666 -0.017073859 -0.1569662 0.062360354 0.16001111 -0.08715945 -0.3179965 -0.11105856 -0.0788105 -0.18990354 -0.022280294 -0.23866263 0.20175458 -0.35436302 -0.04293019 0.09952815 0.0069684596 -0.2723278 0.030543165 0.3423497 0.10596254 0.0456498 0.03869613 -0.13913879 -0.22299442 -0.044966415 0.06669194 -0.22346292 -0.23698917 -0.4018949
74 0.14426862 0.1779088 0.2940718 -0.0014453899 -0.18955143 -0.23600446 0.022542698 0.24390325 -0.1629299 0.23489246 0.052701555 -0.22668736 -0.25653815 0.053617842 0.012257841 0.22724502 -0.09450462 0.07432143 -0.021281233 0.1477408 0.12316107 0.16843098 0.09307413 -0.16416271 0.200209 0.19182114 -0.21563917 -0.028584724 0.038710315 -0.049524732 0.21142595 -0.09114095 -0.26854333 -0.137288 -0.0022038552 -0.1733292 -0.22077514 -0.34951857 0.087623976 -0.3914452 -0.26674107 -0.03107294 -0.24371181 -0.0007165984 0.07078149 -0.09193326 0.2530369 -0.16103038 -0.0669423 0.3557592 0.12102212 0.043669898 0.30751756 -0.048226826 0.45634532 -0.017827438 0.09374702 -0.02667438 0.0404038 0.13110399 -0.011076572 -0.58950144 -0.0016358492 0.06068832
5 -0.069537304 -0.4225196 0.10549295 -0.021186357 0.103535175 -0.33078626 0.18478741 -0.32437733 0.034837384 -0.34387806 0.0036777188 -0.16601206 -0.124605395 -0.34267983 -0.009805926 -0.039122585 0.27130967 -0.05224008 0.28042844 0.33264577 0.15115005 0.1844812 -0.043786485 -0.17826495 -0.31607443 0.16649498 -0.22253165 0.107075684 0.16510518 0.031313088 -0.19401103 -0.06908503 0.045759562 0.2212392 -0.13180663 0.0061219274 0.01508221 -0.08252627 0.044833187 0.19316481 -0.09857959 0.079117745 0.13189761 -0.12576585 0.15514453 -0.2747441 0.06075634 -0.107887276 0.059499513 0.08506553 -0.10437687 -0.41072243 -0.07590802 0.20121479 -0.11918775 0.074778564 -0.13415144 0.005110924 -0.24287592 0.13915539 -0.020401306 -0.06304998 -0.20455645 -0.45585722
20 0.010439928 -0.22255428 0.15065095 -0.12753463 0.013711557 -0.29142523 0.18248504 -0.2655224 -0.04682165 -0.28367707 0.20960566 -0.16772287 0.08245733 -0.40252438 -0.19485682 0.08502093 -0.16950995 -0.027377218 0.17608005 0.20923337 0.16080213 0.08267645 0.0027926741 -0.30963752 0.034164093 0.25025257 -0.2737332 0.051880237 0.11467614 -0.070549265 0.04331823 -0.06022923 -0.07392828 -0.07403753 -0.049233686 -0.12297137 0.10724333 -0.13761403 -0.036623184 -0.10795757 0.022972843 0.018361272 -0.027673347 0.0065108356 0.28459728 -0.02982088 0.09982761 -0.11232989 0.1695524 0.040983506 0.035580058 -0.107362285 -0.08961996 0.10155803 0.058727708 0.17261451 0.033626884 0.021557702 -0.30120996 0.2777056 -0.15391646 -0.1956982 -0.19127999 -0.23978025
68 -0.10521273 -0.39676857 0.10956475 0.2664191 0.111299865 -0.212251 0.25530106 -0.2079358 -0.19703272 -0.21638404 -0.055192314 0.025784956 -0.3264045 -0.15999413 0.1213893 0.0755966 0.18361984 0.15118912 0.36311537 -0.06212624 0.13894312 0.3535351 -0.2184834 -0.09469615 -3.270952e-05 0.084682815 -0.29121304 0.08137569 0.24484015 0.054427426 0.020862559 -0.19896762 0.06703618 0.0426603 0.30501416 -0.03616538 -0.042538572 0.023357969 0.18671162 -0.030891782 -0.12876919 0.0125882635 0.091398895 0.14348438 0.16982456 -0.27548462 0.026439667 -0.060726702 0.11399579 0.22493003 -0.009309286 -0.20041119 0.17618077 0.24405017 0.15387875 -0.03634084 -0.13596486 -0.09772518 -0.2086855 0.19822054 0.07467238 -0.36177492 -0.1513231 -0.10200321
94 0.12183433 -0.305392 0.15678318 0.045595538 0.07507181 0.102739654 -0.016853804 -0.14202067 0.0065261335 -0.16117774 -0.047437515 -0.019370146 -0.13997687 -0.24130124 -0.0668993 0.35243782 -0.15236601 0.16521418 -0.04152867 0.18706867 0.028319063 0.036621753 0.26553535 -0.17525046 -0.055742726 -0.10053613 -0.08608829 -0.37368888 0.23332384 -0.1951507 0.16845848 -0.23736766 -0.19121271 -0.10774515 0.06077839 -0.017825058 -0.19488354 -0.23133938 0.10272545 -0.1108273 0.034263298 -0.18309154 -0.0048931185 -0.121307574 0.33992326 -0.025564894 0.2706133 -0.19628361 -0.120644145 0.112317555 -0.25127327 -0.037905104 0.15254442 0.22404815 0.232251 0.08344846 0.036579173 0.10190756 0.03154236 0.080109134 -0.16884741 -0.3256892 -0.06803986 -0.0011559615
58 0.2983505 -0.3884133 0.11602365 0.028749308 0.024043532 -0.11980633 0.29356107 -0.053973015 -0.08685884 -0.02744815 0.10025418 -0.0111490395 -0.06644354 -0.07843919 0.027744314 0.2492796 -0.109420724 0.03656403 0.08816694 0.008367359 0.22543344 0.37542135 -0.057717405 -0.24839394 0.096826956 0.01919405 -0.21914779 -0.022729957 0.19325596 -0.07038668 -0.038987778 0.004123569 0.10308826 0.019269789 -0.062037744 -0.20068868 0.100340374 -0.38210222 0.13498165 -0.018167155 -0.024480047 -0.17859702 -0.17959723 -0.11012363 0.19300833 -0.15552613 0.006602436 0.06889027 0.077956244 0.16689843 -0.09637856 -0.24892478 0.08798139 0.20783643 0.227845 0.3359965 0.09295005 0.12588152 -0.14657514 0.29557246 -0.20753214 -0.039332345 0.019349035 -0.0017053079
77 0.04794144 -0.051416162 0.1827283 0.1505254 0.008179172 -0.08690961 0.10854504 0.037440427 -0.25383553 0.048128504 -0.05737273 -0.3170472 -0.18263385 0.049579404 -0.049856514 0.07671622 0.09861948 0.21897681 -0.008399581 0.37676167 0.20757046 0.22837587 0.084169015 -0.23788628 -0.17545715 0.24721384 -0.13268451 -0.14437808 0.07545473 -0.17871758 0.0046661478 -0.13059784 0.09275132 -0.10032946 -0.19382173 -0.09763336 -0.09807605 -0.1061758 -0.048429597 -0.28605512 -0.19443806 -0.1373014 -0.2134151 -0.16687873 -0.018590355 -0.22596319 0.14287724 -0.31308243 0.043214913 0.019247804 -0.15481833 -0.26239797 0.23729225 0.262826 0.16822295 -0.0218461 -0.10444267 -0.049914073 -0.100812875 0.08879638 0.19343705 -0.09427714 -0.16270454 -0.09168114
16 0.020822844 -0.09096581 -0.016014732 -0.17576039 0.0834534 -0.21798626 -0.03357274 -0.04518224 0.064524844 -0.28098792 -0.017586522 -0.17434545 -0.22947498 -0.33887106 0.036680143 0.06319446 -0.035144094 -0.076956496 -0.18571278 0.29196066 -0.07832732 0.047838036 0.38001493 0.038897432 -0.089212805 -0.054355755 -0.019398069 -0.032499626 -0.016287265 -0.10828806 -0.07780841 -0.17200711 -0.30068687 -0.043237016 -0.13046288 -0.01825419 -0.22568241 0.03304103 0.2219635 -0.0033398527 -0.17139463 -0.16925904 0.002155972 0.028540337 0.20788622 0.02829156 0.3235732 -0.12886205 -0.13520835 0.32347846 -0.45301005 0.015691385 0.09791168 0.25617462 0.1867074 0.11796326 0.13565725 -0.2067512 -0.17617734 0.043087114 -0.24461761 -0.3111273 -0.036433265 -0.31477743
93 -0.02982484 -0.30445033 0.19733304 0.04973627 -0.10857239 -0.18677796 0.047598783 -0.18317881 -0.2745445 0.0048189037 -0.1291581 -0.28427273 -0.4048998 -0.34883854 -0.13751999 0.16524702 0.13211536 0.20119137 0.1454446 0.22063005 0.035343602 0.21249028 0.13898908 0.19139199 -0.12348257 0.13308614 -0.060092337 -0.23068726 0.03058141 -0.11270433 0.08137177 -0.26593226 -0.05332253 -0.16454378 -0.08014676 -0.057515252 -0.113671035 -0.024216166 -0.08050869 -0.22320415 0.15704425 -0.028370533 -0.013792094 -0.07084641 0.15987933 -0.07788604 0.22297443 -0.3042772 0.13220885 -0.17612685 0.2962717 -0.152046 0.1732158 0.16871834 0.13343312 -0.2563518 -0.07577277 -0.18806644 0.040444605 0.32286367 0.112276725 -0.36290377 0.029227952 0.008335995
42 -0.010223954 -0.37061542 -0.061201368 0.052229855 0.19205706 0.07784376 0.02673947 -0.019179685 -0.2797618 -0.16905005 -0.08994678 -0.5579887 -0.1538685 -0.0027599602 -0.11104242 -0.08669194 -0.15080327 0.13171957 -0.11010089 0.38961825 0.34051913 0.0962269 0.0060786996 0.013902315 -0.25350872 0.19849578 -0.14853585 -0.37219816 0.23838599 -0.2511708 0.0007783095 -0.090258576 -0.03269082 -0.13075633 -0.42727092 -0.08519798 -0.008143611 -0.2609713 0.12109794 -0.18669665 0.015463518 -0.21593735 -0.31602985 -0.088406295 0.10545944 -0.16252172 0.040264964 -0.14292786 0.048622694 -0.029335652 -0.12022711 0.1167151 0.18406974 0.20892477 -0.061498407 0.092079945 -0.19926137 0.011275012 -0.010681205 0.22678286 0.12814161 -0.25022998 -0.071057685 -0.037861984
9 0.058468755 -0.21742252 0.22707693 0.047904734 -0.23609938 -0.1643543 -0.09499148 -0.1565896 -0.10776423 -0.0023859134 0.1455702 0.013323207 -0.22100256 -0.26950893 0.10521686 0.27809334 0.061141565 0.012151462 0.17112537 0.10909962 -0.06309088 0.17403056 0.31969422 -0.23135929 -0.046055358 0.037665453 -0.14207466 0.097004816 0.03617025 -0.1950912 -0.122746564 -0.0008423193 -0.25099728 -0.06854523 -0.08174621 -0.16585118 0.17697936 -0.18149443 0.23656626 0.09831529 0.18138587 -0.20801255 -0.04102985 -0.17371333 0.19780843 -0.028362866 0.008764971 -0.09382498 0.111560605 0.3073439 0.017699435 -0.08745409 -0.08162932 0.12521848 0.23881249 0.28595373 0.072775565 -0.04484822 -0.00083071814 0.29736194 -0.012426195 -0.11106594 0.041005608 -0.0063657607
3 -0.045658056 -0.1387581 0.11946125 0.042910717 0.047246438 -0.08160973 0.041084584 -0.24257374 -0.02367052 -0.06260072 0.014145053 -0.1473772 -0.09688531 -0.2242441 -0.051221076 -0.05353417 -0.00065808033 0.028272275 0.19940151 0.23278314 -0.034315843 0.33114767 -0.034418546 -0.13694869 -0.1775326 0.22567491 -0.14211531 0.10214523 0.030067656 0.028269226 -0.17225239 -0.07089082 -0.3240394 -0.018657612 -0.19803604 -0.13660738 -0.0803077 0.031650122 0.30546883 0.04688333 -0.14692146 -0.16290163 -0.14027402 -0.048813242 0.0684954 -0.15505122 0.21174683 -0.08022992 -0.032057323 0.23868488 0.030639397 -0.035636883 0.060058657 -0.055790495 0.060392912 0.04818323 0.013787421 -0.13917808 -0.10282119 0.047493476 0.0109836785 -0.32509688 -0.4241441 -0.4478492
28 -0.050196316 -0.25111938 -0.1747812 0.30093512 -0.11075113 -0.021539213 0.17653522 -0.12293216 -0.122461796 -0.07440932 -0.19888885 -0.43084434 -0.391753 -0.014983645 0.06495951 0.12186747 0.29206493 -0.05050989 0.011130791 0.23325877 0.04722722 0.2929398 0.23110177 0.16586564 -0.25325185 0.11778526 0.042076863 -0.19539787 -0.030412098 -0.3046337 -0.08316848 -0.29358166 -0.104639515 -0.10302858 -0.32002372 -0.14959744 -0.048257664 0.08825758 0.09913084 0.07539614 -0.065435454 -0.078228146 -0.028358268 -0.12793264 0.14074856 -0.23869471 0.05626553 -0.044924434 0.1067593 0.29060563 -0.096100554 -0.03559971 0.34024704 0.22757006 0.08886648 -0.04933567 -0.13420968 -0.042535268 0.080636114 0.2387111 0.12299704 -0.1836592 0.067208484 -0.25584507
41 -0.13568203 -0.38548663 0.11641195 0.09008757 -0.1091919 -0.09918577 0.012130372 -0.17545463 -0.11784728 -0.2131405 -0.0028066966 -0.18249987 -0.3695319 -0.25189206 0.02496673 0.031395353 -0.24234569 0.10922805 0.21662436 0.09627008 0.14436015 0.30233464 -0.051344592 -0.13255371 0.057320274 -0.0021731448 -0.23068345 -0.08587154 0.1665235 -0.14613116 -0.06170814 0.113214895 0.078667626 -0.18560389 0.07208574 -0.049679987 0.0956992 -0.08796882 0.16486473 0.10779058 0.28603554 -0.17842509 -0.16040322 0.0680298 0.14103958 -0.06191172 0.0060690027 0.016295232 0.0720674 0.308987 -0.05623803 0.23288305 0.124809794 -0.01613816 0.02296392 0.11630776 -0.02708979 -0.215745 -0.36980668 0.43960643 0.058158256 -0.31828523 -0.015116227 0.059460655
33 0.18171199 -0.22998293 0.2972873 0.16765606 0.18633717 -0.22689582 0.22381729 -0.044394597 -0.2950736 0.13286106 0.10440353 0.0155551825 -0.39265928 -0.2158355 0.19399264 0.2123405 0.1171925 0.045493186 0.15192509 0.022612333 -0.009731086 0.30721527 -0.048494987 -0.14396289 0.06640017 0.07604924 -0.13261566 0.13870098 0.03945602 0.11860576 -0.1574876 -0.05494819 -0.21896777 0.12603192 -0.15006621 -0.13932276 0.21617919 -0.12122029 0.17823163 -0.05902487 0.0374686 -0.10348278 -0.032079857 -0.2959442 0.19737823 -0.1979695 0.151545 -0.13630329 0.16148505 0.16434176 -0.27662686 -0.07611387 -0.035965122 0.0022405274 0.140277 0.33962512 0.22134039 0.03422094 0.1595573 0.1506509 -0.08303184 0.015341326 -0.15435135 -0.13401012
80 0.122579284 -0.43889937 0.06788525 -0.14618023 0.11943677 -0.2088622 0.102709346 -0.0490288 -0.09041231 -0.1624409 -0.03959632 -0.057604436 -0.2959277 -0.23560517 0.13463466 0.032279193 -0.036059007 0.09761628 0.12904045 0.13588378 0.13314153 0.36128378 -0.023754919 -0.045383636 0.032383356 0.009999076 -0.13139965 0.013930989 0.09012091 0.17101583 -0.12268421 -0.074457765 0.069041274 0.004418977 0.04376331 -0.0699079 -0.10455394 -0.097405806 0.2533657 -0.08918462 -0.22240496 -0.1691098 -0.036194548 0.0150225395 0.10541225 -0.08612958 0.104218125 0.011202046 -0.11649273 0.22915311 -0.1409085 -0.27337503 -0.0020733555 0.25423276 0.028362826 -0.111501046 0.028251601 -0.13441247 -0.08028627 0.2013968 -0.19553228 -0.1783349 -0.1914847 -0.21063173
63 -0.10841674 -0.24555975 0.2142125 -0.14128472 0.2047567 -0.1899067 -0.059386283 -0.301208 -0.19947647 -0.2089423 0.124063075 -0.033909563 -0.027757803 -0.568857 -0.20326766 0.08274185 0.098358236 0.19993241 0.29937685 0.38180417 -0.07652233 0.025432216 0.12505302 -0.19396003 -0.16580772 0.115766756 -0.24942651 -0.031413198 0.17236346 -0.09369394 -0.22096212 -0.18696357 -0.15029213 0.09202486 -0.052565716 -0.16794464 0.06938784 -0.09343561 0.07011094 -0.16642697 0.040289268 -0.061657988 0.13958102 -0.019941332 0.33230898 0.03792622 0.07308415 -0.20658839 0.21607919 -0.11581582 0.045916792 -0.1636177 -0.05087158 0.092567585 0.1351604 0.09014847 -0.033887755 0.105915844 -0.009416452 0.06863977 -0.06795767 -0.20898236 -0.24620995 -0.31089872
92 0.14884256 -0.31596246 0.14091048 -0.30618635 0.15723737 -0.21094061 0.08530168 -0.008653131 -0.094384305 -0.10507574 0.19544896 -0.08045892 -0.03997354 -0.16002923 -0.014262892 0.29419202 -0.1576676 -0.039635148 0.13739851 0.21238363 0.11522847 0.101049975 0.18818665 -0.2550837 0.11640296 -0.0404737 -0.10068702 -0.09368532 0.104689 -0.08826454 -0.099113345 -0.09599643 -0.107157774 0.024279851 -0.23047468 -0.12586367 0.051393643 -0.40061262 0.05375208 -0.08522087 -0.09849607 -0.1745268 -0.066154614 -0.26771662 0.25353292 0.14355531 0.100718886 -0.032702055 0.044548694 0.27105504 -0.14872165 -0.12056965 -0.0798211 0.14543898 0.1529195 0.25185543 0.04459619 0.1689631 -0.07753708 0.17632456 -0.11289854 -0.090654634 -0.052590962 -0.14820272
64 -0.04510664 -0.2929823 0.16917893 0.19778848 0.057826508 0.13569543 0.17380013 -0.031808615 -0.117438726 -0.022687396 -0.22874774 -0.1674833 -0.2387487 -0.02558598 -0.09555382 0.16793323 0.016707435 0.1186618 0.03792664 0.31095487 0.21278538 0.37880033 -0.14699282 -0.22617358 -0.2592557 0.09913035 -0.16384794 -0.2420777 0.10145948 -0.30542767 -0.024878494 -0.29079032 0.06764477 -0.046335265 -0.27218664 0.08654946 0.029068911 -0.06765915 0.15799524 -0.07978755 -0.04507395 -0.09344874 -0.22248983 -0.10470536 0.21818402 -0.26484802 0.20229091 -0.14029947 -0.014568661 -0.0007368405 -0.23603766 -0.167486 0.104806215 0.16960259 0.1630921 0.17974749 -0.03083657 0.06739433 -0.08604025 0.030305967 0.012040058 -0.1490584 -0.094559535 -0.07496882
49 0.030480055 -0.15239598 0.0983516 -0.22901869 0.029225437 -0.38240927 0.056072913 0.060603235 -0.124377206 -0.18275787 -0.01573313 -0.17967685 -0.09554827 -0.35157079 -0.062198095 0.01859447 0.08090984 0.07585217 -0.063794166 0.41251275 0.09370988 0.1550051 0.17866753 -0.27783683 0.0050988114 0.20086296 -0.09626941 0.0044229236 0.16076452 -0.040949304 -0.18482351 0.008523936 0.11511791 0.042278867 -0.2790112 -0.119678155 -0.10845634 -0.33742917 -0.1632888 -0.30031967 -0.14592406 -0.002940245 -0.060800374 0.008739225 0.031838488 -0.09706915 0.11328697 -0.25315398 0.046116572 0.0024884 0.06503818 -0.44841352 0.06877119 0.17828687 0.080702335 0.05897594 0.065655574 -0.15441653 -0.1841836 0.07241765 -0.055890664 -0.14154111 -0.13493541 -0.25821096
25 0.16962282 0.20113036 0.15617499 -0.045013815 0.018916117 -0.22598073 0.35537505 -0.2457892 0.050847147 -0.43045998 0.16512416 -0.20007679 -0.14269793 -0.06579441 -0.072738476 0.28515455 -0.24484648 -0.16030394 0.10816717 0.20010875 0.08158969 0.18613267 0.22506511 -0.27243137 0.34699506 0.14639407 -0.11808215 0.032715492 0.04823327 -0.11572654 0.15591863 0.056793824 0.065449744 -0.28604165 0.07268184 -0.24115005 -0.09692696 -0.12950815 -0.1985305 -0.08823765 -0.3301151 -0.006430423 -0.043974027 0.028200783 0.2421182 -0.08707925 0.070266165 -0.12181628 0.0033667404 0.3666203 -0.14970976 -0.15445657 0.36320862 0.22178677 0.2565965 0.035144567 -0.16732445 0.10763843 -0.4151786 0.27347416 -0.035875656 -0.165935 0.022447621 -0.11245013
37 -0.04599657 -0.14255072 0.009843399 0.20616357 -0.033639792 -0.056928378 0.056140788 -0.13535075 -0.07362442 0.061269477 0.19667512 -0.15813918 -0.04567886 -0.31094456 0.15881358 0.05237462 0.42109224 -0.04190976 0.33969897 0.29431605 -0.035819612 0.28092003 0.13020955 -0.26401022 -0.25013912 0.2229736 -0.2046454 0.15515687 0.1586558 0.014693368 -0.17933467 -0.15719274 -0.23434664 0.18607406 -0.13411163 -0.27876657 0.10959916 0.051409584 0.22214025 0.00045114954 -0.16473502 -0.12527774 0.05797313 -0.22405079 0.0778475 -0.1938529 -0.0063854316 -0.15117513 0.12334947 0.063189544 0.05131624 -0.36303136 0.14540887 0.24919511 0.16567849 0.16333741 0.12667541 -0.031333435 0.14260608 0.15106614 0.17317535 -0.11939192 -0.09110966 -0.20764413
11 -0.16230437 -0.15765499 0.22597483 0.021578996 -0.17879516 -0.20688404 -0.003678761 -0.13903219 -0.27038297 -0.094331905 0.1295892 -0.18710624 -0.37570894 -0.12023823 -0.112395786 0.033442855 0.03468476 0.07264755 0.24268298 0.20652972 0.053864554 0.09694152 0.20277393 -0.09882987 -0.081718 0.008895265 -0.033287622 -0.13538866 0.0055905203 -0.19282375 -0.038050216 -0.1759158 0.05587375 -0.21661639 -0.09789107 -0.053170893 0.14722124 -0.06164763 0.13283955 -0.052376125 0.092126995 -0.1953398 -0.0907861 -0.14430653 0.30520836 -0.092371814 0.01255944 -0.18273577 0.15159744 0.25144488 0.008509077 0.086800344 0.10247935 0.046854004 0.12571312 -0.010961578 -0.23204938 -0.053220935 -0.079984844 0.2900672 0.14213777 -0.17843556 -0.08913825 -0.18359892
45 -0.11969926 -0.25434834 0.15122804 -0.25252137 0.17712529 -0.18916126 -0.20365083 -0.19546354 -0.23194788 -0.24450609 0.14891256 -0.26383132 0.10873628 -0.23820998 -0.3137586 0.03837875 -0.15055418 0.18707298 0.13875479 0.498293 0.090041146 -0.25166306 0.19009416 -0.30247095 -0.18004496 0.20324296 -0.19634368 -0.18594512 0.28071126 -0.2330878 -0.097150356 -0.090426594 -0.15351418 -0.027549388 -0.2241928 -0.21497457 -0.13347198 -0.55902344 -0.06604902 -0.22601008 0.052033525 -0.058430225 -0.05613793 -0.17019235 0.2435348 -0.0075496873 0.037762046 -0.27786726 0.20069683 -0.05640116 0.13199735 -0.09004453 -0.028371368 0.07456171 0.023442253 0.11335075 -0.21075656 0.184696 -0.0475579 0.07225964 -0.016731625 -0.3088515 -0.30837178 -0.27245653
81 0.19111072 -0.20603402 0.1287364 0.02336538 0.01163041 -0.05935876 0.12459749 -0.16976412 -0.051856246 -0.1119863 0.23991837 -0.11059801 -0.007649671 -0.1879372 0.032492906 0.09893169 -0.15918708 -0.04753358 0.034950636 0.22135484 0.09267353 0.2119193 0.22687219 -0.23805645 0.013067283 0.13362977 -0.118657105 0.076696806 0.067713015 -0.16756576 -0.059778936 0.037121713 -0.10387632 -0.040259123 -0.28767824 -0.16871665 0.075699404 -0.2006952 0.117953405 -0.031857308 -0.016459288 -0.23716566 -0.14079225 -0.30471838 0.16706759 -0.10628365 0.12083013 -0.082525656 0.058820028 0.12864253 -0.13275045 -0.13480228 -0.044050936 0.20958816 0.06760391 0.24962825 0.1734277 0.04333946 -0.092067614 0.20241384 -0.16316144 0.0485608 -0.14646882 -0.23302868
98 0.12616806 -0.37463352 0.023358097 -0.016724577 -0.0908378 -0.114812605 0.0009865976 0.15871103 -0.24348989 0.077026956 0.07756056 -0.26104018 -0.33062744 -0.0615908 0.10949397 0.08423245 0.020119742 -0.036803037 0.057359442 0.0369426 0.20815052 0.22287883 -0.017176172 0.07413614 -0.015982505 0.14611031 -0.18990958 0.06641932 -0.036668167 0.09412005 -0.05076906 -0.08412169 -0.20635456 -0.091215275 -0.02610541 -0.20259194 -0.042082332 -0.31365994 0.26444516 -0.15804827 -0.100844204 -0.13005768 -0.27932733 0.04894236 0.11084742 -0.14370322 0.0005096175 -0.0012558401 0.14003853 0.24275395 0.09507017 -0.023668002 0.036270626 0.20236011 0.2024118 0.025414968 -0.00026129623 -0.07239427 0.024086976 0.34930372 -0.0834103 -0.3203135 0.102732256 -0.051322095
85 0.047577877 -0.050863907 -0.04910601 -0.03588618 -0.119227454 -0.11531853 0.10580149 -0.02973896 0.004359191 -0.067327686 0.13955426 -0.31486753 -0.12635328 -0.19865926 0.016048763 0.0016169962 -0.182785 -0.11060813 -0.12795831 0.35584247 -0.073923476 0.17478201 0.2176177 0.047861878 0.033958107 0.20751005 -0.05418822 -0.0012755032 0.07416079 -0.09829986 -0.08932335 0.05748411 -0.3646365 -0.043298956 -0.27609646 -0.26440585 -0.13645805 -0.22294362 0.20558605 -0.06827439 -0.15535311 -0.20088938 -0.20711674 0.0078951 -0.02127059 -0.09730303 0.19160719 -0.06662006 0.051364634 0.18621339 -0.006463546 -0.015377778 0.12802202 0.085478164 0.17069732 0.020295877 0.17551117 -0.24811836 -0.057835985 0.21330734 -0.079574406 -0.35992384 -0.104422845 -0.13591334
69 0.040981933 -0.1362853 0.2928039 0.10235416 0.18474124 0.07633303 0.1701014 -0.058674697 -0.19689205 -0.03849504 0.0067019626 -0.16492744 -0.20132048 -0.06461207 0.07058649 0.24892168 -0.10340024 0.26267907 0.22655682 0.22154412 0.20872413 0.21407315 -0.12231978 -0.37478647 0.0049911807 0.030311445 -0.13653356 -0.1765159 0.10677812 -0.19709931 -0.0024454899 -0.20338377 0.048639398 -0.057532024 0.031453323 -0.0014940117 -0.0008114071 -0.16327111 0.04934098 -0.25383154 -0.0935648 -0.10289662 -0.22296998 -0.054812863 0.28833982 -0.10635441 0.08160943 -0.166237 0.03764334 0.15926287 -0.2153373 -0.042238705 0.2429172 0.067009844 0.272876 0.11100245 -0.11262741 0.16144845 -0.21360072 0.04880288 -0.004348856 -0.112586066 -0.1853966 -0.06896236
99 -0.018095797 -0.05688688 0.2764049 -0.06610624 -0.25290513 -0.21342047 0.0272824 -0.09558734 -0.0656806 -0.24756032 0.21153939 -0.2522875 -0.35959965 -0.38477343 0.08344736 0.1505763 -0.28138685 -0.03706337 0.15019307 0.17344034 0.06251442 0.16488326 0.30522248 -0.19174874 0.25087836 0.118702754 -0.07110411 -0.013934622 -0.032525603 -0.04128912 -0.0786198 0.18743607 -0.15413669 -0.21127851 -0.014409422 -0.07389442 0.14729099 -0.042692643 -0.005758584 -0.08843515 0.11638543 -0.07666918 -0.14661878 0.08571053 0.14332086 -0.01173953 0.060369976 -0.13555828 0.019719265 0.34814912 0.05228449 0.19867831 0.07269956 -0.011991566 0.07834694 0.09568283 0.048727747 -0.2561122 -0.37495 0.35853803 -0.017360434 -0.19011301 0.01385526 -0.12570818
61 0.15385798 -0.42592987 0.21074367 0.03135017 0.07992125 -0.14325461 0.034812048 0.055262756 -0.1973724 0.07311589 0.18628523 0.12743126 -0.2835677 -0.3201976 0.3570117 0.13723347 0.14377072 0.06426446 0.24714759 -0.023594406 0.030434284 0.38332066 0.020955298 -0.14194001 0.08337655 -0.08922304 -0.16747397 0.23061995 0.1501643 0.21486391 -0.22929221 -0.017206792 -0.13237466 0.017657682 0.28939167 -0.09196745 0.034061003 -0.076303236 0.38276508 0.006662826 -0.03673516 -0.26189566 0.008304809 -0.034392644 0.15293024 -0.084778294 -0.07977432 0.0011417198 0.016787874 0.3229447 -0.15910956 -0.20631582 0.048148274 0.32731172 0.20268594 0.1548829 0.1421865 -0.15122339 -0.046018776 0.30687976 -0.19102767 -0.047719106 -0.020356484 -0.06494508
21 -0.12518863 -0.6252542 -0.04503503 0.07264246 0.20158811 -0.020755948 -0.0026196712 -0.23691352 -0.049118914 -0.2994766 0.041231446 -0.19660689 -0.11315784 -0.13259195 -0.046100076 -0.07167997 -0.26481053 0.19239122 0.21899988 0.13537009 0.24041769 0.11152826 -0.21160552 -0.1477226 -0.2649021 0.23224033 -0.29769507 -0.04272334 0.3627979 -0.028097974 -0.13519652 -0.026138525 -0.16639043 0.005597905 0.1153491 -0.13392013 -0.14242229 -0.14890784 0.20037626 0.062147476 0.11545874 -0.012555283 -0.051231336 -0.013833787 0.14270593 -0.12392327 0.0062792716 0.008620381 0.057264484 0.26601797 0.03069919 0.05851399 0.01170403 0.09228076 -0.08822918 0.16253118 -0.05572241 -0.027137928 -0.32143825 0.31111467 -0.07226805 -0.39938918 -0.4344412 -0.14951561
48 0.10517644 -0.21818201 0.33904296 0.079987824 -0.029294986 -0.21882284 0.19163068 -0.030694464 -0.23484196 0.08600126 0.099246375 -0.06256074 -0.35852206 -0.23662542 -0.041326553 0.13888982 0.098579526 0.048500963 0.31747022 0.04997026 0.13069257 0.35016015 0.025215315 -0.033635043 0.10067065 0.09555111 -0.1569693 0.028416725 0.047828224 0.083329365 -0.0067248964 -0.1641792 0.054149803 -0.093941286 0.030455498 -0.15903068 0.09364662 -0.03347372 0.03572851 -0.23337612 -0.11844982 -0.15421246 -0.055584744 -0.07836516 0.13880347 -0.044870794 0.114392735 -0.09006765 0.05393105 -0.0043254746 0.18130687 -0.19991969 0.19021998 0.1597481 0.22948028 -0.07953612 0.030281276 -0.06227694 -0.04014511 0.3285944 0.070488036 -0.32015258 0.0858379 0.0027594648
55 -0.11416306 -0.27809432 0.052275803 0.05435628 0.014784371 0.10738862 0.10087864 -0.015266453 0.0019167139 -0.20132498 -0.02978623 0.20710045 -0.077461526 -0.38111052 0.13846171 0.07429171 0.037528034 -0.0032566858 0.15993778 0.053009924 -0.048041098 -0.08274968 0.23656046 -0.0014361208 0.07086957 -0.13961655 -0.08458863 -0.086172394 0.41357717 -0.09127974 0.102004774 -0.14692827 -0.13091266 0.06528636 0.3049513 0.04995699 -0.28848916 -0.0077319457 0.25373447 -0.1132934 -0.13282365 -0.143772 0.03249357 0.06863879 0.3860896 -0.18441835 0.24880996 -0.094832994 -0.13556416 0.4393656 -0.3929571 -0.27093643 0.26068386 0.40500024 0.3770248 -0.028891852 -0.033457916 -0.24000558 0.06533884 0.21678954 -0.016980473 -0.45781976 -0.07113296 0.052979812
12 -0.09204985 -0.16840355 0.11149295 0.11531518 0.003069127 -0.05813098 0.21972291 0.041230787 -0.22753413 -0.0023960744 -0.1642602 -0.18151176 -0.26212212 -0.050816767 -0.021797981 0.092481166 0.07761613 0.1047197 -0.019325953 0.18456936 -0.038988326 0.021975186 0.22264025 0.06183335 0.03340604 0.08567908 0.04347371 -0.18471456 0.32391575 -0.11608553 0.028884413 -0.31306988 -0.048957855 -0.053334076 -0.1048056 -0.11094844 -0.44442812 -0.13593644 -0.05570436 -0.30642235 -0.20359287 0.014038323 0.023689572 -0.23372625 0.08865064 -0.22156882 0.30613798 -0.3229966 0.03336665 0.16430902 0.012773898 -0.33469617 0.41149285 0.19390585 0.2765392 -0.26515 -0.21161482 -0.16639642 0.18211176 0.10067697 0.26166603 -0.4157252 -0.103535004 -0.0317437
26 0.00031549123 0.08652613 0.40185824 0.1516716 0.09648061 -0.31814924 0.15849234 -0.020431088 -0.4112419 0.24157135 0.22783194 -0.29281455 -0.113841034 -0.06490467 0.01270423 0.36349398 -0.03689024 0.070248924 0.30702728 0.20854118 -0.013825168 0.018810721 0.08770597 -0.16958037 0.16746117 0.3301147 -0.3041353 0.093091436 0.066521436 0.066397436 0.12558788 -0.14075044 -0.41584948 -0.08143429 -0.046058405 -0.3773425 0.00097344955 -0.13586073 -0.090022184 -0.33359745 -0.08516883 0.048085295 0.0091167325 -0.08126718 0.18051603 -0.0071619633 0.13603912 -0.16346616 0.22126387 0.14390287 0.07541926 0.001988917 0.33198297 -0.10348412 0.25585595 0.01659366 -0.04044494 0.17222984 0.18308833 0.17565043 0.21536338 -0.4324 -0.14035156 0.091029294
