50 64
1 0.077902235 0.0027483213 0.28094834 0.03668913 -0.012596486 -0.1794448 0.1405587 0.17379399 -0.099593885 -0.06100217 0.13180377 0.007110364 0.0022954585 -0.007905533 0.0049032066 0.08634672 0.010074809 -0.06652503 -0.016714018 0.067275666 0.15343957 0.0018671209 0.30382806 -0.14919414 0.023741145 0.11276763 -0.10094021 0.013745134 0.019578988 -0.10987459 -0.13674614 0.082246296 -0.31871295 -0.29838106 -0.04688294 0.022907069 0.042800955 0.20779963 0.23457801 -0.05140358 0.05880182 0.1578553 -0.033165645 -0.22424546 0.13854328 0.122611515 -0.038981255 -0.07619184 0.048176132 0.13418864 -0.07107918 0.0682097 0.090768166 0.21182533 0.32265055 0.14936931 0.07032717 0.061313156 -0.076307364 0.03482841 0.057426926 -0.20864503 -0.056801092 0.059599098
2 0.1527881 -0.012604485 0.1970214 0.11802032 0.10150022 -0.10849445 0.12541813 0.1676721 -0.08876975 -0.027164716 0.1559862 -0.1265542 0.1376299 -0.06327738 -0.017778633 0.096828684 -0.032221694 -0.053513613 -0.15875204 0.04428528 0.13915013 0.09934523 0.319212 -0.09915247 -0.0006260521 0.18696432 0.023391094 -0.028927347 0.07770343 -0.094037265 -0.28226626 0.07885154 -0.2676985 -0.29580256 -0.076175414 0.055046435 0.040396303 0.22966266 0.31005517 -0.02516828 0.03812442 0.017721409 -0.041288607 -0.12333624 0.13994654 0.08928986 -0.111620635 -0.11183482 0.0105501395 0.12839109 -0.09213151 0.020004528 0.15058781 0.2501927 0.24237673 0.020999782 0.12741593 -0.07524626 -0.10209845 -0.0907462 0.09527302 -0.17237166 -0.0031841688 -0.04083343
28 0.1425322 0.01572422 0.2692109 -0.07642103 -0.049517285 -0.24047366 0.14792623 0.11027458 -0.06288745 -0.049241774 0.22586733 0.01817102 0.010082002 0.018962322 -0.06195075 0.052368194 0.011509959 -0.060606092 -0.015568783 -0.035070896 0.15664643 -0.0045860326 0.36160728 -0.108120725 0.06281171 0.16819748 -0.08433666 -0.03925065 0.12097687 -0.10944346 -0.24048819 0.11163678 -0.21750331 -0.17914015 -0.14334966 -0.09336034 0.120540656 0.14586179 0.2011321 -0.09322861 0.12832531 0.09138365 -0.078845955 -0.1626658 0.13143635 0.16494185 -0.12196085 -0.15967238 0.03806577 0.09905295 -0.08968921 0.06631026 0.013466272 0.1880464 0.27186114 0.09781477 0.17524387 -0.06362964 -0.055115655 -0.03170078 0.16332489 -0.2254291 -0.023635982 0.032215763
18 0.1534365 -0.072401226 0.23932788 0.011961387 0.039637256 -0.18642502 0.068881735 0.18795845 -0.06533653 -0.044700846 0.112961546 -0.030038178 0.0711791 0.020408846 0.01598808 0.12668917 -0.0355465 -0.05804882 -0.030033475 0.10698804 0.20796919 -0.012115946 0.32622364 -0.16706306 0.004644944 0.16237651 -0.14652269 -0.03972123 0.0017301427 -0.13035935 -0.16261725 0.031112999 -0.24690759 -0.26871952 -0.038574897 0.07131651 -0.011901418 0.21246849 0.25449035 -0.06480392 0.026248049 0.15977262 -0.060411394 -0.21249206 0.12423164 0.11684908 0.0039071306 -0.08974482 0.009998147 0.12941347 -0.06812019 0.059963673 0.08506821 0.2370404 0.31228787 0.14198522 0.04487384 0.035166193 -0.06744083 -0.01383151 0.036917087 -0.19359526 -0.07475412 0.02559025
25 0.04538501 -0.032645382 0.26429844 -0.0199919 0.022732446 -0.30471832 0.17469247 0.15212555 0.014721242 -0.052610926 0.20192409 0.008326301 0.078793354 0.094167575 0.09110366 0.14310801 0.040055193 -0.038434584 0.082358256 0.1537849 0.14950258 0.04515714 0.21930082 -0.11700158 0.018503333 0.077623904 -0.019982608 0.05947347 0.124135725 -0.113622345 -0.14649443 -0.06973503 -0.20589179 -0.2527738 -0.21532299 -0.007187236 0.10742628 0.083365425 0.20977923 -0.07273954 0.10517742 0.12106808 -0.006566367 -0.25092623 0.14758936 0.2348059 -0.06525259 -0.13649938 0.14612046 0.07677902 -0.16117337 0.103242934 -0.021900635 0.17521702 0.32780138 0.22134776 0.08505665 -0.011224461 -0.036932644 0.031676736 0.10997356 -0.11997684 -0.21640919 0.07678703
24 0.064546034 -0.06150876 0.24422823 0.057311717 0.049904473 -0.19350961 0.11416713 0.16885957 -0.030970436 -0.042130865 0.11735716 -0.023653975 0.05325406 -0.0046329494 0.054145683 0.13382757 -0.0002344667 -0.04881228 -0.026364068 0.1944502 0.14826319 0.013510942 0.25543827 -0.09466379 -0.015432336 0.09954037 -0.052653152 0.05581462 0.019276833 -0.11553849 -0.15387759 -0.02909685 -0.27747318 -0.31585035 -0.09976716 0.050543144 0.038711157 0.18000805 0.31795132 -0.024362667 0.0049103177 0.17179461 0.017032823 -0.24215743 0.17647418 0.15993755 0.010456032 -0.063972436 0.08402778 0.08661688 -0.11245853 0.08091139 0.06453509 0.22186184 0.3207635 0.20382048 0.022742644 0.06776229 -0.040857717 0.028940905 0.026021022 -0.11355232 -0.103796475 0.08953102
20 0.19525076 -0.12178543 0.28050056 0.041115005 0.0635455 -0.18055078 0.03568249 0.1413187 -0.08432253 -0.008894091 0.17477773 -0.08718419 0.021256138 -0.10982924 -0.020615544 0.06588804 -0.0924119 -0.019528437 -0.18282296 0.02697886 0.22931014 0.07017902 0.23810872 -0.028108502 -0.07680685 0.1026507 -0.06154077 -0.04844154 0.106071286 -0.04891183 -0.32062706 0.040937435 -0.21523993 -0.20295656 -0.03790893 0.010537251 0.058992654 0.17869127 0.35053462 0.1330825 0.041813705 0.040804915 -0.04523842 -0.1618594 0.11928378 0.05493342 -0.09688274 -0.1727332 0.021759873 0.028407393 -0.01667724 -0.10438918 0.08358135 0.28549334 0.33847758 0.11015918 0.08139436 -0.1652151 -0.121435836 -0.012860549 0.18452914 -0.13933815 0.025584823 0.049768716
31 0.10173627 -0.01855776 0.21249817 0.08167506 0.14604703 -0.12074764 0.106209636 0.13411742 -0.10356688 -0.06491875 0.08850521 -0.08762845 0.08959457 -0.007131231 0.061112326 0.16712786 -0.022775792 -0.057186533 -0.041362993 0.19848086 0.11580567 0.029538216 0.30106243 -0.06872068 -0.026983839 0.12567014 -0.030187326 0.04578432 -0.032506432 -0.07822344 -0.14275675 -0.03442526 -0.33352438 -0.3512703 -0.070775166 0.010315212 -0.023630232 0.20210618 0.30799472 0.0001622872 -0.0037252705 0.13808967 0.02673246 -0.24838366 0.13059036 0.124108136 0.06694176 -0.07917593 0.069705665 0.1286608 -0.103450894 0.05499219 0.11099991 0.23490684 0.30572864 0.15251818 0.055383034 0.08652982 -0.05033603 0.016326176 -0.00546417 -0.22900718 -0.07316902 -0.03335918
10 0.07232932 -0.12443905 0.22069745 -0.12868507 -0.07177687 -0.21230003 -0.013691495 0.12650707 -0.11776337 -0.047355402 0.19622478 0.056189924 -0.04859863 -0.030999571 -0.100940146 -0.05820183 -0.06043571 0.01948815 -0.050310858 -0.06683256 0.10461485 -0.06891376 0.3388795 0.052566167 -0.017931085 0.19534598 -0.16482577 -0.05492285 0.030951299 -0.16342148 -0.30354387 0.09396583 -0.19303209 -0.26943952 -0.007361552 0.027884346 0.09107101 0.17817067 0.35695046 -0.027077643 0.06732276 0.1405311 -0.1260971 -0.1266729 0.24895959 0.13920982 -0.04842214 -0.13861744 0.09002287 0.15578917 -0.056637954 0.09563969 0.07221432 0.19845048 0.27529722 0.23217498 0.05218282 -0.04333737 0.039347053 0.06981101 0.16128239 -0.09370364 0.015530822 0.19510235
21 0.10737203 -0.015463302 0.2305417 0.066426985 0.11263375 -0.2402476 0.16660973 0.11555006 -0.028548425 -0.06268304 0.14574021 -0.058942065 0.10405439 0.045375768 0.09298053 0.19818169 -0.017558672 -0.07997186 -0.009720456 0.13930635 0.14598556 0.033270184 0.25793588 -0.15587297 0.030748151 0.09179029 0.014075537 0.018194692 0.11009088 -0.07809658 -0.16120958 -0.03842758 -0.2931382 -0.23777568 -0.1434009 0.030712774 0.03622184 0.1626372 0.22251719 -0.0115408 0.095902056 0.10212008 0.014420108 -0.26256782 0.09894822 0.10504265 -0.042671796 -0.14637272 0.092343435 0.053554844 -0.102600165 -0.0137272915 0.025735684 0.23199221 0.34833282 0.11062944 0.09292484 -0.03676655 -0.14000742 0.0060365843 0.055209722 -0.22890061 -0.13114932 -0.064787894
40 0.18380842 -0.0732838 0.25541732 -0.12572016 -0.0040232595 -0.13962464 0.03291919 0.10589097 -0.13832642 -0.02207851 0.1785698 -0.00046146542 -0.07339709 -0.0064771264 -0.12808186 -0.002742865 -0.007505823 -0.054076444 -0.09683781 -0.07032723 0.16730745 -0.07101044 0.3817944 -0.035604455 -0.013671701 0.18597895 -0.16930193 -0.10393148 0.03009042 -0.12012111 -0.2876697 0.14994387 -0.22449926 -0.18980251 -0.027612522 -0.07636578 0.074165784 0.20886017 0.30533952 0.008869857 0.06796968 0.09913354 -0.0887554 -0.13745587 0.14232874 0.092031084 -0.05549353 -0.161846 -0.021307135 0.12306777 -0.062299572 0.04877593 0.10631023 0.20945263 0.29695687 0.13630931 0.1555496 -0.04060093 -0.020069905 0.010341985 0.18223268 -0.23258372 0.05144704 0.095665
36 0.031593718 -0.076686345 0.23095445 -0.058531363 0.00039188942 -0.27443403 0.06571085 0.209843 -0.028092116 -0.08323365 0.14192572 0.04411243 0.07449213 0.050983746 0.019227127 0.03986633 0.03090379 0.021285566 0.038408488 -0.0034144067 0.08443962 0.03824123 0.23873009 -0.043197848 -0.053901937 0.14852148 -0.09132976 0.051100407 0.03434878 -0.14928047 -0.18244778 -0.0006280103 -0.22088653 -0.30826765 -0.13005155 0.085189626 0.08128096 0.14774609 0.33620068 -0.057372548 0.022453258 0.112704284 -0.063193575 -0.18137637 0.21408898 0.18612218 -0.04463624 -0.111181274 0.15376784 0.16127396 -0.16242646 0.16408174 0.04486335 0.21957734 0.31477904 0.2595855 0.057035174 0.04764842 -0.0370983 0.09465795 0.092269205 -0.08478049 -0.16582403 0.14195767
39 0.09466758 -0.040768225 0.23957463 0.023323882 0.07601904 -0.24217048 0.13400464 0.17342938 0.023633834 -0.060447324 0.12885176 -0.021766305 0.067299426 0.039841235 0.03965 0.18837343 0.038826827 -0.058341395 0.012337065 0.14360917 0.19945359 0.033945613 0.2535173 -0.17152803 -0.0067417384 0.08368069 -0.060194254 0.016980154 0.06103716 -0.105941 -0.12726493 -0.04223532 -0.2675101 -0.22937304 -0.13201176 0.06422121 0.041782644 0.13746828 0.298098 -0.07419572 0.0073458883 0.14804941 0.011637398 -0.2766289 0.11391366 0.14917596 -0.006315439 -0.09664454 0.041974165 0.07346777 -0.13553087 0.057624903 0.06341382 0.22437151 0.3640819 0.1404689 0.064375035 0.031435654 -0.09024415 -0.01885929 0.041370444 -0.21380427 -0.140915 -0.004263356
9 0.259184 0.040465694 0.20881806 0.11394489 0.03410937 -0.14862606 0.23600723 0.1455707 -0.15187775 0.027633242 0.17730938 -0.13947767 0.04134044 -0.043994762 -9.62417e-05 0.13390076 -0.014902868 -0.17198221 -0.15528356 0.015365833 0.17456844 0.043127794 0.32499102 -0.185461 0.1158297 0.18081795 0.052698843 -0.08195627 0.13884 -0.062834494 -0.257332 0.12827022 -0.31652263 -0.1614028 -0.16078696 -0.046029396 0.07854227 0.18739104 0.07079148 -0.012740871 0.11330314 0.017455705 -0.06407021 -0.14930281 0.047962748 0.036866236 -0.24169114 -0.13289814 0.009787839 0.053452056 -0.05389798 -0.06195844 0.07535311 0.2703153 0.27786386 -0.07465793 0.21590321 -0.15356246 -0.21823494 -0.020551726 0.13326983 -0.26904312 0.05874945 -0.0682944
29 0.09817666 0.022056863 0.297888 -0.07617871 -0.090274334 -0.20706023 0.08369466 0.14855237 -0.10737752 -0.113726296 0.12739179 0.02878429 -0.01966028 0.025768358 -0.012467452 0.043589894 -0.0352131 -0.061125677 0.052508507 0.1072744 0.1267051 -0.045442604 0.36700758 -0.10520074 0.010371475 0.19081192 -0.17521195 0.015237637 0.0067243297 -0.14721417 -0.15577224 0.106538005 -0.2724145 -0.32417017 -0.008298986 -0.015881259 0.006045555 0.22364059 0.15774173 -0.07908234 0.07511759 0.17324798 -0.08922395 -0.16409455 0.21285297 0.20472921 -0.005654836 -0.08851713 0.051813826 0.2087616 -0.111467965 0.16136053 0.024913982 0.19570981 0.24372117 0.22843903 0.04253591 0.09481826 0.046163436 -0.021645145 0.05197127 -0.14724796 -0.0063218805 0.114933
23 0.14238882 -0.05360495 0.3386395 -0.03664949 -0.01358569 -0.16586658 0.041928474 0.069463305 -0.10218496 -0.03926935 0.13095501 0.012534527 -0.09024737 -0.07717607 -0.10219452 0.05961839 -0.103014186 -0.026822034 -0.10891498 0.045097273 0.20356607 -0.0100748725 0.34026542 -0.06102312 -0.021990402 0.11343616 -0.17845763 -0.054095056 0.051281493 -0.102161735 -0.24343836 0.12869096 -0.26568636 -0.24265434 0.054870255 -0.007786421 0.014153115 0.21807557 0.32360443 0.09278764 0.075745866 0.10493042 -0.034604456 -0.21538964 0.10863435 0.08552732 -0.052731752 -0.17327893 -0.028559698 0.07356627 -0.0009790591 -0.010150857 0.08359141 0.23039003 0.32936433 0.19518141 0.04843044 -0.10401285 -0.044621646 -0.052414432 0.15384446 -0.17872027 0.039295863 0.13540944
30 0.060081672 -0.029287508 0.2729741 0.02826568 0.019808667 -0.2237531 0.124581546 0.18966715 -0.044104222 0.0029292542 0.15035093 0.01688191 0.035659436 0.0045950958 0.016054697 0.10399562 -0.029397368 -0.029621523 -0.03870405 0.1601061 0.13130873 -0.01313144 0.26319805 -0.109275825 -0.009038592 0.09025378 -0.08937153 0.034412127 0.046594094 -0.11912703 -0.14324252 0.015222399 -0.27636454 -0.30329373 -0.07287932 0.009929359 0.053331897 0.1480846 0.26011908 0.0016793564 0.04808755 0.13876504 -0.026695432 -0.2562216 0.15953745 0.16549817 -0.03332116 -0.07472825 0.09398719 0.1492876 -0.09503941 0.09912761 0.04473988 0.20680833 0.33200997 0.24668004 0.06499549 0.009937352 -0.015488672 0.059924588 0.07432769 -0.13929011 -0.14011566 0.11284509
41 0.11949751 -0.039722677 0.22038023 -0.042679843 0.056552306 -0.22474316 0.074101046 0.13856976 -0.003893241 -0.071432784 0.20166984 -0.035100278 0.118694104 0.085538104 0.021894071 0.10086156 0.010947891 -0.012310243 -0.020516213 0.03359123 0.10581462 0.021339592 0.2954778 -0.04261071 -0.035689753 0.15138023 -0.020017635 -0.030134903 0.07224398 -0.12778261 -0.28514227 -0.03173276 -0.17706236 -0.27687973 -0.17437719 -0.026188776 0.03985114 0.11342739 0.26764008 -0.04796233 0.067818694 0.075381406 -0.08101082 -0.17909905 0.15466511 0.16510502 -0.09131737 -0.15379758 0.11207798 0.11606597 -0.1549723 0.060360093 0.025694404 0.20698112 0.28290585 0.18943362 0.11387586 -0.047376573 -0.043845292 0.02748023 0.11474811 -0.1051476 -0.11964119 0.010251966
17 0.14453135 -0.07116998 0.1879044 0.012195258 0.060381617 -0.19727881 0.07906411 0.18651107 -0.056360684 -0.0066638207 0.2140573 -0.058347937 0.096106365 -0.004090254 0.008837801 0.05123359 0.0007181435 0.031145561 -0.16652252 -0.06088229 0.11587442 0.09290101 0.24176084 0.05494265 -0.04415812 0.14919259 0.017302843 -0.05367891 0.09426071 -0.08392995 -0.36878604 -0.0090812305 -0.12562265 -0.23717518 -0.14951551 -0.04236381 0.15488257 0.1736323 0.38448855 -0.0034276906 0.0082384255 0.009820224 -0.029356748 -0.098442264 0.16674992 0.0987295 -0.16359316 -0.15581292 0.112257585 0.10200566 -0.10144346 0.01263928 0.10667567 0.26168403 0.32787484 0.12731741 0.16853668 -0.12424136 -0.07328808 0.0021164014 0.15526018 -0.14781061 -0.073860206 -0.05818501
16 0.07962899 -0.024792707 0.2598288 -0.010320287 -0.00611925 -0.19103037 0.098402604 0.16858442 -0.05535166 -0.02879352 0.12115826 0.04300613 -0.012208762 0.036187343 -0.07450795 0.08013138 6.786863e-05 -0.026249334 -0.05324403 0.019100107 0.10874748 -0.033046495 0.3236913 -0.07841893 0.008311103 0.12708281 -0.093876936 -0.010040511 -0.006784885 -0.1566446 -0.14350595 0.027873214 -0.26166764 -0.28962952 -0.06596912 -0.028804708 0.094957076 0.13626325 0.31713703 -0.034522835 0.0011281896 0.12234208 -0.01663572 -0.19768636 0.11829618 0.14992931 -0.033112675 -0.10336758 0.05310086 0.1458103 -0.10522942 0.12367331 0.057531454 0.21143161 0.3319165 0.22859026 0.10345035 0.0027114437 -0.043051824 0.06967926 0.10782109 -0.20604622 -0.10823478 0.09841785
35 0.087076694 -0.0027969182 0.27087292 0.05845482 0.035430495 -0.16366404 0.13811035 0.15577944 -0.05577965 -0.029686542 0.11430369 -0.00092338346 0.028976092 -0.026807504 -0.020261398 0.12596987 0.018911704 -0.03601182 -0.01862242 0.14399596 0.15898849 -0.0035792324 0.27571648 -0.14926396 -0.004656818 0.08787516 -0.10181248 -0.022720888 -0.0019350292 -0.10787722 -0.1349638 0.037622984 -0.29957503 -0.28503013 -0.04857159 0.006370757 0.062004846 0.17981797 0.2752103 -0.040830284 0.012950337 0.15599887 -0.00086286967 -0.23539917 0.1328106 0.16115929 -0.039464947 -0.094173715 0.0080318665 0.1111673 -0.08198135 0.10658318 0.10848819 0.21023373 0.35037938 0.15953615 0.078473404 0.08111796 -0.059334088 0.0059844255 0.053220153 -0.22151175 -0.07603634 0.0678251
38 0.10873665 -0.03997578 0.14027974 0.0903254 0.12762502 -0.104060814 0.124355875 0.15563698 -0.10646684 0.047870215 0.14190021 -0.053728513 0.089259274 -0.07139207 -0.054612357 0.121540904 0.019649038 -0.012270855 -0.16728187 0.02736124 0.15336783 0.022095298 0.32068753 -0.03185716 0.020770563 0.10250569 0.029068522 -0.046336427 0.0429032 -0.080468215 -0.26243195 0.048826914 -0.25610858 -0.24548167 -0.0988761 -0.022685781 0.12086312 0.15816599 0.39080575 0.010596798 0.006382549 0.070908695 0.023618454 -0.14883153 0.11955211 0.09833674 -0.0726365 -0.08457501 0.029256307 0.06963026 -0.088735 0.00825572 0.18665645 0.21337815 0.30057958 0.07807837 0.17960525 -0.007375669 -0.08956903 -0.018183608 0.12433518 -0.24159333 -0.002876805 -0.03138764
48 0.120141916 -0.08948603 0.23041959 0.030071147 0.084826164 -0.2638765 0.12418153 0.21817799 0.013463466 -0.015336321 0.1938024 -0.06387089 0.1653577 0.056163073 0.07856325 0.12811545 0.018657492 0.0034963386 -0.06170848 0.03905334 0.15397635 0.10144584 0.19093025 -0.09621127 -0.011527567 0.09628947 0.019028366 -0.0044403253 0.1323262 -0.08471507 -0.2272826 -0.029812653 -0.16583358 -0.2501444 -0.1769362 0.051826272 0.08664529 0.14763488 0.28980172 -0.039209437 0.03424365 0.04990776 -0.0066200458 -0.1712842 0.14025417 0.11512825 -0.119697936 -0.14646864 0.14095268 0.1155714 -0.13449903 0.043956436 0.055158287 0.22877645 0.33289698 0.1415027 0.10262191 -0.06763164 -0.110864826 0.013395693 0.11682326 -0.14457592 -0.19427882 -0.049025543
32 0.1318476 -0.009148048 0.29589877 0.010520952 0.010945195 -0.16203523 0.111954086 0.12798436 -0.10067253 -0.04853192 0.11897385 -0.0714501 -0.0004335996 -0.015106346 0.03148523 0.1180115 -0.08022394 -0.10053935 -0.029930677 0.19933452 0.13118434 0.027562877 0.30095497 -0.15680464 -0.008517001 0.12491551 -0.14309196 0.056905277 0.023145886 -0.07993266 -0.13217218 0.11596647 -0.3798767 -0.3262375 -0.0011784749 0.0484758 -0.06759817 0.23299031 0.19954216 0.02266638 0.05096434 0.15301229 -0.025327237 -0.26394957 0.12096142 0.10877709 -0.0036550509 -0.08716459 0.036166772 0.16131231 -0.08732031 0.016182708 0.010570268 0.21565737 0.2776006 0.20432547 -0.015885625 -0.027264904 -0.044146612 -0.024599327 0.039562237 -0.1275791 -0.036377437 0.1154953
26 0.12421079 -0.11505321 0.13517506 0.03715563 0.07852536 -0.22526956 0.068683386 0.21052065 -0.04095836 0.049133837 0.18407258 -0.037623465 0.06518536 -0.05222506 -0.0054700524 0.06762283 0.02528632 0.006823519 -0.12407309 0.014418936 0.16837755 0.022096936 0.24291961 0.016432377 -0.028604338 0.09000918 -0.023608053 -0.05766738 0.11144509 -0.09962666 -0.31796053 0.0019670532 -0.1494046 -0.19737858 -0.16860208 0.017526548 0.17233318 0.10554278 0.39415723 0.011247704 0.025889529 0.052025948 -0.035137575 -0.17666426 0.13131763 0.12429383 -0.13871443 -0.103251375 0.09911738 0.07309109 -0.1077144 -0.0052065947 0.12993896 0.24954 0.34793133 0.16175403 0.12894422 -0.10061105 -0.09917926 0.080911025 0.15219757 -0.10976621 -0.06830774 0.06905338
11 0.14914073 0.030139782 0.27208003 0.038690094 -0.029421847 -0.25863865 0.2237119 0.20810184 -0.045961723 -0.022968797 0.16164474 -0.084963255 0.03273043 0.07579578 0.03545694 0.15028252 -0.002840034 -0.103555955 -0.04559985 0.05452214 0.13519011 0.09226432 0.25615364 -0.1680932 0.064164266 0.1387597 0.024952374 -0.014574981 0.16370888 -0.08548443 -0.17060392 0.0635888 -0.27204835 -0.24844673 -0.1457811 -0.010437539 0.08457737 0.14961614 0.07591587 -0.06969299 0.10993095 0.010207029 -0.048562646 -0.13522556 0.14260514 0.13511233 -0.2360785 -0.14560045 0.111088224 0.13677526 -0.1556239 0.022576643 -0.012088786 0.2341448 0.29868898 0.09907914 0.10812917 -0.13058372 -0.12080397 -0.032195013 0.11765737 -0.15554594 -0.09411873 0.009332457
49 0.18147181 -0.04629435 0.18939508 0.022523366 0.064442545 -0.13479385 0.095220566 0.17590187 -0.099649966 0.0009989609 0.14084885 -0.068682484 0.03381664 -0.06491491 -0.01712838 0.09461019 -0.009360325 -0.07907224 -0.15727682 -0.024208372 0.19186099 0.01802574 0.298585 -0.09832898 -0.00469163 0.13386986 -0.05659504 -0.068560384 0.09001215 -0.07204892 -0.2799857 0.08983566 -0.2799749 -0.21070708 -0.07974911 0.050574962 0.0576118 0.23827541 0.32600838 -0.009370198 0.054052718 0.080285944 -0.019204292 -0.1714671 0.09569943 0.051742174 -0.09186518 -0.12810545 0.0074093086 0.048016615 -0.022496905 -0.0449397 0.15092987 0.2535687 0.33805606 0.03908157 0.1296262 -0.05188163 -0.1381038 -0.030020772 0.09939859 -0.23331928 0.019525403 -0.024655268
8 0.13449289 -0.014675127 0.29095438 0.12334193 0.0046204333 -0.2103822 0.19210376 0.19086865 -0.094971314 0.0014808498 0.15396227 -0.11937468 0.069736615 -0.046337582 0.1123227 0.14886598 -0.055172425 -0.1101407 -0.09286566 0.2029314 0.14475991 0.09935213 0.2240767 -0.085525356 0.028574552 0.098635696 0.018146941 0.05205542 0.11540792 -0.06282194 -0.16200276 0.017462969 -0.31379232 -0.2981698 -0.11697325 -0.002565772 0.06852378 0.17992134 0.17181258 0.02465839 0.09118495 0.061796516 0.029238561 -0.22475496 0.15659726 0.13243903 -0.08036639 -0.06919537 0.13063972 0.11789997 -0.08075151 0.0042252284 0.003607715 0.264658 0.30530584 0.13462669 0.056428034 -0.06967209 -0.0625052 -0.0017200848 0.08257168 -0.131103 -0.07992931 0.0329696
34 0.14845611 -0.067062885 0.17949714 0.08839135 0.092759095 -0.13949035 0.11202425 0.15249473 -0.05850779 -0.010972597 0.10497708 -0.05236179 0.053179294 -0.091408856 -0.03768334 0.12826766 -0.0394708 -0.070311405 -0.11829243 0.05636671 0.19830832 0.033122905 0.3105782 -0.12697867 -0.0070478204 0.13422135 -0.054059938 -0.018044243 0.06156105 -0.10483792 -0.23736887 0.07430631 -0.26408815 -0.23783559 -0.0765746 0.10365825 0.07250647 0.18992698 0.3572202 -0.010656932 0.009510276 0.10438353 -0.043408938 -0.20634839 0.11104213 0.109542444 -0.052298635 -0.10310378 -0.020324223 0.067320235 -0.058163397 0.0075457753 0.1384523 0.23316455 0.3029753 0.086597696 0.116970465 -0.04826564 -0.13761982 -0.039021336 0.086260445 -0.18084064 0.017858913 0.08955771
46 0.12490006 -0.030265035 0.24202745 0.112587504 0.12834783 -0.19307792 0.19645092 0.220896 -0.02864302 -0.0052214493 0.16642414 -0.110397615 0.18084605 0.037060183 0.13307808 0.16625544 0.023899827 -0.03787324 -0.07435647 0.08667936 0.14204636 0.14590187 0.16322707 -0.11756555 -0.02098349 0.112294026 0.11732431 0.0390982 0.15705734 -0.07029521 -0.22781186 -0.06814646 -0.22274044 -0.2826351 -0.18282245 0.034701183 0.077859424 0.20061941 0.24568166 -0.03141852 0.061596815 0.024621397 0.006315633 -0.15378341 0.17029554 0.11947722 -0.12831987 -0.121955894 0.106624894 0.08466454 -0.12538612 0.0018459222 0.072137184 0.24599944 0.32334048 0.06807486 0.12956144 -0.06693503 -0.12971665 -0.03880709 0.10010167 -0.15821268 -0.1633927 -0.10890103
13 0.11037823 -0.0066480963 0.19708131 -0.0081974305 -0.07653056 -0.14548074 0.09100048 0.15785271 -0.10394688 -0.015868599 0.13061433 -0.009717013 -0.00418243 -0.060737878 -0.08068244 0.0490653 -0.027586848 -0.06910565 -0.07540035 0.008759421 0.13846235 -0.0069581587 0.3727067 -0.048311092 0.02727927 0.17183144 -0.11984324 -0.038077224 0.033724587 -0.118761115 -0.24524498 0.12336358 -0.2880433 -0.29771185 -0.024309391 0.018865172 0.075224996 0.20846279 0.29877454 -0.08007135 0.012222123 0.1190191 -0.06047313 -0.1430496 0.19110946 0.16336216 -0.079417154 -0.06598115 0.015887847 0.15252008 -0.07774126 0.093846984 0.10019956 0.20107487 0.25088817 0.14032693 0.09561181 0.047697227 -0.021406196 -0.01712404 0.061458312 -0.15522455 0.05480892 0.09552473
3 0.17085537 0.05512796 0.25595644 0.048828922 -0.02797155 -0.24060349 0.22790165 0.1866262 -0.09988342 -0.009373928 0.15891485 -0.047061004 0.018075386 0.031832278 0.05023173 0.13894767 0.04410401 -0.14849629 -0.013607212 0.09646158 0.14938843 0.011185057 0.29250023 -0.231678 0.116918236 0.11259242 -0.022547292 -0.02364396 0.13670927 -0.07961609 -0.12915052 0.09681937 -0.31580955 -0.20518629 -0.15792374 -0.041832842 0.0787687 0.14439006 0.060015686 -0.05011249 0.115129255 0.07139408 -0.051826604 -0.21551761 0.054763325 0.111393884 -0.18120964 -0.10512839 0.04721756 0.1153265 -0.12889382 0.033093043 0.03348447 0.23981462 0.3109599 0.08455514 0.15094998 -0.05513348 -0.15417446 0.04731976 0.08575977 -0.24464068 -0.09050043 0.013864043
5 0.08098267 -0.10524956 0.23609069 -0.04752491 0.06672402 -0.20770316 0.029564423 0.1478444 -0.044925842 -0.061818942 0.12964691 -0.011125109 0.058425717 0.010995908 0.02574289 0.07008638 -0.03517026 0.019026658 -0.033961855 0.046251494 0.16789804 0.0030222312 0.25439778 -0.029729092 -0.0649424 0.12667625 -0.06289634 0.015865412 0.04637859 -0.104784586 -0.24208334 -0.02526545 -0.22891513 -0.26141876 -0.09232369 0.06818111 0.03593132 0.20023917 0.3631875 -0.0019296817 0.035259515 0.14958592 -0.025023043 -0.19614202 0.19147135 0.15053181 0.024795232 -0.14079936 0.0997842 0.05994167 -0.0846014 0.052340016 0.083363794 0.23178816 0.33360547 0.18957159 0.029907538 0.045402158 -0.05384873 0.027442856 0.09599991 -0.12285028 -0.074866034 0.07057318
12 0.14817667 -0.04777233 0.24408142 -0.18824619 -0.09687521 -0.23882481 0.04328863 0.11984362 -0.10047717 -0.058270954 0.19515298 0.06560969 -0.083133094 0.03337441 -0.1365574 -0.017284838 0.018453563 -0.02260736 -0.011061196 -0.1214156 0.14637381 -0.07893022 0.35559332 -0.05377573 0.0075357454 0.15528232 -0.17757723 -0.08588787 0.06131829 -0.13013028 -0.26610267 0.1368414 -0.23557045 -0.19349998 -0.056192443 -0.049826287 0.06507896 0.15707089 0.26185432 -0.0132516185 0.063864894 0.12197271 -0.12112075 -0.14630106 0.1690077 0.1383707 -0.1186484 -0.17962113 0.026952473 0.12991843 -0.08565604 0.10440654 0.02381349 0.18826728 0.2989131 0.1716684 0.112051435 -0.027672986 -0.007927782 0.05509158 0.18363895 -0.17089371 0.0377224 0.12773639
27 0.13375142 -0.001817654 0.23652026 0.059452243 -0.064299434 -0.21235986 0.15453187 0.1917246 -0.09620117 0.0069159945 0.20099002 -0.042685226 0.011298569 -0.05033944 -0.011323737 0.022987707 -0.018018866 -0.07520466 -0.15073454 0.00017984911 0.11261012 0.05894163 0.26522028 -0.060176384 0.060626533 0.1226129 -0.008044025 -0.00570732 0.12327806 -0.09613896 -0.24469735 0.108056 -0.2332052 -0.25173154 -0.12092881 -0.042494588 0.15619847 0.16140653 0.26566514 -0.0061356565 0.059792455 0.031440903 -0.027926363 -0.13851042 0.14726682 0.13230143 -0.1982702 -0.07878445 0.10090683 0.12652424 -0.12683064 0.054367486 0.069504544 0.23375909 0.27794144 0.11466973 0.10791433 -0.12019064 -0.055146802 0.025917847 0.15500468 -0.15206783 -0.043549895 0.0894448
14 0.14352582 -0.09763637 0.18411157 -0.06902596 0.010277419 -0.13465278 -0.010313621 0.10598961 -0.15771936 -0.054504395 0.15945809 -0.021209294 -0.03741249 -0.050840523 -0.07512429 0.024237579 -0.048712026 -0.032370012 -0.09777881 -0.03440456 0.14765611 -0.016783701 0.38884097 0.033525962 -0.02754787 0.21961541 -0.19081068 -0.06602164 -0.038215768 -0.13353312 -0.29368463 0.10149064 -0.23496826 -0.25151798 -0.011737807 0.036858004 0.020820843 0.2316494 0.38017738 0.015897935 0.0113925515 0.1309439 -0.043208957 -0.15741464 0.15142605 0.11000492 0.041126184 -0.10575646 0.020482307 0.14288141 -0.012491802 0.04920166 0.1485639 0.23736948 0.2572074 0.11857171 0.07173971 0.018862806 -0.016010586 0.028658431 0.111191176 -0.21197328 0.089790925 0.05439679
44 0.099774376 -0.08839144 0.17298655 -0.046234883 0.060323484 -0.27230355 0.079881996 0.1632622 -0.030524611 -0.01417714 0.2295909 0.0021874818 0.07854649 0.029986832 0.029324032 0.06707999 0.06724473 0.009984278 -0.064399526 -0.07674736 0.13378161 0.06202532 0.23675874 0.01798583 -0.0037577422 0.11252268 0.0029379735 -0.03341214 0.094602406 -0.12129649 -0.31778154 -0.053541426 -0.105138816 -0.18279603 -0.22267488 -0.014786074 0.17277008 0.11973878 0.37495345 -0.0374982 0.045628086 0.03740252 -0.04008815 -0.16260026 0.13240957 0.15756544 -0.115447015 -0.14848632 0.13039647 0.07653934 -0.14098474 0.06778425 0.093140535 0.2349047 0.3571027 0.14868404 0.15357068 -0.09049605 -0.0853197 0.08401822 0.17293443 -0.15928458 -0.11355218 -0.011815742
19 0.21436405 0.0011736727 0.24056098 0.02538112 0.03160854 -0.24730988 0.17841965 0.13921328 -0.027910484 -0.0260338 0.18805726 -0.11542061 0.09319222 0.0025464068 0.06023771 0.13725653 -0.020106418 -0.072937384 -0.12311797 0.07459118 0.13520536 0.1323558 0.23912807 -0.16513216 0.0017830031 0.071043506 -0.018792689 0.0036148308 0.20985784 -0.033879537 -0.27146477 0.11349861 -0.27195504 -0.21972908 -0.12448622 0.022909814 -0.01072715 0.16469893 0.23305161 0.033269037 0.08778039 0.0038294264 -0.03969117 -0.17641366 0.09077879 0.062702924 -0.20091906 -0.15137604 0.06717506 0.1075809 -0.15404232 -0.06718092 0.003950824 0.22497047 0.27961746 0.083224066 0.06870637 -0.19471872 -0.1289275 -0.084856026 0.12512693 -0.15067288 -0.054695625 -0.00945817
7 0.19453955 0.08070387 0.21784689 0.014816167 -0.08684096 -0.2289042 0.24199985 0.18824296 -0.1529317 -0.040873036 0.2673182 -0.08000948 0.05557364 -0.026713617 0.013648006 -0.00544093 0.08319549 -0.16433342 -0.07309041 -0.0675095 0.07787584 0.05208392 0.32042846 -0.07222921 0.13981788 0.23246463 0.039610635 -0.026627555 0.15443726 -0.0921043 -0.29372787 0.15360911 -0.23813987 -0.18548515 -0.22118023 -0.14089735 0.17394394 0.17046407 0.08968778 -0.1384734 0.12888244 0.0071923807 -0.08981131 -0.072876245 0.16276254 0.14052643 -0.26046762 -0.075887464 0.11392513 0.14967585 -0.14380962 0.096980356 0.0432504 0.22386135 0.22043023 -0.019272406 0.24235477 -0.07908507 -0.083911456 0.01773642 0.1347469 -0.2125459 0.03278503 -0.03626232
43 0.24478671 -0.09246593 0.21776949 0.053216763 0.13341771 -0.13353051 0.11679135 0.12841521 -0.12641054 0.019270668 0.18472578 -0.17644915 0.123376764 -0.05946333 0.019150782 0.098825164 -0.059525702 -0.068311356 -0.23324104 0.015109244 0.18861191 0.13723803 0.24128214 -0.07094881 -0.011930301 0.18316051 0.03510601 -0.04714818 0.14238696 -0.04558188 -0.38821927 0.05373995 -0.2510366 -0.18172081 -0.12224397 0.020028424 0.03886906 0.21440138 0.26144537 0.061992586 0.089423075 -0.008797825 -0.03126588 -0.14368968 0.12620455 0.025717463 -0.11327156 -0.15122657 0.049940906 0.035561837 -0.053441193 -0.09574838 0.09217962 0.2629968 0.25181976 -0.039974485 0.12625562 -0.1809098 -0.15201244 -0.054746367 0.142259 -0.20298487 0.009034222 -0.09399649
50 0.21556425 -0.039118506 0.23633991 0.04111261 0.1099046 -0.15925491 0.14939576 0.08007489 -0.101022266 -0.037526198 0.1980044 -0.16371003 0.11492667 -0.026910003 0.018231714 0.11591424 -0.06299391 -0.04910105 -0.1390859 0.067422934 0.17686906 0.119500145 0.29539922 -0.036731277 -0.010620351 0.20391174 0.0402633 -0.03321724 0.13235755 -0.06918668 -0.37944275 0.019493219 -0.19570594 -0.23691896 -0.15145826 -0.053567298 0.033863205 0.19476743 0.21862021 -0.0064019673 0.087009914 0.0058124997 -0.0682105 -0.11227929 0.16333506 0.12407661 -0.1132272 -0.16266643 0.03805253 0.08684182 -0.09732231 -0.009956255 0.07566121 0.23139346 0.21598095 0.01928165 0.17286135 -0.15454994 -0.095247515 -0.1053048 0.15642197 -0.1837624 0.001800822 -0.09594128
47 0.069631666 -0.04700325 0.24326673 0.05059959 0.058809984 -0.18037511 0.13049798 0.18602788 -0.026546722 -0.045362875 0.08146577 0.032380912 0.01856895 0.023857947 0.025592346 0.16282696 0.01659081 -0.06656404 0.028550798 0.18125479 0.19279626 -0.048692998 0.30342516 -0.20188606 0.011265802 0.081108056 -0.11174027 0.024763066 -0.016832862 -0.10735997 -0.07978175 0.0053484687 -0.29117334 -0.2847407 -0.09412394 0.020300066 0.015385892 0.15361024 0.2702471 -0.0603446 -0.0058237026 0.20631751 -0.002436978 -0.28551582 0.09711338 0.17297255 0.041794863 -0.06900273 0.018853277 0.096593805 -0.115023896 0.07520685 0.09740545 0.22328067 0.35712573 0.21599375 0.052078243 0.12159796 -0.07443266 0.045653455 0.021684341 -0.22173339 -0.12524614 0.096165076
4 0.17632703 0.00011958802 0.2816047 -0.07478602 -0.08188206 -0.27534539 0.14492348 0.14615709 -0.090637974 -0.039813973 0.24308096 -0.06408974 0.043328457 0.03740583 -0.018462617 0.03513307 0.021227973 -0.1008984 -0.015887134 -0.033939477 0.13545033 0.04854268 0.31878555 -0.12384045 0.051408496 0.21408217 -0.04704041 -0.039143186 0.17340578 -0.10688929 -0.28976914 0.14737858 -0.26346377 -0.19598497 -0.15668783 -0.034445044 0.06558477 0.14110865 0.086988695 -0.07796435 0.12541519 0.026822641 -0.10160293 -0.12235846 0.17686589 0.14553288 -0.21951835 -0.16887823 0.09555781 0.16017921 -0.114835985 0.05863654 -0.041613873 0.21112639 0.21712635 0.056514632 0.12522703 -0.102057815 -0.07224285 -0.008486278 0.16818777 -0.11092015 -0.016505407 0.04724647
33 0.12370353 -0.08019181 0.2501078 0.03991939 0.06307564 -0.201114 0.08937682 0.18795942 -0.06659492 -0.030813513 0.14945091 -0.03566131 0.041885998 -0.020719497 0.024751956 0.09737021 -0.028113695 -0.03846092 -0.05987028 0.11681008 0.16441065 0.008465856 0.2240994 -0.092221774 -0.040652845 0.08093644 -0.04916517 -0.006207467 0.05231386 -0.08667486 -0.19377154 0.00580808 -0.2220962 -0.26908007 -0.10947176 0.02071826 0.07078953 0.16179848 0.28765428 0.03421868 0.04291118 0.087674685 -0.016799612 -0.2076467 0.13977121 0.12975182 -0.06683915 -0.116809085 0.10062122 0.08873637 -0.1093501 0.03275259 0.054727696 0.25549215 0.34711128 0.1748215 0.065396346 -0.017043574 -0.08202702 0.05001059 0.1090474 -0.114438966 -0.09994693 0.088862285
22 0.20044114 -0.051678143 0.22619508 -0.089120366 0.019922394 -0.15232483 0.067351796 0.15747091 -0.09416483 -0.05648216 0.14793235 0.017715203 -0.051923588 -0.025381718 -0.068998806 0.057326853 0.03834284 -0.08832516 -0.05561479 -0.031033276 0.20704523 -0.06116832 0.34663042 -0.06777952 -0.026272988 0.18316042 -0.14263807 -0.12233236 0.022033066 -0.09185138 -0.24607718 0.09210581 -0.22688638 -0.1546442 -0.101486586 -0.0410171 0.059161525 0.17899427 0.30782261 -0.057305697 0.049953725 0.12522276 -0.11034437 -0.16070771 0.10631883 0.07484529 -0.06975388 -0.107467115 -0.052034076 0.05660525 -0.08667062 0.006113889 0.14121252 0.24952437 0.32336563 0.113306515 0.1578242 0.0006262626 -0.081092395 -0.0061969687 0.12857445 -0.19718072 0.022750843 0.10028176
42 0.19677836 0.048147388 0.24807759 0.022207333 -0.16783816 -0.2419563 0.21908893 0.19347657 -0.12211598 -0.030422367 0.18982382 -0.020078467 -0.030369377 -0.014537783 -0.044223893 0.032636628 0.0032577938 -0.18695913 -0.012438742 0.031494495 0.13152146 -0.033592615 0.3521711 -0.19771987 0.14235766 0.19362582 -0.0881892 -0.054490544 0.099710196 -0.113775946 -0.19405599 0.17650527 -0.2941007 -0.19919729 -0.11831438 -0.078762315 0.11910683 0.13106185 0.0323346 -0.12664819 0.10586561 0.084615916 -0.1314763 -0.14122479 0.14052582 0.1529724 -0.22956029 -0.051697444 0.03790098 0.15525088 -0.12985173 0.08892639 -0.025296422 0.21536301 0.25243866 0.07425773 0.15454015 -0.07468452 -0.09375574 0.050281763 0.09307085 -0.16911209 0.034504574 0.11379384
45 0.109826565 -0.11358201 0.24813108 -0.049510334 0.070754506 -0.24390757 0.053836506 0.15589026 -0.05382901 -0.09575568 0.111587465 -0.012027557 0.060087018 0.096259765 0.07445324 0.1479602 -0.024756039 -0.0722769 0.08764941 0.1807103 0.18718183 -0.039012443 0.29367256 -0.12683639 -0.07638343 0.17866917 -0.1537354 0.024347981 -0.01801925 -0.14860183 -0.16116072 -0.050647058 -0.24634421 -0.26198682 -0.08556981 0.07745801 -0.05411053 0.16785851 0.25128683 -0.05101333 0.068124354 0.2154045 -0.07067301 -0.25767905 0.1782456 0.16245578 0.09658413 -0.09266788 0.07205647 0.13217115 -0.10443876 0.07084096 0.039843973 0.21363744 0.31887987 0.24200943 0.010539652 0.05967054 -0.025994692 0.04343863 0.043984495 -0.14809826 -0.11758374 0.11021258
15 0.13234302 -0.038508397 0.10222596 0.07558594 0.1600779 -0.14809623 0.13798477 0.13759755 -0.08032574 0.020935036 0.17455088 -0.11239587 0.14582495 -0.019424949 -0.01237415 0.15602256 0.020462861 -0.045595612 -0.13519567 0.015111637 0.15007018 0.047998935 0.31626102 -0.072667435 0.036670562 0.14505515 0.08137292 -0.055766903 0.104985066 -0.08741169 -0.3170826 0.021403423 -0.2245183 -0.24382952 -0.1928069 0.032288752 0.10312636 0.123339 0.3151955 -0.048965845 0.033069357 0.036355395 -0.019957408 -0.16192901 0.11330639 0.15405798 -0.11451765 -0.10961603 0.06702928 0.067746125 -0.124240495 0.027464723 0.1677309 0.21156159 0.27084824 0.020145299 0.18077716 -0.058491606 -0.14122312 0.0014669698 0.12152974 -0.23315403 -0.04971311 -0.06941592
6 0.15311143 0.021542152 0.27446106 -0.030371556 -0.07444837 -0.14551365 0.10674076 0.14857534 -0.1304119 -0.06748111 0.12771374 0.017123964 -0.059837554 -0.019947907 -0.03238726 0.056827903 0.023820447 -0.11039835 -0.01298666 0.04191203 0.16357175 -0.030384095 0.40467632 -0.087881565 0.024998577 0.17885442 -0.18412186 -0.051051468 -0.00960548 -0.15682743 -0.13096154 0.13024676 -0.29064685 -0.2671286 -0.058894016 -0.0746502 0.06557813 0.1903982 0.1998884 -0.09147621 0.08330348 0.15074758 -0.05646717 -0.19652617 0.12895034 0.12672417 -0.012399638 -0.03846544 0.021333253 0.18064834 -0.06166267 0.06791874 0.10019274 0.21087448 0.23907845 0.17492244 0.095478445 0.07946894 -0.02700899 0.03505837 0.069992006 -0.23004965 0.018417818 0.07489938
37 0.14186744 -0.07482657 0.26585558 -0.0092806 0.0053566485 -0.275926 0.1316923 0.1987755 -0.023784319 0.013682584 0.17123316 -0.02240439 0.02951847 0.021063503 0.031108048 0.111919545 -0.009338573 -0.015056211 -0.094244435 0.04943204 0.13792922 0.07448664 0.20704752 -0.09114291 -0.0025368896 0.06415133 -0.05106737 -0.010283778 0.15603663 -0.08445841 -0.22813134 0.03760243 -0.19380608 -0.21971412 -0.09391829 0.018555775 0.057184853 0.15184517 0.26244855 0.06748594 0.04071824 0.03908185 -0.013784971 -0.14812861 0.1393111 0.099506065 -0.18694276 -0.1839047 0.090087935 0.11427389 -0.1295063 -0.00865963 0.021672416 0.2498658 0.37416688 0.1819198 0.050315544 -0.15751114 -0.07254259 -0.0135652805 0.14728743 -0.110418774 -0.116331756 0.043604214
