5 64
1 -0.030130953 -0.026507424 0.0911954 0.20692465 -0.11018948 -0.19498801 0.15462078 0.3683712 -0.08755507 -0.04562744 0.2366735 0.08262955 0.15911941 0.16702221 -0.22812667 -0.096121505 -0.072184056 0.22190212 -0.08848823 -0.0632198 0.23493685 0.16495422 0.35497668 -0.2215965 0.13577043 0.14784786 -0.16017234 0.11094646 -0.079582386 -0.10245126 -0.07301243 -0.02663881 0.1093839 -0.26045695 0.011331341 0.11589013 0.018094344 0.026272507 0.266371 -0.113227196 -0.04755099 0.02803765 -0.22877327 -0.130585 -0.04799446 0.063866965 -0.12743163 -0.041327804 -0.10433403 0.23636286 -0.039086796 0.2787873 0.030624716 0.17092344 0.21133237 -0.14958867 0.09098854 -0.25282425 0.13169815 -0.119496584 0.059110317 -0.1285981 -0.30005282 -0.1167924
3 -0.029074397 -0.020866485 0.07350889 0.18082017 -0.088897824 -0.16357043 0.13953471 0.33276188 -0.07408631 -0.04701684 0.21138828 0.07973696 0.16199143 0.14034088 -0.20349862 -0.09634937 -0.07094319 0.20484726 -0.059489563 -0.03147354 0.19498262 0.14511679 0.32066843 -0.21003261 0.10896251 0.14847194 -0.14270903 0.09263771 -0.054528978 -0.086716294 -0.04135552 -0.01574572 0.07189233 -0.23479453 0.014233712 0.1177342 -0.00709338 0.03831137 0.2508779 -0.08684211 -0.015971938 0.009372296 -0.19157238 -0.104621194 -0.048220865 0.051325995 -0.104363106 -0.06542731 -0.11054098 0.20955996 -0.017088797 0.25700536 0.04405572 0.16401556 0.17472091 -0.12952898 0.079530165 -0.22636253 0.13827904 -0.13847457 0.067258336 -0.11413438 -0.27393717 -0.0868838
5 -0.032861497 -0.015833708 0.10064466 0.1869229 -0.09824115 -0.19620614 0.1545798 0.3620278 -0.07030025 -0.028529605 0.24520259 0.10193014 0.17793278 0.14724949 -0.2370974 -0.093676865 -0.08066589 0.23490418 -0.067595035 -0.051652327 0.22958754 0.1621881 0.35946557 -0.2394429 0.12717757 0.15710245 -0.16209541 0.117950924 -0.053568717 -0.08691846 -0.06491457 -0.0131579 0.08315594 -0.24544722 0.0055102417 0.11086674 0.015118375 0.04286641 0.28162035 -0.115862966 -0.020535614 0.032894485 -0.22216637 -0.14121163 -0.040090237 0.07719395 -0.11875525 -0.066422604 -0.12266122 0.21931165 -0.018696634 0.26804355 0.021086644 0.17540868 0.210314 -0.15410753 0.0879614 -0.24885155 0.13832234 -0.14995617 0.06777837 -0.13827357 -0.2944403 -0.10800268
4 -0.021828253 -0.034201656 0.065879926 0.16385207 -0.07082224 -0.15907992 0.108521596 0.30433965 -0.06653744 -0.025681512 0.18103999 0.07192119 0.1515642 0.14215107 -0.19114813 -0.07326057 -0.07696109 0.19597061 -0.069440395 -0.043589823 0.20320943 0.13373764 0.30076793 -0.19785973 0.113204606 0.14293493 -0.14760849 0.078705326 -0.065401986 -0.08786188 -0.057622816 -0.034071796 0.0907818 -0.21526629 0.02395111 0.108090706 -0.003671864 0.036428586 0.23453425 -0.099769525 -0.035603356 0.014068154 -0.19216768 -0.10867112 -0.041396964 0.06179902 -0.09433643 -0.050780248 -0.10331455 0.18707485 -0.02154263 0.2387011 0.036952842 0.14848468 0.17030776 -0.1237298 0.06439057 -0.20583394 0.11911995 -0.11933344 0.043055333 -0.12200315 -0.2612305 -0.095478535
2 -0.030505767 -0.03007463 0.068409726 0.1700233 -0.08154508 -0.17695616 0.14844257 0.3286336 -0.084077075 -0.019157348 0.2225181 0.08945893 0.14187664 0.15224627 -0.19792704 -0.07686335 -0.06329131 0.20708402 -0.07389562 -0.031589895 0.22208641 0.15123321 0.31312078 -0.20621333 0.11788085 0.12613785 -0.15950644 0.095845364 -0.05839111 -0.096603 -0.0651666 -0.033547405 0.0994465 -0.22763903 0.0044152006 0.116909035 0.02264724 0.026199132 0.25926876 -0.08965146 -0.018846443 0.02174568 -0.18474025 -0.1280018 -0.056488793 0.07637194 -0.107130766 -0.055542476 -0.09596459 0.19652785 -0.019025581 0.26001182 0.041270226 0.1434821 0.19952178 -0.12473901 0.084475264 -0.23364526 0.13958651 -0.12792127 0.072004445 -0.12840879 -0.28262028 -0.08551338
