500 64
1 0.09247449 -0.018386815 0.06404752 0.09085116 -0.07916192 -0.078243494 0.1709346 -0.15799253 -0.099376366 0.2170351 -0.039161522 -0.029543256 -0.12640621 -0.05379994 0.026449947 0.03976672 -0.11252591 0.025707081 -0.16186479 0.1919002 -0.00083863846 0.08649253 0.107024506 -0.25571924 0.004472838 0.018331775 -0.17375381 0.010622942 0.18894729 -0.041903887 0.079095066 0.17077167 -0.09721884 -0.02091295 -0.14352317 0.048931666 -0.16680792 0.063955255 -0.03204576 0.09451228 -0.10073546 0.08971893 -0.06549495 -0.014410372 0.026757646 -0.004976972 -0.001423096 -0.10035461 -0.04257477 0.049342863 -0.079767644 0.09282014 -0.14388987 -0.040722355 -0.11661635 -0.036421336 0.094440974 0.044961084 -0.061912127 0.060303178 -0.25225914 0.033456672 0.0960968 -0.06097341
204 0.014126844 -0.20417345 0.40553036 0.093898654 0.0898478 0.25051296 -0.09451255 -0.21688251 -0.25056174 0.23665754 -0.13723363 -0.13711801 -0.31819218 -0.07089093 0.49509686 -0.42010015 0.15974016 0.1112761 -0.05594457 0.4664579 0.23852925 0.14374931 0.27829847 -0.36761343 0.44892067 0.51857626 0.095055945 -0.1362954 -0.021573285 0.06795509 0.10188734 0.71584207 -0.31590083 0.13435799 0.13892457 0.16265894 -0.23873918 0.10980541 0.16905491 -0.1953562 0.308855 -0.19113943 -0.4415331 0.3843475 0.28094333 -0.31786677 0.19239293 -0.22546636 0.05918107 -0.11266739 0.04119823 0.81643647 0.3210413 0.1806614 0.0126968445 0.15598324 -0.024774015 0.35374612 0.2876108 -0.0060175196 -0.19140242 0.25438073 -0.039071377 0.0041635875
4 0.28286916 -0.038951904 0.3432063 0.07311315 0.014960188 -0.029549783 0.088597886 -0.109466374 -0.46729952 -0.14675502 0.0586598 -0.06438357 0.1929546 -0.20522496 0.24845867 -0.40906852 -0.39736593 -0.4008133 -0.06914392 -0.2508091 -0.13785781 -0.05494686 -0.00873853 -0.52268755 0.123170614 0.4090978 0.24695772 0.30147335 0.2981032 0.27020317 -0.042885393 0.03233158 -0.14912958 -0.001272574 -0.1401089 0.14485216 0.008177572 -0.35746548 -0.25671607 0.13979194 -0.121831454 0.12648973 0.0019278612 0.13223606 -0.0764547 0.08215781 -0.37961844 -0.2643015 0.16478369 -0.05824559 0.14240894 0.04171493 0.04529645 0.17998175 -0.4551403 0.1400534 0.23522285 -0.10165636 0.22859778 0.07927506 -0.29691997 -0.018154407 0.10735198 -0.04430864
233 0.3975072 0.186979 0.05051902 -0.38091868 -0.21991822 -0.1810547 0.24316186 0.013639778 -0.21912599 0.06358622 -0.1301226 0.19634122 -0.034150586 -0.4721142 0.2401712 -0.2275813 0.06974366 -0.25983968 -0.29220194 -0.058689684 0.099013336 0.023329005 0.29324242 -0.48733538 0.25036588 0.15407363 -0.06264462 -0.3823457 0.2850346 -0.3185403 0.31667453 -0.12936047 -0.3653945 0.20259571 -0.2391031 0.0011890183 -0.135083 0.1812037 -0.06430583 -0.12683144 -0.050251167 0.043395836 -0.2513118 -0.13331042 0.24866804 0.064984865 -0.0995419 0.12195236 -0.054698452 0.028727766 -0.07618469 0.20641203 -0.04501024 -0.014265426 0.42418396 -0.06355646 -0.29091513 -0.21724316 0.31449738 -0.624081 0.06273404 -0.006226681 -0.14088193 0.02948045
67 0.15068577 0.14382654 0.15337107 0.2613524 -0.37476575 0.14124541 0.42918754 -0.09053373 -0.24986537 -0.07252526 0.3311536 0.2640837 -0.46626735 0.050257012 0.37080896 -0.028191345 -0.104432166 0.04510079 -0.14289021 0.7572845 -0.042103138 -0.11351442 -0.29552847 -0.5222798 -0.15322535 -0.09173171 -0.25251895 -0.13657664 0.2980605 -0.025462702 -0.24297473 -0.34547776 -0.19778182 0.079467826 -0.4617709 0.15651047 0.25353673 0.048968237 0.24908088 0.19310416 0.5042037 -0.044042952 0.06345749 0.3066701 0.14058177 0.12773392 -0.15596253 0.18169358 -0.20005539 0.087468624 -0.064197876 -0.2920903 0.30139244 0.039567035 0.08950726 0.0014627924 0.10218764 0.28463945 -0.13729888 -0.031022998 0.12757379 -0.15486644 0.30527613 -0.0057817646
405 0.38087067 0.029313501 0.20751092 -0.08613559 -0.44563165 0.044512145 0.19502723 -0.108091585 -0.104334116 0.24271514 0.064162575 -0.04782142 0.22750638 -0.36101943 0.42220432 0.2154657 0.32513997 -0.09707108 -0.30850348 0.26703364 -0.10175427 0.09072947 0.11228223 -0.10571953 0.07585544 -0.043035783 -0.034410994 0.09738626 0.3847977 0.37574404 -0.10451345 0.07299582 -0.7325761 0.042615093 -0.04559518 0.2914141 0.08262409 -0.014333569 -0.13496378 0.0003386889 -0.11828986 0.16355643 0.12149384 0.21603982 -0.03815073 -0.21139242 -0.058650028 -0.11903833 0.118302226 0.09901444 -0.1922255 0.1991738 -0.10149715 0.17497326 -0.22246222 -0.46918958 0.16526802 -0.15704107 -0.43434826 0.2696225 -0.095269956 0.0064518102 0.22587946 0.15956539
436 0.07271662 0.13035685 0.071098015 0.41831902 0.0045731384 -0.12850398 0.15037465 0.29074734 0.028736958 0.074860595 0.018210331 0.3860243 0.11263154 -0.4427588 0.18141517 0.36950862 0.11368083 -0.13376817 -0.16915962 -0.21425638 0.39421833 -0.07104984 -0.0033534386 -0.2517031 -0.067005575 -0.30417052 0.10224754 0.24326868 0.18874706 0.0018977236 -0.066154405 0.18746115 -0.19538824 0.19226207 -0.11177636 0.066706665 -0.27775356 -0.24616274 -0.027411921 0.21432576 -0.18025488 0.07895656 -0.32058138 0.40883833 -0.06710417 -0.2480046 0.16473195 -0.19264013 -0.057297923 0.0046504294 -0.12558995 -0.016793396 0.044687532 -0.26478928 -0.042000245 0.16411592 0.044623777 0.25580928 -0.012763018 0.0005960707 -0.469686 -0.6097191 -0.08164961 -0.09421253
433 0.4129649 -0.49826887 0.048222132 0.1500932 0.07156939 -0.14864731 0.26129493 -0.14373788 -0.22294737 -0.11117849 -0.08852217 0.09216166 -0.14439523 -0.36400166 -0.3015007 0.1321861 -0.15152866 0.24373552 0.115980744 0.33532515 -0.03233531 -0.13205062 0.36743507 -0.27274296 -0.04393472 0.16353017 0.035099678 -0.11558958 0.020719055 0.3458198 0.2216021 -0.3178893 0.211433 -0.07364336 -0.053791963 0.008085541 -0.044162545 -0.11809243 0.3127957 0.07561888 -0.062830165 0.033507396 0.4038328 0.24499752 0.08001997 0.18612763 -0.100046605 -0.3671856 -0.076331966 0.08132051 0.28153524 0.46061733 -0.38662636 0.052719723 0.105454266 0.3481648 0.14135824 0.03527782 -0.19829506 -0.3215126 -0.12663724 -0.2793095 0.07549271 -0.13406606
231 -0.0141789345 -0.014010959 0.17829628 0.02369658 -0.057543125 0.13279486 0.33132952 -0.21662104 -0.5592621 0.014704248 -0.13185218 0.37331155 -0.02142909 -0.04023383 0.11663312 0.21244025 -0.087782 0.30843815 0.007288094 0.34315884 -0.0015064345 -0.045493815 -0.10279531 -0.43438575 -0.20326224 0.06231965 0.11722668 0.1923689 0.4196421 -0.085928306 -0.03061974 0.4562249 -0.21691132 0.012863285 0.03424685 0.101047605 0.13066141 -0.25447685 0.20279256 0.3477998 0.36861795 0.32708812 -0.2571648 -0.21551916 0.34376502 -0.033702925 0.1734341 -0.14774972 0.088040225 -0.06126849 -0.02919594 -0.11883103 -0.24346648 -0.1436872 -0.23503524 -0.029530374 -0.2681233 0.115566276 0.0009539903 -0.07024083 -0.2031826 -0.03465223 -0.4244865 0.24781105
477 0.10447909 -0.27978355 0.24605227 0.20093738 0.437775 0.18364374 0.14849901 -0.30455247 -0.41483268 0.054500848 0.064859636 -0.39133945 -0.06669328 0.24120417 0.1797944 0.09983438 0.11674891 0.192881 -0.062180705 0.12676212 0.08596923 -0.04566604 0.1578896 -0.25114205 0.19843173 0.114639655 -0.12485324 0.27054542 0.38998866 0.5729605 0.13749886 0.18779022 -0.065150075 0.16645326 -0.12342167 0.013241261 -0.05014933 0.4489243 0.015426282 0.27035752 0.024527999 0.024672737 -0.4106567 -0.029731527 0.36410728 -0.24848014 -0.014666622 0.17043039 -0.14397693 -0.08352282 -0.3109855 0.015403283 -0.124907985 -0.072689384 0.08385292 0.23124109 -0.025522595 -0.2455094 -0.3434525 -0.120115325 -0.17834878 -0.5581829 0.24700773 -0.28848073
294 0.18787047 0.20250626 -0.08826173 -0.215541 0.25348666 -0.19103265 -0.08627139 -0.380594 -0.27696085 0.19515193 -0.28954688 0.5456322 -0.03781153 -0.04644401 -0.19156285 -0.021188233 -0.011607888 0.12169412 -0.22817492 0.22789127 0.15540856 0.021597765 -0.05055881 -0.12025745 0.17724863 0.12639861 0.122759014 -0.25251025 0.08472874 -0.14675115 0.12422655 0.06999363 0.06938884 0.43122035 0.35065407 -0.043987546 -0.038567495 -0.34481087 -0.058732867 0.11593302 0.0505161 -0.066122696 -0.18872817 -0.074977875 0.16451253 -0.0742709 0.04930039 -0.32566062 -0.06715933 0.20421182 0.059626218 0.55856305 -0.047299452 -0.1919769 -0.16785179 -0.30826202 0.171283 0.03082876 -0.20716602 -0.42782748 -0.40375268 -0.05544523 -0.025358675 -0.23498881
473 -0.123937204 -0.16754761 0.1602809 0.15939407 -0.19351184 0.10691674 0.3807592 -0.24858953 -0.14034674 -0.048626654 -0.10737812 -0.25899443 -0.16795148 -0.15701585 -0.05145666 0.04090426 -0.39413634 0.029877746 -0.37451208 0.31919757 0.203131 0.29626134 -0.36677983 0.05760702 -0.44894066 -0.101538055 -0.32378674 0.35743064 -0.09718168 -0.06315794 0.41994637 -0.049621947 -0.16074044 0.1684193 -0.13653167 -0.10420104 0.04648552 0.15922245 -0.35157728 0.59572995 -0.09321391 0.0125208525 -0.22071458 -0.038254574 -0.113459386 -0.013891501 -0.078846045 -0.30402276 0.50095695 0.26157868 -0.2205823 0.3707925 -0.0031878063 -0.055204608 -0.2830123 -0.0018467917 0.27587682 -0.2410845 0.16107292 -0.29309833 0.031905405 0.17817938 -0.35302424 -0.02759042
172 -0.023112163 -0.28012335 0.25867048 0.027316235 -0.33305922 -0.04788472 -0.037187167 -0.18949099 -0.3868813 -0.06394564 0.22637695 -0.05678843 0.39397737 -0.025712857 0.012976814 0.46354246 -0.086706325 -0.026910871 -0.27210444 0.076533526 0.030169712 0.599765 -0.08711125 -0.40742657 0.04210442 0.039350078 0.04960259 0.49233323 0.29202795 -0.18475878 -0.020616736 -0.31543404 -0.25920397 -0.21600145 0.11355467 0.20840843 0.018880615 0.03450928 0.044229705 -0.09318614 -0.3354502 -0.012190749 0.11762102 0.1797051 0.046797823 0.3706696 0.17015183 -0.26907584 -0.12726416 0.440863 -0.20106125 -0.0035457995 0.14048295 0.18979858 0.30654946 -0.30496877 -0.013235563 -0.21975642 0.43083435 -0.6432272 -0.10658917 -0.036988117 0.08962318 -0.18636127
77 0.119139366 0.05074584 0.25878513 0.11176063 -0.28040043 0.022251323 0.035330776 0.16686237 -0.43049532 0.273957 -0.09693396 0.21564767 -0.09671695 -0.16742851 -0.29214722 0.29865897 0.032060005 -0.23468997 -0.18226941 0.58415264 -0.016156008 0.044171628 0.012472436 0.18413068 -0.03775972 0.027832212 0.13235505 -0.03908325 0.45665175 0.00975735 0.12781754 -0.26237258 -0.046434913 0.11065912 0.015566086 -0.057193477 -0.051226966 0.4428956 -0.13748197 -0.11259714 0.23683324 0.04326856 -0.23311119 -0.28682333 0.0071166763 0.091386266 -0.056875184 -0.26249957 -0.19288175 -0.5236969 0.3480784 0.15579571 0.108594656 -0.1761841 0.022067582 0.06536477 0.18899973 0.06860725 0.763843 -0.31797034 -0.5392864 -0.071827486 0.11126907 0.018856857
315 0.23298214 -0.020773275 0.27070755 -0.040299095 0.18956304 0.085097276 -0.120662436 0.059023127 0.06894233 -0.28237584 -0.18701817 0.4059347 -0.19174229 -0.26237977 0.1485744 0.3241638 -0.29281715 -0.14836144 -0.32710323 0.3416464 0.20591184 0.1588522 -0.0017083319 0.093988314 -0.025816621 0.21270713 -0.27530497 -0.0014980995 0.16233931 -0.20717873 0.11287169 0.017882183 -0.20983057 0.076229505 -0.22324812 0.27712402 -0.18697934 0.04340385 -0.18139924 -0.024790943 0.1307345 0.0662991 0.12530223 0.22258234 0.037239447 0.03222906 -0.4325713 -0.18316013 0.08096218 0.21337105 -0.23709424 0.25829327 -0.19522505 -0.001287707 0.07793765 0.06021863 0.38987175 0.20033082 -0.18154055 -0.33429983 0.13705641 0.058050014 0.07582847 0.036033556
23 0.2547457 0.18267421 0.29621398 -0.11899765 0.044553228 -0.29518098 0.43287167 -0.6162068 -0.5257594 0.3077447 0.03708195 0.31541613 -0.1642121 0.07317199 0.028701594 -0.249007 0.1389195 -0.21757671 -0.24427095 0.22186594 -0.05608889 0.19840048 -0.2542388 0.2418209 -0.06108884 -0.2760146 -0.11249276 0.08869103 0.14113238 -0.020725299 0.06899993 0.52871084 -0.12838055 0.2538131 -0.16891807 0.13346528 0.17205319 0.15126054 -0.17589268 0.23316345 -0.16184202 -0.0438779 -0.031935126 -0.08183986 -0.12385931 -0.12815048 0.15363966 -0.46094337 -0.17925434 -0.19218111 -0.14505656 -0.2189354 0.18220463 -0.16257244 -0.49013573 0.25135776 0.0265554 -0.42317516 0.41514155 0.23407766 -0.021786338 -0.2647752 0.18880165 -0.29391143
339 0.025737632 0.29506245 0.43778723 0.114261284 -0.17224813 0.3040816 0.06191699 -0.15360275 -0.20905119 -0.17971796 -0.2514222 0.26199976 -0.11301572 0.0834166 0.21310717 0.21380116 -0.6018154 -0.032448314 -0.17970955 0.32620904 -0.1792412 -0.10466286 -0.13036034 -0.2996142 -0.28538722 -0.04849379 -0.4501245 -0.040162105 0.5180075 0.2937355 -0.04526542 -0.07964806 0.03550379 -0.37967336 -0.063800246 0.15091386 -0.48090526 -0.012011512 -0.007495084 0.077263676 -0.09154199 0.1781233 0.36694008 0.2823667 -0.09814453 0.12134258 0.39250004 -0.07551413 0.050968792 0.07514992 -0.12669483 0.18209015 0.095786996 -0.17886432 -0.15786257 0.19528572 0.055028655 0.004198583 0.07567107 -0.19273993 -0.26880378 0.0650719 0.056738 -0.2573689
224 0.4501756 0.091732174 0.2600019 -0.046494734 0.10259465 -0.13524698 0.2949637 -0.22162294 -0.17288804 -0.28563672 0.22828738 0.23053773 -0.0532574 -0.3467429 0.34170428 0.21333379 0.14911999 -0.16764906 -0.24575828 0.15456368 -0.1791422 -0.03442241 -0.22333406 -0.14161637 -0.02321645 -0.13650413 -0.12221186 -0.03735075 0.08438224 0.0059212004 0.13716115 -0.1010786 0.23085904 0.13854256 -0.20202114 0.06766879 -0.20283139 -0.099974774 -0.04692189 -0.14749974 -0.21154827 0.2227769 0.017748702 -0.0184237 0.25499558 0.18241698 -0.044255145 -0.28173292 -0.46733096 0.16704969 0.010415395 -0.30610317 0.002688618 -0.041510522 0.016193777 0.07107802 -0.06497807 0.17364137 0.007065384 -0.0849754 -0.10744983 -0.2719519 -0.007888331 -0.16164094
60 -0.2902606 0.068547525 0.04097371 0.06285566 -0.06047989 -0.032596406 0.030687464 -0.070775345 0.22708893 0.5265146 -0.045537516 0.15073392 -0.096312575 -0.3058161 0.22218604 -0.051982176 0.06320098 0.21018183 0.1062622 0.40665165 0.15129381 -0.12526534 -0.09315152 -0.25985086 -0.36626044 0.39552787 -0.29791757 -0.634037 0.123628564 -0.008144716 -0.10504432 0.6443977 -0.13243583 -0.048869506 -0.1840965 -0.06401816 -0.20507436 -0.22740741 -0.097857125 0.7141381 -0.115663156 0.48544014 0.15630497 -0.3306904 0.121083684 -0.39217064 -0.0111204395 -0.42419618 0.11140223 0.03299297 0.12261908 0.10371707 -0.29835448 0.19991028 0.20944262 0.017675871 -0.020128872 0.09086447 -0.056532003 -0.43573403 -0.3905494 0.17000572 -0.14151505 -0.21605635
349 -0.0277836 -0.13301101 0.1463579 0.34070483 -0.36680117 -0.14191547 -0.3263533 -0.4609014 -0.15205145 0.52998394 0.103356704 -0.09562188 -0.45826513 0.030388815 0.04345336 0.22133295 -0.39439568 -0.3440931 -0.24475393 0.16348024 -0.30795515 -0.062933356 0.29240453 0.16243237 0.030586706 0.18819466 0.14955518 -0.023668157 0.33413634 0.0030443973 0.38642263 -0.077363856 -0.1516576 0.5779442 -0.32393354 -0.14179453 0.09878085 -0.18396658 0.14512347 0.06867446 -0.07877857 0.16034056 0.07311987 -0.037795775 0.09715322 0.1012679 0.17616811 -0.20348224 -0.038897943 -0.07205297 0.11970489 -0.08661975 0.032850258 -0.07150575 0.09124274 0.13093948 -0.21940939 -0.19711863 -0.039523244 -0.041492745 -0.43712983 0.009592253 -0.27235028 -0.15295854
2 -0.072622634 -0.2618899 0.18300717 0.2879631 -0.3070841 -0.04347226 0.077484906 -0.32290494 -0.17969625 -0.19165699 0.35782456 0.019894443 -0.049322423 -0.10855927 0.16504349 0.022118948 0.02583947 0.15704054 -0.05546943 0.24217251 0.23242438 0.17607515 -0.22053154 -0.21590117 -0.112987995 -0.0013792265 -0.20372161 -0.08277924 0.40427235 0.07953604 0.30753717 0.32630402 0.10141799 0.1952722 0.45108578 0.19599964 -0.12697703 -0.27266043 -0.41077292 -0.12517615 0.26207903 -0.06359185 -0.034959443 0.22767308 0.12385944 0.1885519 -0.31902936 -0.08574181 -0.19901171 0.038445245 -0.08166493 0.4797596 0.08546147 0.09354244 -0.18345717 0.0017644125 -0.30281356 -0.0061933063 -0.4877361 -0.43122527 -0.06502871 0.007935397 -0.15266092 0.24302058
457 0.006564211 0.16417418 -0.09373984 0.06929414 0.41814926 0.059320256 -0.036476344 0.230107 -0.24022084 0.37253928 -0.22042553 0.3982445 -0.35703084 -0.2212067 0.071858615 0.14147857 0.15533659 0.07958694 -0.1959734 0.75958276 0.047818307 0.08833244 0.009184787 -0.43316677 -0.06689547 -0.32069448 -0.06902566 -0.12908609 -0.21831098 -0.31516647 0.18051742 0.24257019 0.10091949 0.27473107 -0.22714889 0.15062855 0.1709709 0.21332417 -0.32006818 -0.03470578 0.047847386 -0.16462031 0.18488495 0.17448127 0.22112888 0.23915137 0.60556424 -0.20790248 0.3540791 -0.24334246 -0.083744496 0.1915684 -0.15275335 0.0062352447 -0.095323905 -0.054992825 0.15958859 0.044345662 0.12228206 -0.15495871 -0.04047829 -0.37269166 0.5130388 0.1819333
362 0.36712447 -0.034042384 -0.120241836 -0.0061129313 -0.19731472 -0.35350412 -0.12756987 0.108658366 -0.3445393 -0.12156764 0.38631374 0.19025196 -0.10474844 0.112718575 -0.11952657 0.024177004 -0.27712372 0.025695344 -0.14439406 0.3344403 0.22973792 -0.08984869 -0.055526596 -0.27412537 0.04194738 -0.032943718 -0.24241899 -0.12857865 0.46924835 -0.043288134 0.2568502 0.09679082 0.058064207 0.15060027 0.082823895 0.23814148 0.017028816 -0.15959615 -0.23604101 -0.08933045 0.3255448 0.21263357 -0.3725634 -0.020790236 0.16467671 0.1888198 -0.14431494 -0.08667261 0.27477723 0.015781404 0.056031108 -0.322031 0.008232964 -0.55140126 -0.28103274 0.09990548 -0.26423842 -0.19460784 0.34850374 -0.41689408 -0.077674806 -0.031862706 0.1785062 -0.21599492
94 0.0005852505 0.041950565 0.12443238 -0.17754236 -0.54534334 -0.22956458 0.040325683 0.06620133 -0.19251181 0.24961895 0.11049974 -0.3530907 -0.26416007 -0.059776414 0.27384287 -0.042948384 -0.13822415 0.1861103 0.10901108 0.14227371 0.39311257 0.37292916 0.19114026 -0.4022879 0.16323166 0.2559261 0.18028441 0.100143634 -0.16558582 0.21422043 -0.11692835 0.10607837 0.071771175 -0.1673639 0.31943265 0.22740315 -0.1868013 0.09586287 -0.064631164 0.48001826 -0.33844027 -0.104972504 0.27461115 0.17712668 -0.08325775 -0.052523244 0.008460526 0.08942679 -0.27159858 0.37241378 -0.49273977 0.07557298 0.1023345 -0.044153653 -0.15953204 0.40850523 -0.37651944 -0.4035118 -0.39275077 -0.067231454 -0.7535078 -0.14168769 0.47556376 -0.09948368
122 0.38365927 0.042088304 -0.054271344 0.3924135 0.17136665 -0.25525862 0.37538612 0.16389358 -0.14952737 0.12365575 -0.15954143 -0.11118323 -0.047276545 -0.19046433 0.099184886 -0.2777512 0.38267773 -0.3004134 -0.30959237 0.037435763 0.2644071 0.019066058 0.2776131 -0.39402363 -0.053448 0.00932396 -0.120087 -0.15990387 0.2342966 -0.22536707 -0.34209228 -0.02241186 -0.13902688 0.1072489 -0.040236156 0.512718 -0.1809398 -0.18777932 -0.09457116 0.25747263 -0.029722525 0.19014035 -0.32193667 -0.09133973 0.1553288 -0.2937702 0.3202342 0.3506012 -0.19155864 -0.14120689 -0.14093563 0.1495809 -0.0907438 0.0077043576 0.5014486 -0.2686929 -0.094446555 -0.40063632 -0.48350903 0.04035195 -0.03418214 -0.056326114 0.11489368 0.05279154
397 0.20789905 -0.38605806 0.23643377 0.14485884 0.36140293 -0.10492513 0.13386276 -0.018563043 -0.6022056 -0.284351 0.14563905 -0.44621542 -0.26488027 0.15685312 0.19474958 -0.14869156 -0.10638359 -0.230893 -0.25194332 0.011100406 0.4405508 0.122707345 0.22255221 0.20059438 0.22679769 0.09695709 -0.21674378 0.24131024 -0.027868075 -0.06733773 0.028790003 -0.15036255 -0.44760305 -0.094136395 -0.07205924 0.14605272 0.2711643 0.042647738 -0.36059752 0.15864682 -0.25497928 0.21477598 -0.47847122 0.48652956 -0.031870544 -0.18075618 0.023170017 -0.045086615 0.15347901 0.11748485 0.096975274 0.078602806 0.0006559291 -0.24317928 0.1891845 0.083302446 0.1439591 -0.061425555 0.06702009 -0.2507992 -0.41051993 -0.0016356864 0.08781892 0.33116314
371 0.030874338 -0.02645375 0.40988943 0.26173496 0.62635416 0.3739968 0.10554726 -0.19684783 -0.02716424 0.03466965 0.3028307 -0.06848183 0.12283486 -0.005127883 -0.23971923 0.04565911 0.04443999 -0.07783578 -0.3360547 -0.00062308746 0.5627872 0.18786635 0.24829894 0.015508271 0.022055699 0.1397183 -0.03734183 -0.11390775 0.119238794 -0.097347245 -0.051899042 0.14893094 -0.03665395 -0.0365989 -0.26722118 0.21783678 -0.010760998 -0.14601223 -0.11233433 0.12027683 -0.1282775 0.3714636 -0.16000505 0.02960023 0.05114312 -0.06400352 -0.23261426 0.12403001 -0.1233946 0.037057534 -0.2821545 0.11470362 -0.094000235 -0.27106592 0.18791491 0.004553822 0.46900842 -0.36967468 -0.25810453 -0.30702427 -0.27065334 -0.1324077 -0.00023072281 -0.44289765
74 0.34071985 -0.3046356 0.15460265 -0.041395925 0.104625955 -0.36666757 0.04108075 0.1725731 -0.43604374 -0.1314237 0.42033246 -0.093767144 0.32861042 -0.37233105 -0.19693974 0.336427 0.20555188 -0.09125918 0.028766522 0.24040951 0.11924327 0.060270254 0.17755125 -0.05567624 -0.10657937 0.052561633 -0.36657304 0.25238603 0.2012581 0.2632348 0.32722387 0.13368319 -0.3330887 0.07747795 -0.4151839 -0.011452114 -0.20576143 -0.19770306 -0.09499377 0.23800503 -0.012689564 0.38891858 -0.10496621 0.21473573 -0.14313407 0.27438226 0.4096817 0.0688394 0.11748217 0.12011099 0.0019602394 0.25695452 -0.022048935 0.045300074 -0.33274254 0.3041615 0.70455766 -0.016775224 0.24513306 0.07737145 0.14149715 -0.116832085 0.23917885 -0.27379605
51 -0.0701426 -0.49976388 0.09733029 0.3888549 -0.043454375 -0.5685681 0.042491853 -0.03741004 0.31212208 0.44551516 0.0724698 0.18206061 0.16596816 0.08405213 -0.37842155 0.2333322 -0.18680538 -0.1393424 -0.33154833 0.20096147 -0.05475239 0.5683093 -0.25260088 -0.27721754 0.18991935 0.16192822 -0.13548967 -0.3052576 0.44082367 -0.13853018 0.16373263 -0.027724382 -0.05637519 0.003993747 0.34064236 0.12432171 -0.073395275 -0.23923539 0.07955333 -0.25578007 -0.16831286 -0.1760732 0.283816 0.3708961 0.23128597 0.07651278 -0.16695097 -0.13172537 -0.16279402 -0.05907272 -0.017340822 0.06009516 -0.009361121 -0.04748918 -0.8084147 -0.267858 0.14475185 -0.31816733 -0.1178248 0.1896385 -0.25983003 -0.22271182 0.17253949 0.27068096
392 0.69915915 0.039888628 0.568641 -0.14328575 0.37136063 -0.23771253 -0.06388561 0.21512283 -0.07835109 -0.08148609 -0.16230595 0.4766421 -0.26680937 -0.45663616 0.60912484 0.3008592 -0.07605938 0.24025397 0.036025427 0.24753891 0.3409645 0.21257919 -0.14448461 0.068297096 -0.15200232 -0.0522712 -0.25140578 0.080641806 0.671336 0.08014283 -0.1992162 0.28530487 0.10734474 -0.23919918 0.017388664 0.0072270846 -0.05161171 0.16075692 -0.04036955 -0.04530627 0.16855817 -0.25640792 0.03843005 0.11905587 0.27159813 -0.0031047752 -0.050180573 -0.27524522 -0.029137492 0.2397014 -0.076439954 -0.019117834 -0.12569039 -0.044451833 0.032080892 0.4343819 -0.044451687 -0.15766937 0.2979006 -0.0031703066 -0.08997425 -0.040130094 -0.18671572 -0.11020047
9 0.17593265 -0.11428998 -0.17287324 0.03374997 -0.1111729 -0.19264533 -0.07068788 0.08520428 0.10684599 0.32014158 0.53906786 0.16997734 0.23305139 -0.16955678 -0.018958937 0.14918125 -0.19501367 0.0046034213 -0.27370536 0.24761015 0.3292492 0.0038886238 0.23302694 -0.041399524 0.052982643 -0.15314242 0.21145877 -0.06534979 0.45242977 -0.030110052 0.072116755 0.0038140744 0.10420782 0.17704222 0.12822166 0.3448229 -0.104119524 0.1419097 0.14703457 0.3153256 -0.22478707 -0.08119196 0.15983348 0.21483561 0.24038002 -0.110463016 -0.091977425 -0.13886997 -0.3384735 0.20574299 0.26670292 0.7446313 0.15487082 -0.55572164 0.33162045 0.32411355 -0.013228138 0.07685838 -0.023302358 -0.04435487 -0.27365896 -0.03711779 0.087226026 -0.45605436
280 0.4292774 -0.038924973 0.07122446 0.18392026 -0.12348267 -0.037792455 -0.22914557 -0.49595162 -0.2747753 0.17286813 -0.20920187 0.15011847 0.15794046 -0.21919878 -0.17575495 0.23164189 -0.04620832 -0.20170371 -0.33235002 -0.20369263 -0.6225656 0.13801245 -0.27443057 -0.31227928 -0.08294671 0.081029646 -0.043827035 -0.0017348657 -0.13566078 0.079292536 0.12777051 -0.16516732 0.29590836 -0.04157239 -0.16904919 0.34223711 -0.19564646 0.30730632 0.0070010163 0.42065555 -0.053103544 0.009886188 -0.019994743 0.10377066 0.0059630317 0.016921569 -0.49335968 -0.3142065 -0.49084225 0.63705945 0.022656916 0.11687101 0.13133138 0.016174681 -0.17021854 0.1149423 0.24803995 -0.32925114 -0.08386633 -0.1746829 0.12378923 -0.022609482 0.29611778 0.09799499
179 0.47537768 -0.027160596 0.007555849 0.2342402 0.08421796 -0.2611666 0.115506046 -0.29175603 -0.052633416 0.07204427 0.016913502 -0.019985685 -0.11338476 0.22344291 0.40377274 0.004535856 0.49505386 -0.18266772 -0.2160251 0.07371733 0.20523694 -0.049940925 -0.22879474 -0.031587593 -0.028640686 0.47047672 0.018090934 -0.09509123 0.20734502 -0.16152827 0.22819468 0.06534796 0.10058171 0.021897297 -0.42078015 0.2100055 -0.08341675 -0.048517942 -0.10522092 0.14916226 0.040364407 0.14381999 0.057403263 -0.058485232 -0.14692372 0.1466289 -0.27962786 -0.53142214 0.11124259 -0.5435891 0.38801828 -0.13435696 -0.024290575 -0.3294162 0.06150465 0.2085253 0.040498905 -0.002916381 0.064821854 -0.10146385 -0.34251043 -0.2579664 0.27114198 -0.2933017
368 0.09773595 0.17042404 0.15811723 0.3241741 -0.048970357 0.11063306 0.105168805 -0.025804447 0.061613556 -0.069482855 0.04037518 0.057856064 0.011322418 -0.11845527 0.35208294 0.2619772 -0.13082589 -0.35064143 -0.071210906 -0.13560332 0.19587648 0.11925437 0.08828324 -0.3565079 0.22051044 0.0084560765 -0.12621991 -0.48089528 0.1860199 0.20082371 0.1948288 -0.42229983 -0.44993907 -0.5775204 0.17230769 0.019846246 0.14902644 0.11440821 0.0036246122 0.39100185 -0.36037916 0.3350002 -0.32064387 -0.16705136 0.24141939 -0.07514408 0.13417038 -0.274081 -0.50117123 0.33878726 -0.07233063 0.43182352 0.40200064 0.11772639 0.011846347 -0.014753504 0.18696979 0.27383244 -0.109847344 0.37817046 -0.343935 -0.10363065 -0.12752138 -0.1750215
175 0.37257847 0.17082667 -0.35327896 0.4199733 -0.15946196 0.06399641 -0.16321622 -0.16843586 -0.09715983 0.24800663 0.16213794 -0.32094827 -0.12651005 -0.058866087 -0.05571462 0.04648712 -0.2734 -0.034473088 -0.4486694 0.16028214 0.14298402 0.024819745 0.3582262 -0.14064616 0.36737198 -0.15823388 -0.3762663 0.28849703 0.23003149 0.2713929 0.12714788 0.21687824 -0.20475706 0.16155858 0.15146561 -0.34540308 -0.027558649 -0.5076351 0.085616186 0.095237635 -0.117317006 0.0100045595 -0.21716307 0.37380758 0.2879552 0.30378342 -0.16938885 -0.4161611 -0.1825326 0.012275954 0.3901207 0.33111078 0.07554702 -0.31440973 0.2607462 -0.2942191 -0.08812634 -0.13082957 0.35334498 0.07061596 0.053039487 -0.46653906 -0.2879484 -0.17558107
352 0.55420536 0.16026261 -0.18094648 0.119495444 -0.020205086 -0.103223026 0.20868771 0.15583609 0.046608813 -0.24384905 0.23100725 -0.15188551 -0.060406536 0.00038599098 0.11582304 0.21569511 -0.042314697 -0.35929143 -0.06897102 0.071267925 0.11644647 0.2842141 -0.09277586 -0.14889945 -0.46665066 0.25353223 -0.5313997 -0.31913766 0.13929278 -0.24337038 0.31444895 0.25970367 0.11402838 -0.15736222 0.1298722 0.14042777 -0.0666556 -0.23609388 -0.20204264 0.07278723 -0.02023776 0.037011772 0.14055313 0.17962468 0.34792933 -0.06527078 -0.057088137 -0.41327015 0.48080918 -0.026274215 -0.06803351 -0.0725068 0.38010907 0.4320737 -0.1537532 0.14016104 -0.044364773 -0.07930625 0.27074623 0.03695093 -0.4835182 -0.1694873 0.27638698 -0.23712231
428 0.2870587 0.05246384 -0.11352321 0.13196461 0.16549656 -0.1965942 -0.2065918 0.26255044 -0.19312368 0.053324103 0.5025786 0.15696648 -0.21296747 -0.034492023 -0.10689322 -0.2016904 0.08617495 0.15157221 -0.08880341 0.21255417 0.14756663 0.33596098 -0.038286824 -0.7110496 0.1378183 -0.10133813 -0.2939222 0.2960831 -0.064343944 -0.018724566 0.16659917 -0.1250778 -0.12360143 -0.0046570436 -0.27672243 -0.17221564 -0.02016026 -0.2453969 -0.075544 -0.11102212 -0.34158504 -0.105637275 -0.018571785 -0.061207358 -0.06604028 -0.10802991 0.02439533 -0.27242225 0.0040269555 0.108249925 -0.21149933 0.21713145 -0.026520979 0.5910276 -0.19360377 -0.16551211 0.18813895 0.47684297 -0.4908722 -0.3013449 -0.30117527 0.36024767 0.38418546 -0.023454534
202 0.17285912 0.015637785 0.25303355 -0.009053742 -0.07097246 -0.022439273 0.2883222 -0.21030706 0.0695773 -0.24296747 0.015906299 -0.2155935 -0.33288527 -0.13117927 -0.08110866 0.32659706 0.06651634 -0.40591285 0.13673933 0.14668207 0.014714501 0.17483114 0.108040124 -0.13042049 -0.59358007 -0.1614903 0.07412829 0.3610979 0.23112443 -0.59427196 0.44054934 0.5060763 -0.46681848 0.006232519 -0.43475673 0.10042664 0.1913707 -0.100853845 -0.040132713 -0.21768628 -0.36254415 0.23319568 -0.10876279 0.21604834 0.5019674 -0.28523445 -0.1672892 -0.18817401 0.024556551 0.08319561 -0.1012676 -0.3766288 -0.11602048 0.06871659 -0.22653712 0.10323213 -0.3342048 -0.02587195 0.07305261 -0.023515046 -0.41037008 -0.04050593 -0.3654643 -0.093328
211 0.266219 0.39141458 -0.15333304 0.57473224 -0.24872784 0.16103844 0.11171893 -0.29239738 -0.75141543 -0.13273206 0.2280882 0.04949436 0.35591725 -0.3778963 0.0012442362 -0.24513386 -0.13649409 -0.096154235 -0.34600762 0.23118988 -0.16253643 0.013240238 0.08686776 -0.40311083 0.32914475 0.12987173 -0.096777104 0.00442691 0.20243442 -0.42713845 -0.043694686 0.28550026 0.19835772 0.1764304 0.01867915 -0.13520136 -0.48197144 0.273921 -0.069626324 -0.111687645 -0.32088006 0.13048281 0.095691755 -0.018936671 -0.083172694 0.32689923 0.12686013 0.23457032 0.43956688 0.008505518 0.04859876 0.21400942 -0.023231314 0.07585491 0.057819564 -0.15848108 -0.13960217 0.08133036 -0.09907643 -0.30455357 -0.1362162 -0.2236192 0.06592349 0.30357528
305 0.38239682 -0.081784815 -0.22166328 -0.037443105 -0.017971037 0.3482302 0.010666847 0.13330255 -0.2591999 0.09416263 -0.13566566 -0.294179 -0.12437807 0.173445 0.32364035 0.12011721 -0.0190745 -0.30043694 -0.21952146 0.46637425 0.17693023 0.42687857 -0.26743823 -0.22523329 -0.129454 -0.027992135 0.17014033 0.30850598 -0.24786066 0.26374945 0.10051209 0.33723843 -0.17181566 -0.03080182 0.19880891 0.3966875 0.16232307 -0.07133702 0.19502717 0.46939373 0.009381725 0.29391277 -0.24885345 -0.2950795 -0.020541428 -0.021697942 -0.09032747 -0.35884315 -0.11975059 -0.11779206 0.18122637 0.10140023 0.119975634 -0.18279439 -0.24074437 0.031751 -0.075531766 -0.07099106 0.16559476 -0.40230012 -0.37458542 -0.044893663 0.08400858 -0.0070234886
44 0.36161965 -0.087777205 0.21404234 0.1443573 -0.015629696 0.04136985 0.46990877 0.028565181 -0.37565938 0.22875106 -0.25646505 0.13774538 -0.26473466 -0.33911934 -0.35561195 0.043028783 -0.17676057 -0.19751206 0.3478718 0.5004493 0.06469356 -0.02773562 -0.25541255 0.17668374 0.10581976 0.39660385 0.16547123 0.5257952 -0.055993337 -0.14878237 -0.2576942 0.04111543 -0.116377115 -0.23966533 -0.17219204 0.05894248 -0.13356987 0.22853722 -0.02692884 0.1746743 -0.3828134 0.30239645 -0.30095828 0.04003394 0.24268825 0.21234849 -0.03458228 -0.3472935 0.11710838 0.12352807 -0.25287938 0.3650579 0.12244713 0.001419697 -0.06393968 0.18731669 0.11646608 0.34323093 -0.30255538 0.14378968 -0.21425194 -0.14705895 0.08659837 -0.17714296
43 -0.21485978 -0.3030669 0.06640393 0.282892 -0.020443616 -0.3130314 0.09537393 -0.21776265 0.011818327 0.43822286 0.09125186 0.006767941 -0.22977333 0.10047129 0.32470968 0.4143167 -0.12921393 -0.4903119 -0.3155091 -0.066511214 0.3335509 -0.059897438 0.4508345 -0.4493128 -0.24609686 -0.019075738 -0.25596318 0.049198523 0.25423095 0.02819151 0.27607343 -0.05443422 -0.11491234 -0.21321476 0.0622739 -0.24500579 -0.03046465 -0.31839395 -0.27142787 -0.24005984 -0.056817077 0.31168392 -0.10760197 -0.14091675 0.034441635 -0.19637173 0.08761554 -0.21342738 -0.12488814 0.28458118 0.16422427 -0.2380289 -0.49634627 0.11030033 0.16927783 0.42942986 -0.18140797 -0.44765937 0.20865531 -0.0841899 0.14387913 -0.3686631 0.14422964 0.010721752
91 0.032929093 0.11000382 0.08665351 0.08829027 0.03396604 -0.47824138 -0.16688949 -0.1511026 -0.10967961 -0.14770219 0.20137568 0.06962862 -0.48839104 -0.0967622 0.24607721 0.21651646 -0.08596761 -0.25781995 -0.50842124 0.29576993 0.06590976 0.2494428 0.03010283 -0.43695167 -0.005981113 0.1509152 0.15574609 -0.23074542 -0.14251052 -0.01373532 0.13146944 -0.08561107 -0.08962882 0.037469026 -0.45447475 -0.10131763 0.09801426 -0.015992763 0.09511407 -0.05213344 0.16707595 0.010082087 0.046720114 0.2682164 -0.1694635 0.1002174 -0.05655595 -0.2029089 -0.0758604 -0.06824826 0.4725669 0.36766705 -0.004031891 0.028467085 -0.018696051 -0.05838781 -0.43200982 0.08734736 0.0025789381 0.15258043 0.11409901 -0.33285022 0.06831076 0.09918076
120 0.09125581 -0.49018803 -0.17715782 -0.09711434 0.07295251 0.1820183 -0.08046794 -0.25022373 0.059603035 -0.12811394 0.17913339 0.21157727 -0.46382293 0.00874415 -0.22427528 0.13152194 -0.19175804 0.002108639 -0.27609783 0.31303498 -0.20529844 -0.233117 -0.28880137 -0.2028095 0.098680586 -0.05977675 -0.08800193 -0.102493025 -0.120209396 -0.30105218 0.25635445 -0.21032225 0.17626284 -0.14926368 0.08435252 -0.3507438 0.069094904 -0.20534125 0.15441579 0.19537586 0.27155465 0.18082985 -0.5689862 -0.014177225 0.56904864 -0.42841163 -0.057263598 -0.32929412 -0.08350671 0.1953827 0.08404172 0.39605585 -0.15943773 -0.28323478 0.11677706 0.1296251 -0.015126698 -0.34151915 -0.12348615 -0.14095607 -0.32574433 -0.19370192 0.24843897 -0.14502078
213 0.0532992 0.12172298 0.10320415 0.18214169 0.16694482 -0.56245214 0.2934401 -0.09320997 -0.4772028 -0.07366212 -2.9285484e-05 -0.01322296 -0.30124116 -0.16109987 0.06438412 0.1572669 -0.06568984 0.3070902 -0.029441131 0.108043686 -0.27126876 -0.43969062 0.50876504 -0.39495564 -0.045046806 0.12845409 -0.26680303 0.2174141 0.23847361 0.07697684 0.33337584 -0.036523074 -0.11652962 0.15012848 -0.15680769 -0.36188847 -0.6837558 0.016263172 -0.14160134 0.31997192 0.3090436 -0.24260789 -0.28077945 -0.048823543 -0.022741958 -0.12360181 0.044974424 -0.050211474 0.08683507 0.13521573 -0.07633963 -0.1340058 -0.068853244 -0.24734044 -0.09120107 -0.081894845 -0.11029067 -0.0016756132 -0.0101108365 0.044656303 -0.015845267 0.14032352 0.49505642 0.27169502
163 -0.13919194 -0.10963283 -0.12612727 0.11794908 0.11213498 -0.013419186 -0.15660882 -0.29397222 -0.19600287 -0.04857289 0.51833355 0.13472731 -0.29388845 0.016846387 -0.02240052 -0.08751197 -0.12838651 -0.15812112 0.11920793 0.32857013 -0.13920252 -0.10240149 0.1284995 0.16373423 0.061395857 0.4155703 -0.22600396 0.20939885 0.22945109 0.14847048 0.40548214 -0.109151974 0.016459916 0.12105702 0.05370136 -0.09182386 0.05661609 -0.018514946 -0.096766986 0.21477103 -0.19337402 -0.130215 -0.1683057 -0.2813642 0.37832558 -0.047513977 0.05416034 0.07290019 -0.62646616 0.3157214 -0.2996615 0.20980719 -0.07181132 -0.33143795 -0.33741334 0.0403372 0.45094028 0.07935514 0.21662667 0.05252139 -0.5155831 -0.35080352 0.071976416 -0.20618156
365 0.14373395 -0.21124049 0.12686385 -0.07808985 0.019497886 -0.18378069 -0.014056463 0.33160877 -0.48044217 -0.13564482 0.13390431 0.13258605 -0.010622502 0.08751349 -0.08439634 -0.07082437 -0.23165579 0.047774903 0.25103724 0.34867662 -0.53577626 0.61542815 0.22651558 -0.10177339 -0.0048295325 0.19102627 -0.06141602 0.019717088 0.14216831 0.025125358 0.01892049 -0.048274294 -0.27207416 0.29996675 -0.1412658 -0.25464213 -0.1843635 0.14745462 0.3139305 0.39379016 -0.3443657 0.14134836 -0.08811527 0.13135843 0.18291464 0.1620422 0.23833606 -0.43395483 -0.38892072 -0.07898563 -0.18528225 0.05711277 0.056696083 -0.28697017 0.2284623 0.19123079 0.033824377 -0.47190154 -0.21540797 -0.13443469 -0.19070108 -0.16526182 0.18829197 0.2584642
275 0.2581942 -0.3301153 0.23019648 0.121747985 0.06990753 -0.39496538 0.3259518 -0.1857974 -0.27912167 -0.017908234 -0.0012999028 0.10542808 0.26740265 -0.21184778 0.070268236 0.1520769 -0.21599504 -0.2781291 0.10196199 0.5010505 -0.0011744141 0.018604571 -0.093171366 0.12423536 0.08097169 -0.49044052 0.30642658 -0.301268 -0.022141801 -0.101962805 -0.43323317 -0.1626014 -0.32210648 0.029230854 0.31302118 0.13516307 -0.2484026 -0.16965705 -0.06591658 0.24963391 -0.031595673 0.14432223 -0.116939686 0.03517653 0.41929498 0.015929183 -0.26595187 -0.03444421 -0.09144528 -0.11737911 -0.115911946 -0.0333773 0.011035023 0.059722096 -0.3552523 0.14251138 0.022482444 -0.53561383 -0.230995 -0.21579733 -0.17566916 0.02969197 0.48482755 -0.0997833
149 0.11929538 0.16140012 0.3727377 0.17357545 -0.4931487 -0.20755456 0.42238283 0.0051923115 -0.42459282 0.096928224 0.3041477 -0.17737052 -0.46777466 0.012502739 0.33787218 0.20497544 -0.092609644 -0.23159525 -0.18491653 0.29167715 -0.049246404 0.4702691 -0.018263297 -0.4259042 -0.1865985 -0.15979439 0.51297486 -0.09974126 -0.11083785 -0.028477766 -0.1074691 0.36744767 -0.2883827 0.0628959 -0.14648421 -0.03371194 -0.3523362 -0.21499737 -0.288168 -0.012172204 0.0730285 -0.093013816 -0.041728858 -0.43490332 -0.005461575 0.023018088 0.42815176 0.16324927 0.09678481 0.36841455 0.25531167 0.15347373 -0.12171602 -0.034840442 0.17831546 0.18536712 0.104628876 0.3044794 0.056280173 -0.01569137 -0.030812036 0.030831555 0.099833004 -0.09379762
459 -0.05667338 0.09443816 0.18854587 0.39740506 -0.1920275 -0.15022817 0.3515112 0.2623131 0.07616307 0.70953655 0.11691472 0.22970317 -0.03026262 -0.0368615 -0.0058442163 0.29754305 0.02545345 -0.41303977 0.017691603 0.28079468 0.09866223 -0.49153244 0.10812969 -0.13050489 -0.34806207 0.18332659 -0.42975804 0.23439148 0.2673128 0.00088842574 0.25836286 0.10913281 -0.35242575 0.15287828 -0.29360753 0.20181489 0.1497135 -0.003098647 0.24611047 0.3718879 0.08025226 -0.17368183 0.16383791 0.03170205 -0.1538246 -0.081271656 0.018292423 -0.113052055 0.005344388 0.21596786 -0.16597092 0.14174314 -0.08509002 0.09716504 0.17754687 -0.06264209 0.009942151 -0.23000312 0.34423062 0.13946798 -0.35240945 -0.02072738 0.24163005 -0.666362
264 0.04011214 -0.5595827 -0.017678682 0.46707717 0.28491932 0.22904861 0.41699684 0.08255756 -0.0025546688 -0.2171498 -0.139366 -0.027023105 -0.5776685 -0.191479 0.03499799 0.20674792 -0.21770345 0.24856412 -0.43963057 -0.04076482 0.09214839 -0.028645031 -0.05082887 -0.20175213 -0.12296464 0.3215512 -0.093974106 -0.07639638 -0.09755092 -0.06927044 0.14419492 0.1929907 -0.17221941 -0.090503104 -0.06475109 -0.2813333 -0.16198099 0.05142553 0.03699396 0.14597544 0.32906637 0.018602282 -0.061597243 0.2811837 0.27587563 -0.18676358 0.35764113 -0.08988067 -0.10606468 0.12004368 -0.22626401 0.3287697 -0.031807784 -0.021786025 -0.06012222 0.085813545 0.09720282 -0.18695271 0.14120358 -0.2530114 0.034459524 -0.46349773 0.28720394 0.049789276
488 -0.12650922 0.0731321 0.024727197 0.013563531 -0.19129373 -0.483436 0.25138304 -0.2915287 -0.17820866 -0.15223706 0.20295915 -0.022603743 -0.1045393 0.060620036 -0.047065083 -0.22387165 -0.23620659 -0.37539542 -0.4631027 0.023412345 0.16596149 0.3571907 -0.1859237 -0.28222623 -0.15811428 -0.01866245 0.02416708 0.20929205 0.16307592 0.14276427 0.21927206 -0.14075734 -0.15152712 0.09608581 -0.28224584 0.12073288 0.48087537 -0.012003809 0.13049696 0.3016634 0.06556822 0.40031806 0.25822115 -0.1828976 0.34678584 -0.017313544 -0.04213652 -0.2467739 -0.3684904 -0.2738894 -0.013694257 0.17999738 -0.031003734 -0.2039206 0.1868363 0.24958315 0.3044988 -0.4023922 -0.18798688 0.06341832 0.06807708 -0.13473573 -0.036924254 -0.014106962
69 -0.08345778 -0.08375708 -0.11631024 0.17614552 0.24178186 -0.058902133 -0.22987558 -0.41261795 -0.41765997 0.13080384 0.576937 0.09630125 -0.104113355 -0.1252077 -0.1774038 0.11444625 0.06824111 0.02588987 -0.17223531 -0.02491372 0.15520297 0.1596121 -0.059301347 -0.014596186 0.027404232 -0.02478043 -0.04187203 -0.14408171 0.001001476 0.30681655 -0.07045584 0.17148194 -0.343068 -0.042512916 0.10800117 0.06439525 -0.007837353 -0.07968632 -0.2851839 0.4082235 0.019478323 -0.40334782 0.04801959 0.079706185 0.14248927 0.04222214 -0.08474119 -0.11559964 0.031127399 -0.30040962 -0.16680638 -0.041890714 -0.14841466 -0.6285299 -0.23703615 0.13276798 0.10942573 -0.22675028 0.1925879 -0.42933714 -0.50621474 -0.20127504 -0.11965434 -0.20561507
28 0.42227668 -0.5256437 0.23557469 0.43286502 -0.04507037 -0.07079983 -0.19143339 0.008472941 -0.09961692 -0.34258553 -0.23148772 -0.046776164 -0.057342317 -0.023783179 0.15274923 0.15171263 0.23171821 -0.4362597 0.1358038 -0.2335063 0.18019049 0.3773304 -0.19758995 -0.71272564 0.029290529 -0.19517955 -0.08939171 -0.2911241 -0.0542115 -0.05887073 0.08295745 -0.20631105 -0.024551278 0.15594916 -0.1792823 0.27208188 -0.22274303 -0.04614549 -0.33479643 0.1704644 0.3409982 0.23895177 -0.3721491 -0.08406298 9.137351e-05 0.09700032 -0.1782168 0.112720005 -0.06333286 -0.34083068 -0.29191205 -0.018441208 0.07808549 0.21119091 -0.0990752 0.24843977 -0.050615046 -0.35826975 -0.2654829 -0.18529601 -0.2929573 -0.20069069 -0.056581367 -0.09271597
208 0.21135756 -0.10275798 0.46364117 -0.15488705 0.25005344 -0.18606885 -0.10610659 0.14988936 -0.36990118 0.20692587 -0.22697769 0.11475382 -0.20385054 0.08327122 -0.29876095 0.40088615 0.025891915 0.14792046 -0.049340103 -0.33077952 -0.12795931 0.1454197 0.56030136 -0.41952857 -0.23679829 -0.0018462223 -0.54920065 -0.22036959 0.04019312 -0.28018117 -0.17143142 0.30775395 -0.19836748 0.16775939 -0.2604712 0.050214585 0.17883252 0.0048281876 -0.2638 -0.0019532957 -0.27692991 0.09978317 -0.13851479 -0.085070394 0.30303842 0.08691126 0.052959688 -0.15231527 -0.0838354 0.055330027 -0.23743188 0.021721931 0.18030672 -0.14386728 -0.059386358 0.2025028 0.30434304 0.2711663 -0.06996267 -0.42093262 -0.35103282 0.26231068 0.045723416 0.07067278
157 0.2266794 0.014270021 0.088553816 0.2813787 0.21709076 -0.1685795 -0.07417755 0.34739745 -0.14770815 -0.043825775 0.52512985 -0.092361316 0.06492977 -0.117254816 0.41089073 -0.35068813 -0.17671894 -0.6006447 -0.32981038 0.02225759 0.38572776 0.49197528 -0.098824926 -0.4848068 0.15795273 0.46148387 0.024060583 0.3871856 0.016056381 0.025695376 0.15731299 0.4017391 -0.23480584 -0.06673015 -0.1408666 0.097408146 -0.42216006 -0.11001669 0.3932693 -0.019040583 -0.40328228 -0.009390647 0.5453223 -0.34206584 0.18233708 0.026839195 0.103586555 0.07896599 -0.21203128 -0.027378973 -0.41838223 -0.0083897915 -0.5434037 0.1946966 0.19982216 -0.20192842 0.092038095 -0.29977188 0.23537454 -0.12486935 -0.03215335 -0.14323036 0.049335226 -0.073393196
199 0.28929543 -0.24652904 0.1439043 -0.079432115 -0.28817707 -0.005168052 -0.16580947 -0.25653917 0.14137854 -0.26118785 0.16582184 0.13639712 0.2866146 0.0031633216 0.40160593 0.25265247 0.10676784 -0.4790984 -0.52882314 0.14588991 -0.04706183 0.24853283 0.2873892 -0.09858971 -0.19478843 -0.0070349486 -0.14596514 -0.5179605 0.6885378 -0.5651487 -0.18991615 -0.009069576 -0.31064466 0.1831764 -0.209923 0.24594353 -0.13533533 0.041285723 -0.11128114 0.23469475 -0.3224038 -0.062422108 0.2094696 0.31037757 0.129146 -0.65077764 -0.26444912 -0.08747646 -0.23756525 -0.081118904 0.083526485 0.022336144 -0.100664385 0.22946659 -0.16159523 -0.23801382 0.21159114 0.20533445 0.041818164 -0.15621094 -0.011961723 -0.27955967 -0.07228117 -0.08229727
93 0.2557961 0.2605942 0.21608354 0.6289507 -0.06507636 -0.036537603 0.17009543 -0.29738152 0.022570945 -0.17232707 0.25892568 0.097105525 -0.35269016 -0.36387458 0.015607066 0.2747694 -0.113879815 -0.26307362 0.0786846 -0.124062695 -0.41999137 0.10052516 0.18214636 -0.093331456 -0.08108775 0.24278124 -0.26968458 0.3709121 0.11825365 -0.30118507 -0.17264381 -0.35469478 -0.08316999 -0.39307505 0.0026062632 0.54102236 0.20704061 -0.23084201 -0.10946231 -0.12214148 0.09910703 0.04685524 0.18588561 -0.21909028 0.08794384 -0.08679672 0.18727323 -0.09585799 0.06397297 0.1343505 -0.46808758 0.28726807 -0.13630186 0.06476488 0.2260917 0.12802477 0.013013886 0.030942768 0.17844398 -0.11962917 -0.22222951 0.028604494 0.056702446 -0.1287229
281 0.26195917 0.20872837 0.055898756 0.4391267 -0.18742925 0.09657225 -0.06568385 -0.35837862 -0.22258759 -0.013641024 0.17914625 -0.047463305 0.12670153 -0.19661327 -0.03615504 -0.05717465 -0.14975218 -0.026847381 0.13239004 0.27986965 0.32217115 0.3826196 0.020401377 -0.27229112 -0.3703138 -0.20387639 -0.25973606 -0.029465515 0.14534856 0.25090507 0.2950629 0.043188263 -0.17017414 0.04323548 -0.19257596 -0.1935602 -0.2569051 -0.010551845 -0.1651801 -0.055059116 -0.123274565 -0.05506573 -0.34071144 -0.075309955 0.052409455 -0.26470155 0.2533551 -0.49216437 0.44480294 0.07812421 -0.22109279 0.16885051 -0.24265303 -0.2081856 0.19158293 -0.31359968 -0.06393959 -0.07900679 0.12090918 -0.15137117 -0.038771294 0.23577379 0.15055607 0.019030789
493 -0.02397541 -0.00885706 -0.31295168 0.07594207 -0.09541569 -0.3004098 0.21862349 -0.5227917 -0.27198428 0.08945284 0.51248497 0.33542877 -0.12754461 -0.44247094 0.16078134 0.09491166 -0.36003438 -0.0388529 -0.14897609 -0.07846755 0.37058434 0.0057237013 0.21850668 -0.25324 -0.09248618 -0.46252474 -0.18931663 0.4217552 0.25306413 -0.21674517 -0.28447276 -0.22131228 -0.14719243 0.0982306 -0.10164719 0.25459126 0.060974855 -0.3583643 -0.08825839 0.31510922 -0.07505141 0.12124486 -0.026433531 -0.3194509 0.08579042 -0.30003554 -0.31646994 -0.20859845 -0.058011938 -0.4081461 -0.21721797 -0.03265217 0.25398156 0.027272118 -0.24585424 -0.26682028 0.08701923 -0.054441787 0.12687302 0.23068628 0.06956454 -0.170995 -0.051864617 0.015569018
212 0.16006091 0.14389108 0.4318171 -0.0533513 0.019086044 -0.19254866 0.044695184 -0.059735257 -0.11054296 0.06763251 -0.17946441 0.2726307 -0.25876766 -0.23100096 0.14984728 0.031812523 -0.08085179 0.5183853 0.17506637 0.09392613 0.41528612 0.49388912 0.3806002 -0.42577362 -0.091633126 0.017147774 0.033982527 -0.12456636 0.0713319 -0.41469443 -0.3687237 0.046843573 -0.31983486 -0.0505224 -0.48725408 -0.065435216 -0.36070895 0.36036706 -0.055084337 0.128428 0.12496682 -0.30881095 -0.185919 0.063282594 -0.22869001 0.16010126 0.15387438 -0.14924493 -0.35707685 -0.2596779 -0.1111942 0.066698186 -0.030330863 -0.35265023 0.14962022 -0.01950071 -0.1268612 -0.0242327 0.23137172 0.005363982 -0.15777421 -0.30221257 0.34698078 -0.020832868
388 0.1645004 0.27594626 0.050906513 0.22949447 -0.17360306 -0.35069522 -0.016347252 -0.43849382 -0.43181926 -0.05218627 -0.1943112 -0.17629045 -0.06123331 -0.11566082 0.058309134 -0.039846364 0.053347047 0.24432516 0.0044834833 0.6140551 -0.35565296 0.016863396 -0.0978901 -0.12926622 -0.14812575 -0.08505353 -0.21689841 -0.24140364 0.37737256 -0.06881068 -0.06681728 -0.28095764 -0.35531983 -0.0716148 0.12600057 0.26592168 0.013633902 -0.051370237 0.48680413 0.011841394 -0.14081046 0.4551865 -0.073401056 -0.11607899 0.24326903 0.122376956 0.015778005 0.07988952 -0.23854193 0.29759863 0.22882488 0.31596747 0.20251687 -0.5025635 0.15926237 0.27017984 0.34253746 -0.20632641 0.0038735033 0.18631932 0.028427385 -0.074447885 0.19692248 -0.028819194
133 0.18942465 -0.11241809 0.19611949 0.08657437 0.19614337 -0.060177036 0.1454604 -0.13032484 -0.04673212 0.109823495 0.3270009 0.18753313 0.08672163 -0.36033544 -0.2607685 0.2959155 -0.10407743 -0.15830004 -0.44561183 0.32247934 0.20153417 0.0077407397 -0.09361402 0.030431215 0.06819085 -0.18675025 -0.088431045 0.037515078 0.43613774 -0.047736384 0.34394282 -0.14338052 -0.2526753 -0.16575222 -0.18996552 -0.4605804 -0.055539675 -0.64555925 0.2569127 -0.06507741 0.3888717 -0.27132425 0.16215992 0.09051362 0.13884318 -0.47057718 -0.16676588 -0.6867229 -0.26109192 -0.004063689 0.21921171 0.08983559 0.07023621 0.2238066 0.056102417 0.039014783 0.14000122 -0.0315001 -0.18150441 -0.009548404 -0.08505203 0.04441229 0.09076751 0.23341662
442 0.006975502 -0.18888552 0.041400533 0.23384537 0.1596529 -0.10900674 0.44848678 0.03796596 0.09783467 0.43346146 -0.34765705 -0.35602856 -0.14017746 -0.20220828 0.11443119 0.55924714 0.016809078 -0.18054213 -0.2370918 0.28006193 -0.012288913 -0.21327136 0.019724168 -0.41019395 -0.25963512 0.23452254 -0.38119444 0.15450689 0.048667688 -0.13055749 0.001681523 0.05010187 0.0036054957 -0.11635661 -0.48511645 0.26716506 0.13647078 -0.010380519 0.15131606 0.56260407 0.14162265 0.15648565 0.16536352 -0.20333096 -0.14275408 -0.049628787 -0.14790502 -0.29745328 0.45740762 -0.0357928 0.2257538 -0.15728255 0.27924857 -0.02854304 0.18764813 -0.08464679 -0.22097887 -0.0024454247 -0.12613998 -0.24144715 -0.10289986 0.003629201 0.15728739 -0.15155752
311 0.1740323 -0.17684445 -0.30856267 0.07843397 0.024893127 0.0072586704 -0.20076431 0.2186151 -0.19042543 -0.17273498 0.3836998 0.2047828 -0.06615351 0.07721112 0.18409556 0.14341028 0.5510199 -0.062231593 -0.2988313 0.090145014 0.20710893 0.5016568 0.4869513 -0.3001695 0.083425395 -0.13241625 -0.3606652 -0.059338905 0.13994054 -0.109883375 0.23170575 -0.09352949 -0.16720183 0.22538371 -0.021421053 0.27684525 -0.0758405 0.12374436 0.03700614 -0.028579313 0.32657406 -0.054200783 -0.30806908 -0.046417058 0.1778663 -0.11033864 0.09385563 -0.20196234 0.023549875 -0.08568471 -0.2662925 0.26865605 -0.1685473 0.051028118 -0.30347848 0.14301702 0.08818626 -0.20315737 0.055305347 -0.44411433 -0.18642528 -0.01904942 -0.46991125 -0.42994636
104 -0.26823524 0.109980986 -0.09812823 -0.19044723 0.25956008 -0.079649016 0.033616617 -0.03942908 -0.2919482 0.0052712345 -0.0125934165 -0.03872337 0.21466824 -0.34439415 -0.110493 0.43092948 -0.17083944 -0.2636034 -0.43847921 0.15160236 -0.07629672 0.0761825 -0.1333899 -0.25315842 0.21797584 -0.14064005 -0.09215426 0.0011542157 0.2920145 -0.06867075 0.2493396 -0.1046965 0.19711779 -0.22390066 -0.006258417 0.24196403 -0.09802068 0.23225038 0.16437277 0.44360346 0.24851891 0.09266204 0.08438609 -0.054114617 0.11789938 0.3543288 0.099405885 -0.31716892 -0.24901824 0.18832763 0.34301686 0.2961564 -0.26033682 -0.061716404 -0.18647689 -0.40236083 -0.2336031 0.35264936 -0.046962913 -0.16834618 -0.23209651 -0.14918518 0.3596521 -0.3862486
393 0.24957785 -0.39091325 0.06388967 0.07875216 0.019037636 -0.30653906 0.27512535 -0.023618205 -0.05939123 -0.21543229 -0.09551781 -0.013688223 -0.4148624 0.27838182 0.33210063 0.15392914 -0.2027578 0.034414113 -0.44956756 0.3888733 -0.0027833416 0.22680856 0.1406222 0.032449372 -0.4934682 0.5465744 -0.6471099 -0.025160044 0.14061302 -0.06885949 -0.17368318 -0.025537109 -0.33507162 0.007129044 0.08846396 0.14636248 0.14422204 0.22211386 0.31985036 0.12139312 0.08064482 0.1118405 -0.10946593 0.1550677 -0.28803 0.23105893 -0.44259194 -0.34936994 -0.4885441 0.14231774 -0.2084937 -0.11720222 -0.05377072 0.036147796 0.3995474 -0.04020675 -0.24392433 0.2686341 0.057825807 -0.18452413 0.048157714 -0.13855802 0.1906692 -0.16834636
215 0.021813292 -0.26738533 -0.47221577 -0.028493509 0.2362751 0.0040988326 0.34353605 -0.18654911 -0.16393141 0.016094508 0.20504983 -0.036503054 -0.0019646648 -0.068826884 -0.048205122 0.13544424 0.05966953 -0.40478116 -0.26015356 0.42485335 -0.15255366 -0.179241 0.06434201 -0.13242866 -0.06972985 0.30207524 -0.12122111 -0.3779964 0.11711561 0.0039161593 0.16480051 0.22216395 0.067963555 -0.30162397 0.195627 0.3043252 -0.25328264 -0.24380897 0.3684873 0.50677764 -0.27048916 0.31375465 -0.39396182 0.0288207 0.20995036 -0.038786072 0.026112914 0.020541543 -0.2349959 -0.29872102 -0.74841887 0.22819781 -0.124239184 0.18504487 -0.19334705 -0.021300672 -0.12418851 0.10262192 0.11940331 -0.18852498 0.006441586 -0.025825424 0.5128444 -0.17360182
232 0.01646784 0.29958168 0.0768903 -0.012480197 0.69632685 -0.3676219 0.35813498 -0.14732577 -0.015750438 -0.14239134 0.015572465 0.19219363 -0.015575498 -0.23372449 0.06255212 0.28810948 -0.08802865 -0.036385305 -0.014740216 0.07095969 -0.1435265 -0.15233925 0.42416558 -0.3371286 0.08411142 -0.12725052 -0.23958284 -0.14994454 0.29883158 -0.005485847 0.010132592 -0.03376683 -0.0018940757 -0.102308914 0.200947 0.11331318 -0.16964297 -0.18303919 0.08052542 0.059008405 -0.30337164 0.2498401 -0.4006605 0.12624222 -0.091739304 -0.25112653 -0.06666732 -0.059262075 -0.16334783 -0.24586487 -0.14833353 0.29761168 0.2037066 -0.18682517 0.014634835 -0.23730178 -0.025065327 0.11736215 0.13743526 -0.16179095 -0.3373312 -0.2993311 0.004058269 0.24135588
408 -0.11275309 0.21136723 -0.10544011 0.15266824 0.22637251 -0.052651595 0.056961052 -0.25787097 -0.37456048 0.1145899 0.03863972 -0.43639562 -0.05837226 -0.028029818 -0.14352897 -0.04324613 -0.44873452 -0.11278176 -0.53727424 0.21242686 -0.046996396 -0.31734917 0.17963557 -0.48082936 -0.28395456 -0.17488755 -0.07622841 -0.1174281 0.21523733 0.18259968 0.079901814 0.4785379 0.0482851 0.18447882 -0.4299241 -0.0720683 -0.15853623 0.18944252 0.41936445 -0.25216407 0.021930633 -0.069727734 0.32751894 -0.20366575 -0.1526261 0.12654248 -0.069290034 -0.3420028 -0.21285789 -0.08424664 -0.32974097 0.4226529 -0.13613033 -0.37668842 -0.041648623 0.34691122 -0.23609705 0.045203317 -0.19901322 0.013523621 -0.09860552 -0.35786358 0.0086626895 -0.1959846
471 -0.07100484 -0.24056809 0.36352187 0.37385204 -0.12447851 0.16179125 0.096792184 -0.108342916 0.04227633 0.33100978 -0.28608134 0.27362338 -0.28143317 -0.33712888 0.21651945 -0.13146792 -0.039459545 -0.47379375 -0.054573875 -0.107305005 -0.17292422 0.3073464 -0.08268621 -0.08457339 0.13889085 0.073572576 -0.09556511 0.2369538 0.4810443 -0.10166522 -0.37464443 0.1979359 0.06406507 0.22645931 -0.08655255 -0.090601675 -0.085730694 -0.08904902 -0.123530746 0.6144066 -0.054121066 -0.120912164 -0.18564561 0.48616597 0.03620132 -0.20693842 -0.04096784 0.1275342 -0.5062307 0.2456699 0.16622289 0.2631851 0.22743802 -0.40845963 -0.21558626 0.13303144 0.2041696 -0.45849368 -0.078592464 0.19153424 -0.050379895 0.19521378 0.12775221 -0.12099339
129 -0.07451075 -0.2282166 -0.32225412 -0.20261714 0.22233461 -0.36637896 0.24328765 -0.086282864 -0.054845482 -0.30581906 -0.09211774 0.24084611 0.11812247 -0.3520038 0.030108588 0.25550634 -0.5997168 -0.26622593 0.0059376014 0.43380615 0.19971535 0.38662487 -0.14093986 -0.07753107 0.020678042 0.37755084 -0.100008726 -0.2444624 0.3111037 -0.011834578 0.3508313 0.19606328 -0.09823668 0.21532623 -0.17366351 -0.17322057 -0.3120901 0.09437158 -0.3533559 0.5830016 0.21813557 0.07405229 -0.18858223 -0.16950814 0.07581653 0.07801875 0.37648636 -0.0025702477 -0.29110554 0.099539384 0.0793481 0.0010335785 -0.031783044 -0.37127522 -0.05478716 0.3285046 -0.16175924 0.17811131 0.037850935 0.30615002 -0.24932687 -0.30386415 -0.51373076 -0.10318858
225 0.2796539 0.16866012 0.19370109 0.39323667 0.0048634745 -0.16554257 -0.04064775 -0.120552815 -0.11745132 -0.35529554 0.23313676 0.31148133 0.014016605 -0.07630398 0.077846706 -0.038345184 -0.30237946 0.11632261 -0.19511573 0.08428866 0.1934609 -0.092410825 0.59319323 -0.31078902 -0.13518254 -0.044375133 0.054711834 0.047606513 0.23747504 0.2233272 -0.18946527 -0.24707738 -0.4705308 -0.007498248 0.10610814 -0.044197913 -0.073494956 -0.13342266 -0.06970101 -0.010042964 0.23999645 0.26703548 -0.0693532 -0.03954496 0.19831176 -0.047187895 0.39492652 -0.05529094 0.06273696 0.03946488 -0.058283165 0.42171648 -0.08360613 0.14116268 -0.3902682 -0.0033219059 -0.2790015 -0.2826901 0.06096669 -0.13906446 -0.066997655 -0.11183857 0.24784003 0.17798881
143 0.6399144 -0.020461412 -0.1008188 -0.11323465 0.0781996 -0.02725109 0.16743359 -0.28863695 0.09334597 0.079980716 0.19141887 0.04955459 -0.3017376 -0.1408601 0.26465628 0.03763953 -0.3018148 0.02543186 -0.24374725 -0.092108645 -0.03951729 0.5635012 0.19269836 -0.09920567 -0.23900543 0.26578507 -0.22512151 -0.20435314 -0.4083568 -0.15917619 0.021760201 -0.013266332 -0.16196793 -0.21014641 -0.29693243 -0.15877195 -0.07488925 -0.002616428 -0.46995112 0.1686338 -0.0019809552 -0.034269094 -0.06071681 0.30113423 -0.3320836 -0.22858396 0.31400472 0.26579013 -0.30469537 -0.031604294 0.06251457 -0.029968457 -0.18105401 -0.04042145 -0.12267333 -0.035719894 -0.11502922 -0.205964 -0.27142537 -0.084914155 -0.54658663 -0.13321607 0.15963797 0.11961893
8 -0.08076091 0.20785931 0.18538776 -0.1331645 -0.016934456 -0.2119094 -0.009823513 -0.15317252 -0.3722044 0.34173033 0.053088285 0.14117976 0.26677525 0.29088816 0.14523199 0.13824412 -0.20738587 -0.103992835 -0.4735101 0.2876368 -0.049693514 0.08685778 -0.10147349 -0.296112 -0.08864499 0.075852305 -0.1322322 0.09433385 0.13665956 0.43925893 -0.2309697 -0.24494807 0.14648893 -0.20510863 -0.4984488 0.24223317 -0.21423335 0.16854754 -0.42161417 0.36813575 0.12535597 -0.15077417 0.094878554 0.093587 0.2031823 0.029681642 -0.1601552 -0.13022602 0.3614566 -0.10413617 0.39882988 0.29801363 -0.43851906 -0.071451135 -0.172637 0.27830833 0.26204783 0.03479025 -0.25054008 -0.030273767 -0.2558075 -0.3266663 -0.08709044 -0.028835205
50 0.08041328 0.033258095 0.11032267 0.066157036 -0.024740612 -0.4074264 0.094257034 -0.1725728 -0.30461755 -0.0118618095 0.28726596 0.0020606143 0.15014231 -0.62469053 -0.06390874 0.13837717 0.22613369 0.35300356 -0.12201183 0.23637444 0.16589661 0.017583348 0.13071632 -0.114646874 0.00018568113 0.13496107 -0.029000685 -0.0274264 0.09867199 -0.24972408 -0.38927647 -0.008350514 -0.12172318 0.02227368 0.007449544 0.14908431 -0.3954674 0.044406854 -0.18031915 0.043969676 -0.10667678 0.38476238 0.3676611 -0.28079942 -0.03985878 0.100124866 -0.21942575 -0.030311944 0.44085294 0.2187009 0.34133697 0.04772791 -0.11752789 0.08214513 0.3715722 0.20619021 -0.085081816 -0.41740438 0.18308961 -0.05969693 -0.45189235 -0.3509233 0.21466993 0.3091935
111 0.4418504 -0.23945802 0.2625047 0.3205865 0.22159533 -0.13203529 0.32949716 -0.3403198 0.09343777 0.4090308 0.0009978274 0.3073381 0.32532287 0.1772636 0.3241152 0.22005631 0.14672658 -0.27685046 0.29548806 0.18053317 0.3539039 0.012831314 -0.22864912 -0.37148288 -0.278402 0.27023265 -0.3266688 -0.19417723 0.34163836 0.27891436 0.12951641 -0.010771649 0.0008759685 0.28845036 0.013004664 -0.06840671 0.2515847 -0.051376205 -0.17944914 0.10716843 0.08895507 0.3384 -0.3048436 0.33707476 0.2769573 0.28730032 -0.004716348 0.013440827 0.21747074 -0.31827056 0.26041654 0.37870312 0.025925394 -0.53019917 -0.0100928405 -0.16404016 0.27717093 0.14784628 0.09037359 -0.27834705 -0.11026864 -0.21044956 -0.004002414 0.31384343
135 0.19790103 0.020423235 0.07029855 0.233598 -0.05788232 0.118085995 0.24631684 -0.36814952 -0.47767028 -0.28767097 -0.34164155 0.32265183 -0.28219047 -0.35435846 -0.17369732 0.43994087 -0.29596612 0.36075637 -0.009684915 0.0073718415 0.018935261 0.303777 -0.00037484983 -0.19238773 0.07499343 0.1304935 -0.17653687 -0.049530916 -0.06301106 -0.077211164 0.33715516 0.1216183 -0.028906696 -0.12746194 -0.12337311 0.024527786 0.2598556 -0.27956352 -0.15552247 0.6120038 -0.15144858 -0.02646026 0.2084618 -0.29610464 0.43285686 -0.06820596 0.11561658 0.5738594 -0.1285184 -0.24390437 0.05492974 -0.02112648 0.0971686 0.16073097 -0.45387465 0.19463249 -0.07159774 0.12585527 0.23622274 -0.1218405 -0.26412374 -0.27844363 0.33347306 -0.35347548
377 -0.25029936 0.003492257 -0.043924388 0.30021533 0.115048125 -0.16906656 -0.022038503 -0.14231749 0.005275596 0.1349017 0.16497383 -0.2729193 0.0073769535 -0.08812086 0.3932878 0.25046515 -0.12864801 0.24406704 -0.3262451 0.3301203 0.10831703 -0.039148625 0.29513112 -0.49981788 0.17980315 -0.23949079 -0.13945772 -0.039547894 0.08296743 0.29720545 -0.2038041 0.33198076 -0.11770515 -0.068960324 0.41970083 -0.092301235 -0.14796306 -0.17459472 -0.04973173 0.426064 0.35743976 0.104376145 0.05009247 0.14302054 0.060074113 -0.042108454 0.32070896 -0.36560982 -0.010096943 0.19277963 -0.33151224 0.24607451 0.40295917 -0.23850958 -0.3040908 0.29265332 -0.13458532 0.26933935 -0.25659102 0.04553941 -0.096747376 -0.088261455 0.29955658 -0.23344705
279 -0.084631205 -0.44628903 -0.13149025 -0.012245436 -0.13102706 0.2265104 0.30275387 -0.48790544 -0.1490667 -0.17580274 -0.07365948 0.13655607 -0.23250717 -0.20367377 0.1320084 0.21779165 -0.16108137 -0.11965735 0.15579996 0.322754 0.39841765 0.36462563 0.045375224 0.17978029 0.1788953 -0.042527705 -0.13906951 -0.2822638 0.5468806 -0.6077596 0.04287636 0.076217465 -0.24114597 -0.19644786 -0.2052049 0.1629722 0.30412188 -0.008621988 -0.04120357 -0.0054489328 0.05720322 0.26370862 -0.36087054 -0.052611973 0.07185564 0.4842564 -0.16100003 0.12284312 -0.33163327 0.18013217 0.2079403 0.17174561 -0.27991977 0.45545727 0.07608259 0.07501787 0.15029702 0.13166572 0.18591653 -0.20072733 -0.28121516 0.05001261 0.2526198 -0.2393319
350 -0.07481748 -0.11754288 0.18970989 0.27566525 -0.20912151 -0.17071287 -0.0075948727 -0.33908874 0.17945786 -0.037473217 0.46945915 -0.33586213 -0.03847994 -0.25002944 0.1453009 0.5273063 0.057164337 -0.2695016 -0.4457317 0.37601423 0.07166804 -0.21948944 0.09917763 -0.41687354 0.43131745 -0.2802409 0.48050496 0.031791788 0.040218905 0.17149445 -0.060620725 0.33675292 -0.070868194 -0.017402101 -0.17347679 0.080262706 0.042785604 0.47896096 0.121107645 0.19488896 0.12856358 -0.25891706 0.03536916 0.023353007 -0.014620119 0.107589245 -0.038456637 -0.28273302 -0.27075377 0.19701768 -0.06487333 -0.19564122 -0.45146108 -0.20135866 0.34119487 0.053962782 -0.005068902 -0.14177048 -0.021631917 -0.20712644 -0.28935552 -0.0805653 -0.17489266 0.1878053
185 -0.1030818 -0.15935077 0.1585023 0.017833084 0.40971744 0.18462808 -0.11001994 -0.056043573 0.31780466 0.074178316 0.01769987 0.2852708 -0.34812585 -0.48477143 0.15985839 0.2184941 -0.3121406 -0.09682826 -0.4356335 0.5580453 -0.10491349 -0.12355374 0.11015844 0.26798433 0.26583675 0.14962329 -0.35340762 0.017494787 -0.020155367 0.0244419 -0.2735739 0.32735556 -0.04819483 -0.007496554 0.13675179 0.38344818 -0.08028406 0.15773416 -0.11972658 0.3110048 0.037254762 0.3634871 -0.0008860918 0.29397276 0.25869256 -0.038411226 0.042649038 -0.28465143 0.03066383 -0.33269188 -0.072696306 -0.038216423 -0.3041004 -0.08007653 -0.29354236 0.40669528 0.041396562 -0.015456057 -0.32141045 0.01052459 -0.08462699 0.110540375 0.333615 -0.42418593
121 -0.49777517 0.48154303 0.25324687 0.23047093 -0.037601635 0.25418487 -0.2107798 0.02095332 0.22111787 -0.1549189 0.22648896 0.1445684 -0.06765086 -0.7447373 -0.19507863 0.42157292 0.23902805 -0.29695508 -0.3748477 0.5088374 0.15561542 0.34966442 -0.06558797 -0.20419781 -0.3812931 0.033515405 0.19444704 0.39311424 0.117315255 0.072240114 0.4880774 0.026399054 -0.0482799 0.31892657 -0.14124738 -0.20782438 0.05869867 0.03587074 -0.2282798 0.10184227 -0.019533202 0.046514824 0.07231679 0.15821958 0.2870676 -0.14326586 0.042944644 -0.14957538 -0.26329643 0.18228683 -0.6084234 -0.07807612 0.18252134 0.13436785 0.34089276 -0.020630633 0.06443566 0.11654673 0.067821905 -0.28144243 -0.19689676 -0.06604198 0.38117594 -0.21469046
14 0.20568712 -0.298784 -0.09616631 0.20547584 0.08609288 0.29482073 -0.292723 0.12206128 -0.13780427 0.026091248 0.20459174 0.46000534 0.06824198 -0.10784518 -0.13748834 0.17337026 -0.369686 -0.30753735 -0.36570933 -0.08418657 0.2859457 0.3206576 0.078290224 -0.048854355 -0.07137432 -0.56612766 0.10626203 0.00027696203 0.38261572 0.059175234 -0.15544136 -0.10114618 -0.3914458 -0.10515039 -0.21009526 0.27637833 0.09282602 0.32346886 -0.16970393 0.24595566 0.15711337 0.29809463 -0.29332635 0.3236976 0.21326932 0.11717998 0.30220225 -0.11878318 -0.29130712 0.13344146 0.15106641 0.32167315 -0.10582911 -0.26642263 -0.08229474 -0.09976705 -0.29607493 0.13214265 0.041904543 -0.038197607 -0.2622965 -0.14069194 0.09322949 -0.23739524
112 -0.15023474 0.12289046 -0.22801732 0.13805035 0.05840408 -0.37198576 -0.052591562 -0.13908465 0.0059613353 0.22392866 -0.3611799 0.047400873 0.13582206 -0.24046332 0.015127862 0.3167804 0.24335694 -0.29644427 -0.66261846 0.016631845 -0.3085017 -0.014162079 0.2809252 -0.37726688 -0.4275586 0.08509127 0.15148297 -0.005788019 -0.004325684 -0.05197008 0.6099775 0.30946052 -0.24739851 0.20098835 -0.113102086 -0.051350538 -0.23265325 0.18468085 0.02065463 0.18577376 -0.32065544 0.060635217 -0.12170924 0.030620683 0.13529864 -0.20015328 -0.005461653 0.0012008438 0.16844888 -0.3385077 0.41863635 0.2433732 -0.38469654 -0.22181171 0.1003082 -0.117584564 -0.17753404 -0.4825431 0.23794112 -0.06615541 -0.25926417 -0.07743227 0.1426159 0.24962611
468 0.23193143 0.263846 0.3995008 0.02453268 0.11712664 0.0016974539 0.044978924 0.22246115 0.104724385 -0.21312176 0.05933081 0.06307571 -0.2042808 -0.27169886 -0.16172607 0.05586746 0.03923184 -0.4020314 -0.3316563 0.3846135 0.23856486 0.013586804 0.682591 0.08987051 -0.25805593 0.21185084 0.05917573 0.13471447 -0.08492756 -0.12070854 -0.0025546486 -0.066596635 -0.1574443 -0.29423404 -0.014922971 0.19995292 -0.09796451 -0.108446516 -0.21380612 0.11785841 -0.10303582 0.35982677 -0.30748898 0.09721673 0.15710387 0.19898944 -0.10745184 -0.38203287 -0.44114113 0.043774147 -0.29374284 0.3309407 0.1084425 -0.1341371 -0.2445119 -0.15526326 -0.321333 0.34034288 -0.12309872 0.4857032 -0.13535021 0.14725831 0.24532525 0.020705422
141 -0.152266 -0.4936793 -0.014711975 0.022339456 -0.23401712 -0.27170902 0.059898525 -0.27271566 0.027149605 0.16859789 0.6067808 0.30196598 -0.3125335 -0.28713715 0.23399279 0.29250222 0.19239706 -0.26051265 -0.16563056 0.24379699 -0.2893912 -0.12962022 0.3743509 -0.35696462 -0.10931312 -0.07356794 -0.11112705 0.29538932 0.17969607 -0.1687145 -0.10589054 -0.36023954 -0.33141008 0.14695337 -0.07750587 -0.076301545 0.062284872 0.35158187 0.38482085 0.14390965 0.032646384 -0.2265692 0.11923145 0.29838526 -0.0053162836 -0.34117162 0.0372318 0.14521842 0.11600773 -0.09717858 0.27331606 0.37091294 0.3463157 -0.06690044 -0.12354403 0.12266093 0.25239235 -0.17293079 0.13509077 -0.20872164 -0.31430355 -0.062479 -0.10230012 -0.11507009
108 -0.11420456 0.24134794 0.03912847 -0.14388208 -0.010404378 -0.04469207 0.40069485 0.08943023 -0.056952488 0.025519548 0.2586455 -0.04798265 -0.2009241 -0.16564766 0.33635852 0.2106952 0.013388488 -0.09437315 -0.17286907 0.1411909 0.24416684 0.21855621 0.10502694 -0.4281628 -0.5090873 -0.25883016 -0.13355502 -0.009315154 -0.11289821 -0.08492548 0.45297033 0.13485332 -0.073314406 -0.030073654 -0.03327026 -0.042807024 -0.19592778 0.18592335 -0.20271552 0.12808217 -0.364299 -0.017532999 0.07643082 -0.283205 0.33974752 -0.24617635 0.069712766 0.09339447 -0.14357889 -0.058239613 -0.360546 0.41799206 0.3522124 -0.668178 -0.034599256 -0.033246204 0.1934824 0.060940865 0.033702236 -0.34991983 -0.08308719 -0.078098774 0.0067404965 0.15076566
106 0.3959059 -0.062747456 0.18789092 0.39753532 0.19214158 -0.1729628 0.01570793 -0.078094326 -0.43422908 -0.057921953 -0.010302827 -0.06535776 0.09078577 -0.4592054 0.036107764 0.0033759188 0.009715127 0.2622056 -0.10901873 0.32256338 0.43449202 -0.07331402 0.053627398 -0.10977802 -0.004923198 0.11737639 -0.039119206 -0.3680983 0.31954572 -0.17783011 0.34915897 -0.13066381 0.0038726192 -0.05733501 0.4082784 0.1035161 0.16036686 0.28813294 -0.26313174 -0.18852589 -0.53793037 -0.20676124 -0.44611183 0.24872877 -0.016522694 0.12848914 -0.03242795 0.06438217 0.025777794 0.38070795 0.19785567 0.3360427 -0.20852076 -0.08219309 0.29915053 0.067948386 -0.08559138 -0.073774554 0.054582395 0.13816367 -0.26606685 -0.01680577 -0.071376674 -0.1632167
196 0.13280827 -0.080278695 -0.035487574 0.25178552 0.06923299 -0.13549212 0.5657781 0.023372322 -0.09928587 0.072425775 -0.18900114 0.048103053 -0.002577918 -0.45447856 0.11800173 0.10954408 -0.25461802 0.22426859 0.122593716 0.38866448 0.29502985 0.2048023 0.33309245 -0.10270973 0.08861391 -0.3302868 -0.56385076 -0.0029144967 -0.23699921 -0.17460784 0.27306142 0.42201656 0.17781444 0.007822143 -0.107224986 0.048788443 0.09043399 -0.5230376 -0.018625202 0.031780515 0.29231983 0.2944406 0.16628192 0.0315451 0.15975033 -0.11069055 0.011886669 -0.10749694 -0.071713604 -0.03844599 -0.19385563 0.09887633 -0.048308454 -0.112487264 0.14232759 -0.4570937 0.25335968 0.138427 0.28352258 0.24227934 -0.3414838 -0.09988508 0.13493755 -0.051889576
251 0.0035337594 0.086398505 0.020067187 0.16185172 0.12738499 0.269178 -0.27349004 -0.4030126 -0.7270635 0.11467522 0.25446337 0.12549525 0.17962222 -0.5335488 0.11891216 0.06268889 0.016642394 0.08677841 -0.071537375 0.16886622 -0.19796044 0.43251112 -0.06487454 -0.35444975 -0.40540585 -0.06534099 -0.025792457 0.125206 -0.24548368 0.36893106 -0.020503877 0.24755822 0.124701455 -0.33229336 0.14415565 0.14502811 0.27060175 -0.010989375 -0.23354906 -0.00428607 -0.20153393 0.14790288 -0.19215675 0.1827142 0.009418243 -0.015096718 -0.58033663 -0.1525669 -0.37267992 -0.22585869 -0.110000364 0.13046211 -0.163156 -0.0623851 -0.18793935 -0.27216837 0.083057895 -0.17391157 0.1982923 0.06515452 -0.16690409 0.40928593 0.43612713 -0.29715633
440 0.5314505 -0.2381306 -0.3824835 -0.08862198 0.27308285 -0.22371088 -0.2110794 -0.38304752 -0.0032874683 0.00838287 -0.39200884 0.31473508 0.011123671 -0.45316476 0.09453367 0.06809591 -0.103743225 -0.021253953 0.029480824 0.07689754 -0.04830996 0.053869 0.5064863 -0.03255716 -0.3442645 0.05367174 0.20895797 -0.1264493 0.3500248 0.17182474 0.1764895 0.00427845 -0.24263455 -0.0066573685 -0.13395765 0.16807543 -0.17618653 0.066720024 -0.2508967 0.12369093 0.49734774 0.15941052 -0.21491466 0.033071816 0.19846885 0.06418243 -0.016890373 -0.053996526 -0.16649409 0.022803029 -0.08724374 -0.014747248 -0.18492082 -0.17129496 0.180928 0.046027593 0.120946825 -0.15050212 -0.3434538 -0.0674453 -0.31940696 0.11495461 0.3360678 0.042415284
139 0.36928508 -0.052861165 -0.06504947 0.38987622 0.47508416 -0.2659524 0.17197913 0.09128315 -0.2467047 -0.21198493 -0.015543615 0.014947808 -0.53945357 -0.3388396 0.4016018 -0.1525377 0.12338135 -0.24096233 -0.4721006 0.3624059 -0.07334004 -0.10996676 0.057389975 0.26436353 0.103340976 -0.06190516 -0.024890974 0.11518412 0.26488963 0.03911741 -0.04586541 0.2819095 0.19663212 0.16124137 -0.14658327 0.020706162 -0.08557604 0.002693514 -0.07383454 -0.022478981 0.25455645 -0.0541935 0.22835207 -0.39373657 0.16704571 -0.026279472 0.044546444 -0.0752236 0.030955832 0.53347576 -0.15553972 0.1376032 0.18412009 -0.10104677 0.028004041 -0.15089042 -0.30858448 -0.069663525 -0.019122962 0.13519928 -0.3158695 -0.046733133 -0.09306592 0.18698142
76 0.19108722 0.2372502 0.110430226 -0.07566481 0.23715015 0.25876018 -0.11504413 0.07810853 -0.34022275 0.19508217 -0.057056338 0.048977286 -0.04844773 0.1392437 0.2429492 -0.10687488 -0.43843758 -0.35239536 -0.1237818 0.3833478 0.4009929 -0.057489093 0.08077708 -0.11776346 0.123454615 0.62512255 0.09286379 0.1950557 0.17921335 0.12884556 0.31544483 0.34379557 -0.50890183 0.28986526 -0.24986114 0.093872555 0.13767326 -0.07578472 -0.34192428 -0.039188296 -0.07933112 0.6745598 0.13731763 0.29438165 -0.1690342 0.6345149 0.05672316 -0.037337843 0.06342476 0.10086348 -0.21549387 0.17004894 -0.3168792 0.10153976 -0.4269197 -0.16332799 0.3506761 0.0078024413 -0.29160732 0.064498805 -0.17255238 0.039909452 0.23267601 0.1620511
411 0.017864697 -0.29020232 0.14831518 -0.042988453 -0.118634716 -0.24795327 -0.085488155 -0.11355002 -0.16590974 -0.037266564 -0.24126498 0.15222193 -0.030411214 -0.0967192 0.095512845 0.12550631 0.2099264 -0.03018637 -0.33149633 0.1570491 0.048032172 -0.19603063 0.051903807 -0.44380456 0.23906082 -0.1328483 -0.19213624 -0.11520722 0.16584271 0.021366643 0.44328246 0.20916644 -0.14774247 -0.2798267 -0.47578472 -0.31810415 -0.055228062 0.18849188 -0.21380745 0.2918595 -0.5496863 0.026418818 0.4526784 -0.23526898 -0.031967368 0.17419559 0.07377899 -0.3788627 0.020826353 -0.008496507 0.38459516 0.35444966 -0.11799189 -0.020243973 -0.20412183 0.37027028 -0.2127667 -0.18723404 -0.3016903 -0.15249172 -0.24367732 0.62811434 0.027765263 0.023124447
391 0.80723554 -0.010537999 0.103097595 0.042508047 0.1042715 -0.0005282709 -0.0029761514 0.28033388 -0.13840675 0.16282745 0.46458638 0.13105723 -0.42216194 -0.22760692 0.025722757 -0.077499375 -0.39556378 0.07390463 -0.40084705 0.39882332 0.09273484 0.12341709 -0.22235726 -0.37315163 -0.2291007 -0.017063694 0.052183628 -0.16986385 0.16731465 0.3332754 -0.08086227 -0.23124121 -0.5169153 -0.16300915 -0.30294383 -0.24739145 -0.3084124 0.30393103 -0.48647377 -0.04728866 0.25701258 -0.1199827 0.31279448 -0.11803344 0.082319915 0.024221603 -0.34889704 -0.063343644 -0.13800724 -0.06624712 0.07662163 0.23147729 0.25511104 0.068365835 0.020079581 -0.29229286 0.12282769 -0.03368996 -0.2910261 0.096397795 0.33715153 -0.15493666 0.04873611 -0.24187814
105 0.040472493 -0.5120036 0.070934586 0.14484178 0.20964928 -0.06357665 -0.56837726 -0.05769018 -0.57502687 -0.15965372 0.08775609 0.21486308 -0.44644615 -0.06536938 -0.1144368 -0.33626345 0.21621561 -0.10600141 0.0064957133 0.4076028 0.28540778 0.26236627 0.34212458 -0.12570594 0.27762264 -0.27002174 -0.14323132 0.28292957 0.21133403 0.12462648 -0.18056074 0.36716112 -0.086233675 -0.17685813 0.056978885 0.3955423 -0.08778352 -0.28784615 -0.10331284 0.54241353 -0.14318886 0.15558273 0.06861216 -0.17895927 -0.1719321 0.17656048 -0.15229455 -0.050728537 0.31198686 0.26692766 0.32970452 0.20756099 0.0047727707 -0.16870007 0.5224475 0.14534877 0.20064041 0.40382168 -0.13788673 0.02398525 -0.28439853 -0.38692594 0.41435972 0.15706949
35 0.11390116 -0.0649753 -0.15653566 0.352951 0.45083502 -0.15131529 0.08479927 -0.51291585 -0.370413 0.6278012 -0.0657274 0.33304307 0.09803612 0.12422535 -0.15798652 0.07704298 -0.08688849 -0.17138277 -0.3102715 -0.12903622 0.15105726 0.29919347 -0.10926552 -0.24421138 0.1958911 0.06355032 -0.024190674 -0.17292987 0.26808026 0.036327165 0.03714023 -0.4219511 0.09797126 0.064724445 -0.49779317 0.19962335 -0.16399129 -0.10432189 0.18023883 0.020350188 -0.074193396 0.00833526 0.22229479 -0.3266776 0.15894057 0.1413052 0.34947485 0.18675306 -0.08180032 0.1024776 0.13473243 0.057586744 -0.18684097 0.0065159337 0.2879248 -0.4473151 0.1969242 0.027351756 0.048815858 -0.07562344 -0.43939197 -0.2504561 0.23244497 -0.37563014
450 -0.0017127289 -0.122022316 0.33445922 0.08077226 -0.1867957 0.12253143 0.31752187 -0.42224032 -0.2196383 -0.149832 0.041942425 0.32278806 0.12604539 -0.3160088 -0.027474716 0.013846082 -0.15396099 -0.2556858 -0.0043636016 0.13865824 -0.3796156 -0.22770478 0.33311442 -0.15416507 0.10589208 0.09329247 -0.3658916 0.11399557 -0.023672055 -0.1558601 0.32834902 0.08285837 -0.3504007 0.22153558 -0.22664393 0.042394426 -0.36316904 0.010669914 -0.48260945 -0.31593764 0.18868817 0.30913064 0.14367954 0.22820094 0.0045745485 0.5267568 -0.39020666 -0.36699376 -0.17581837 0.38988355 -0.110347345 0.39985874 -0.18900336 0.2414439 -0.13968045 -0.24968338 0.041467946 -0.25393403 -0.14634146 0.2583778 0.027991226 0.45465454 -0.08502841 -0.13892335
308 0.036174674 0.27719116 0.15671182 0.086146824 -0.14001776 0.37010273 0.09208607 0.12450864 0.10753027 0.044253368 0.083767295 0.59111947 -0.3290533 -0.016395934 0.057510328 -0.2122674 -0.08112594 -0.123392686 -0.038724728 0.32020906 -0.42638275 0.055339973 0.14773953 -0.2627759 0.3537634 0.018766776 -0.34790745 0.09650576 0.33365047 0.31922337 0.2395277 0.18571602 -0.32090932 0.27928334 -0.3518263 -0.106629714 -0.11410399 0.13809446 0.03591215 -0.0837346 0.032254085 0.22518902 -0.44933322 0.18343192 0.37284046 0.1632035 -0.2613564 0.072588354 -0.023018584 0.19778326 -0.14095426 0.4871178 0.0449012 -0.0046500987 -0.15726759 0.1258491 -0.36582738 -0.123026036 0.16398384 0.03319162 -0.42227453 0.043547723 -0.6562472 -0.36386597
189 -0.230672 -0.23127724 -0.3228069 0.2527617 0.031512655 0.26709446 0.079504244 0.42276633 -0.18320213 -0.07472015 -0.21238136 -0.01607326 0.0038337514 -0.406709 -0.3226274 0.07610816 -0.08124576 0.09612827 -0.54804724 0.36512396 -0.11306743 0.3101901 0.40360788 -0.15814854 -0.18787798 0.059859246 -0.37567443 -0.45398343 0.3515205 0.27877647 -0.2052026 0.07019322 -0.68421644 -0.3393441 0.17154436 -0.24595909 -0.07342199 -0.35568592 -0.3526232 0.2978045 -0.0132751 -0.14641953 -0.32118878 0.23806925 -0.26715425 0.33821723 0.1575439 -0.105896786 -0.11535364 0.015991392 7.236372e-05 -0.2616988 0.12846471 -0.1700296 -0.26485312 0.22083771 -0.09154784 -0.13454081 0.044181954 0.08213522 -0.5014078 0.0002726352 0.31151557 -0.20734645
95 0.005957582 0.10754876 0.12824468 0.20259885 0.4286686 -0.05442424 -0.08357415 -0.40381697 -0.46361834 -0.16579938 -0.066958636 0.35985968 -0.28860596 -0.3576819 0.0023638932 -0.0799484 -0.5609811 0.13303992 -0.12994629 -0.16760269 0.27623627 -0.07023262 -0.016457006 -0.5136375 -0.41429907 -0.25009403 -0.15526299 -0.018518366 -0.10856736 0.07337338 0.022349307 0.28155634 -0.06851069 -0.087028995 -0.055890907 -0.08010308 -0.18974386 0.124087475 0.15908915 0.026260676 -0.31384397 -0.19561845 -0.17347753 -0.2265287 -0.0071423296 -0.2902018 -0.30851185 -0.56883305 -0.0810324 -0.20100679 -0.4257371 -0.15101479 0.014849353 -0.18728793 0.07192008 0.068405986 -0.115045264 0.1350347 -0.42337233 -0.097127445 -0.16867067 0.026963742 -0.019923637 -0.22197042
454 -0.054125972 -0.23552933 -0.30089843 0.47606972 -0.12027179 0.24377455 -0.052557465 -0.36367184 0.19143802 0.006856321 0.09315923 0.19449472 -0.20271103 0.07501306 0.082746096 -0.025088334 -0.124506384 -0.1425821 -0.25225574 0.21772021 0.15396167 0.023190966 -0.33599436 -0.1447312 -0.019120835 0.18542261 -0.043401115 -0.40571383 -0.20020978 0.21073999 -0.06118705 0.117230624 -0.49557236 -0.054722525 -0.058399886 0.3150029 -0.0395266 -0.3269224 0.025632087 0.103911705 -0.41335154 0.21555623 -0.42687267 -0.2302837 0.24484673 -0.050440088 -0.0005698277 -0.3044161 0.038923018 0.1485969 0.37749666 0.25011504 0.3280164 -0.24609876 0.058066282 -0.29464877 -0.15413138 -0.09367015 0.09129604 -0.082385525 -0.4532811 -0.22715063 0.20046899 -0.29090127
431 -0.007634959 -0.39479572 0.16583903 0.1875319 0.07058991 -0.53135115 0.14975137 0.0015071818 -0.17333645 -0.31298235 -0.07510188 -0.026759923 0.06959975 -0.4517318 0.054077987 -0.1159786 -0.4447405 -0.111492895 -0.30583677 0.20720088 0.38280264 -0.04079556 -0.10084324 0.25474373 0.12117003 0.104834214 -0.021242445 0.17868273 0.1644101 -0.34696096 -0.14669342 0.20545283 -0.17907868 0.41833687 -0.31115356 0.3342072 0.25380328 -0.24961522 -0.032779273 0.023217198 -0.2330381 0.30344746 -0.18204546 0.044187266 0.012309481 -0.30339155 0.013400677 -0.36125082 -0.12630734 0.0055901646 -0.385343 0.42464647 0.5430926 -0.057005107 0.119496405 0.10327076 -0.21263923 -0.3608001 -0.2190596 -0.06542611 0.07392775 0.076996654 -0.0037312487 -0.43760076
344 -0.3645766 0.015632309 -0.022186387 -0.06185558 0.15741971 0.018868806 -0.020316562 -0.41677108 -0.057462078 -0.13952813 -0.16897923 -0.24378854 0.037873007 -0.13998282 -0.09832194 -0.09523235 0.1743172 -0.35219264 -0.55879784 0.32093525 0.09028072 -0.32744348 0.12582235 -0.123060115 -0.06878184 0.35941046 0.16583188 0.30367258 0.06412776 0.2213484 -0.21747069 0.24127883 -0.23629926 -0.3955501 -0.24236557 0.16949114 0.26066387 0.37089127 -0.20375352 0.5590438 0.15542616 0.2209843 0.12610202 -0.09299441 0.3508743 -0.102770805 -0.18671945 -0.096801765 -0.40731177 0.13570195 -0.44117436 0.39907488 -0.354249 -0.35388237 0.017129743 0.12920372 0.05214618 0.013569311 0.01830428 -0.33604652 -0.3667892 -0.034218624 -0.22950837 -0.0035054213
498 0.21097761 -0.14154421 0.093450256 0.012271229 -0.27360994 0.5312701 0.38894612 0.021236852 -0.13003631 0.16910745 0.22625023 0.121135965 0.11965511 -0.17847244 0.64393955 0.37994084 -0.20072979 0.32496458 -0.12507007 0.2629774 0.44316465 0.16730468 -0.052064452 -0.3437717 -0.21553896 -0.03457503 -0.21635458 0.20508398 0.18125129 -0.029355535 -0.112870574 -0.24127296 0.28676355 -0.09323481 -0.3064561 -0.10634521 -0.294236 0.10084829 0.19440643 0.1808026 0.10533598 0.037216995 -0.45651183 -0.24487635 0.20782289 0.10942084 0.16385154 -0.47203535 -0.24751654 0.14972202 -0.32950258 -0.2745134 0.06323123 -0.10602151 -0.10205962 0.32130674 -0.38214305 -0.24364296 0.019679196 0.07362967 -0.16576754 0.14713377 -0.105921514 -0.15227927
99 -0.03148697 -0.06625968 0.5459927 0.4919402 -0.050152685 -0.10457466 0.12988873 -0.13962552 -0.37427685 0.21297567 -0.00019469159 -0.42737553 -0.059411827 -0.5769685 0.35235584 0.30957457 -0.16335975 -0.058510732 -0.12752558 0.15380062 -0.07367334 -0.022515286 -0.0056860973 -0.017169962 -0.15616724 -0.058963593 -0.119145066 -0.050284512 -0.0051674014 -0.2268595 0.5147793 0.0029679292 -0.3000551 0.33491108 -0.2136374 0.12727992 0.090076186 -0.0028759395 0.18084307 -0.10281632 -0.22266139 -0.10774184 -0.068117425 -0.097836494 -0.07536455 -0.008480205 -0.09177922 0.038696848 -0.018362984 0.16338307 -0.0028793644 0.29117656 -0.2753984 0.07391811 -0.6621495 -0.11322238 0.19234326 0.19683558 -0.008546888 0.26962197 0.028167719 -0.10620157 -0.12522696 0.04044347
347 0.009613715 -0.058580354 0.32325768 0.15494148 0.11680535 -0.11077629 0.28243014 0.23296644 -0.010596676 -0.030937796 -0.035028275 0.10360132 0.10245488 -0.15090168 0.12064191 0.054034814 0.21762766 -0.27779844 -0.011525071 0.30892575 -0.055459946 0.24135096 -0.19037034 -0.20976627 0.37345594 -0.6534813 -0.13950862 0.027057813 -0.09611546 0.066997424 0.094993725 0.41874096 -0.016899321 -0.019987311 -0.009554222 0.3223831 -0.16815518 -0.12833375 -0.08586962 0.38106862 0.3046678 0.18928759 0.036602378 -0.12140643 0.22918127 0.09957645 0.067285135 -0.3286791 -0.22092395 0.18861115 -0.16797361 0.28805348 0.07115497 -0.30551335 0.33064848 -0.1387754 0.2843947 -0.24947132 0.3112816 -0.14043446 -0.31774047 0.3229391 0.21552706 0.31536162
395 -0.021087976 -0.07328813 0.026123006 0.11287059 0.25284523 -0.0917334 -0.1292497 -0.34726262 -0.25092834 -0.038387448 0.05278054 0.087073125 0.21961427 0.12674454 0.06569021 0.32863668 -0.15046483 -0.24737287 -0.19881469 0.4454359 0.109945595 0.28375334 0.26673692 -0.098675646 0.13648884 0.11061497 -0.65007985 -0.013282342 -0.18259782 0.35485068 -0.24482039 0.013087263 -0.0810422 0.042114113 -0.3716662 0.15730506 -0.128063 -0.0035289973 0.23343548 0.0030730527 -0.033229347 0.05152649 -0.42602283 -0.3447756 -0.2873481 0.41099003 -0.013965956 0.0100151105 0.111279495 0.37568897 -0.45372763 0.28646013 0.11811351 0.47230712 -0.20053895 -0.054934125 -0.4811843 -0.34021667 0.25633672 -0.051457226 -0.30690065 -0.18827753 0.041710652 0.033513542
247 0.10745481 0.050307162 0.36047775 0.0030309462 0.06528365 -0.183754 0.37644303 0.4872773 0.1138446 0.13081394 0.03414626 0.010999068 -0.04381015 -0.35918364 -0.057072904 -0.11397833 -0.31631047 0.055975385 -0.40699095 -0.15693109 -0.085163146 0.38116798 0.14442407 -0.28361169 0.41385645 -0.084589854 -0.060330324 -0.0015965372 0.3283073 0.08636651 0.36076286 -0.050808977 -0.118436724 0.08370552 -0.34043217 0.15337892 -0.4216443 -0.24052824 0.21059318 0.34919658 0.4819407 -0.0808928 0.2185935 -0.08347964 0.17271078 0.07904457 -0.2113981 -0.280553 0.107204124 0.23467477 -0.2962506 0.14334537 -0.41570863 -0.26805192 -0.33176276 0.016261572 0.3728976 0.24898073 -0.13396886 0.31307903 -0.10678338 -0.20895016 -0.033252634 -0.08060783
456 0.38259602 -0.31885982 -0.15717411 0.2766646 -0.4139054 -0.17882471 -0.2379212 -0.055782467 -0.16738755 -0.123032086 0.043588642 0.03468981 -0.4190791 -0.29204926 0.15446866 -0.09577557 -0.46740127 -0.22278349 -0.18365227 0.20693497 0.17670555 -0.0052215387 -0.44211963 -0.06487772 -0.20160265 -0.24292466 0.39075094 -0.034700308 0.31940675 -0.413106 0.052617207 0.3587785 0.26703548 0.0015886549 -0.50172555 0.17610282 -0.3384569 0.25636452 -0.06930632 -0.06375467 -0.06346533 -0.18272991 -0.44324896 -0.38717142 -0.05188932 -0.05426823 0.057088397 -0.1685531 0.03781574 -0.14274515 -0.28277975 0.4110001 -0.019689038 0.21591473 -0.2023033 0.2981409 0.5839151 -0.018942934 0.34105775 -0.07609029 -0.11216609 0.059600733 -0.1270915 -0.15902118
384 -0.043122485 -0.013398364 0.12675221 0.16352174 0.0006390066 -0.27285883 0.17162143 -0.20341575 0.095024474 -0.30324012 0.15729031 -0.011054612 -0.44429192 -0.27494147 -0.00855126 0.39421555 -0.35596526 -0.08206276 -0.18863739 0.23239887 0.33550364 0.27331662 0.43600595 -0.3851951 0.19944058 0.0001862461 0.059920657 0.17519572 0.30920705 -0.107872404 -0.15928067 0.023005664 0.40880734 -0.24034569 0.12528668 0.1437763 -0.0767761 0.6643632 -0.19060078 0.24449825 0.21463354 -0.14264317 0.1756196 0.30648944 0.16322911 0.16488361 -0.26979554 -0.18855643 0.17498322 0.31254777 -0.017280377 -0.32128173 0.4223815 -0.07288828 -0.19627212 0.29399538 0.2867672 -0.019367091 -0.020324808 -0.3570702 -0.13797784 0.03512588 -0.29355478 0.009891153
217 0.26478857 -0.25616872 -0.26683843 -0.23583984 -0.15960014 0.089683466 0.014311805 0.0540391 -0.1891164 0.20457368 -0.12777485 0.15308806 -0.05020402 -0.09635123 -0.027225198 0.21839435 0.20427994 0.13058206 -0.53549635 0.093466416 -0.28100008 -0.1573674 0.2662507 -0.34194362 -0.30324322 -0.29298678 -0.24240318 -0.105979964 -0.2784924 -0.14623745 0.23443872 -0.10371384 -0.35804582 0.2570514 0.30752215 -0.13993679 -0.42310002 -0.049909364 -0.11333196 0.16482818 -0.14420389 0.40063336 0.14902245 0.3661818 0.2298622 -0.045546968 -0.31700566 -0.21113878 -0.4402742 0.042848676 -0.44076064 0.29393727 -0.13897477 0.09334371 0.036356203 0.086141095 0.5525651 0.029736495 0.2872101 -0.23840976 -0.4386636 -0.15734096 -0.3772698 0.3074227
71 0.48874167 0.15537328 0.3099038 0.52599514 -0.11938758 -0.4189446 0.0012386407 -0.18869889 0.1870279 0.09062962 0.28024688 0.12529199 -0.016614307 -0.27925426 0.21760151 0.33363122 0.20485097 -0.17775431 -0.3230206 0.28210577 0.22211018 -0.08705396 0.1485568 -0.13026395 0.19289865 0.039719157 0.47428814 -0.56929183 0.20033257 0.2841583 0.16214624 -0.29275098 -0.17198034 0.14550146 0.29381844 0.35085946 0.09261561 0.015700035 -0.14239797 -0.06164411 0.19115251 0.5231608 0.11457145 -0.25861132 -0.21472225 -0.19538502 -0.17132391 0.090113215 0.053613197 0.527783 -9.459751e-05 0.014548107 0.32215238 -0.018669536 -0.14095166 -0.2634405 -0.21180622 0.08780957 0.32295212 -0.25823715 -0.5080588 0.1787422 -0.010631837 -0.000324451
214 -0.3038251 -0.1639432 -0.16976656 0.11601404 -0.46802709 -0.10203758 0.16428944 -0.34378967 0.31875014 -0.072622195 0.1710325 0.05638532 -0.2272526 -0.3824739 0.4689555 0.25036508 -0.0752146 -0.0927531 -0.3125326 0.052195974 0.17579441 -0.2787231 -0.043782078 -0.16932936 0.066426456 0.08331945 -0.078794576 0.13254897 -0.12036158 -0.15396367 -0.2315852 0.21140255 0.029115126 0.2919344 -0.35474566 -0.017859824 0.12440885 0.49360004 -0.06447294 0.40292785 0.18975855 0.22380939 -0.5445902 -0.044977218 0.44598964 0.60439235 -0.38802308 0.06738996 0.25461122 -0.12143179 -0.4501128 0.62839437 -0.062361754 -0.1364093 0.12621225 -0.31600827 0.04583617 -0.03703201 0.09778716 0.1904092 -0.2764942 -0.13137746 0.34950042 -0.19877236
37 -0.10157371 -0.28762555 0.1846147 0.46755308 0.13458547 -0.019383088 0.25929856 0.020618822 -0.28734773 0.03680709 0.14377475 0.0015381706 -0.0146820005 -0.0052855746 -0.061269496 -0.1360444 -0.22733967 0.23606993 -0.5130793 -0.30536926 -0.078519836 -0.022999663 -0.3638979 -0.5471334 -0.01195014 -0.14078678 -0.43320417 0.32693353 0.17006198 -0.09123358 0.110194504 -0.028192455 -0.34463346 -0.11410653 -0.17598403 -0.074201815 0.22954284 -0.22387135 -0.027734054 -0.15306754 -0.1335419 -0.03870845 0.16889858 -0.05806293 -0.058997437 -0.34396678 -0.41055077 0.18532695 -0.09923388 0.31338185 0.23829892 -0.18606949 -0.30839008 -0.107817344 0.05462609 0.4843147 -0.049244534 0.0398552 -0.035045438 -0.28161627 -0.71028507 -0.32063076 0.02292986 0.09671398
329 0.3535473 0.16571613 0.045074563 0.48730785 0.33646023 0.03800023 -0.06166885 -0.20183347 -0.3299077 0.19785675 -0.059390187 0.04020831 0.18749127 -0.12291638 -0.36122966 -0.17869261 -0.1888493 0.29092813 -0.074630454 0.33944783 0.06401366 0.27422515 0.08939774 -0.45055956 0.026833314 0.36991754 -0.1298688 -0.14724925 -0.35134104 0.26445606 0.124330945 -0.28194693 -0.031942133 -0.48800814 -0.053606648 -0.0032164752 0.15835863 0.15062837 0.03815485 0.14106959 -0.110497676 -0.18418306 -0.43579042 -0.4239881 -0.029872887 -0.2528245 -0.3928286 -0.14152917 -0.23909108 0.2949211 0.11841466 0.33841503 0.001936262 -0.046087343 -0.16625987 0.09206498 -0.10412119 0.107772194 0.11190364 -0.23822318 -0.3666707 0.15594004 -0.08804885 0.42010543
242 -0.18779035 -0.043278165 0.15885957 0.3011695 -0.070516676 -0.5127898 0.75313467 0.13489766 -0.025522329 -0.107387096 -0.3967987 -0.00982598 -0.02702169 0.20521827 0.13329276 0.026941411 -0.20377325 0.0043957285 -0.3212074 0.6380771 0.109521866 -0.009195052 -0.15766694 -0.43078753 0.05536148 -0.42959455 0.28798094 0.088608414 0.1274245 -0.4205066 -0.14640447 0.038064722 0.07204606 -0.25492403 -0.28298658 0.011769796 0.18878925 0.08834388 -0.37819624 0.103268705 0.21089536 -0.075588144 -0.30099988 0.50281423 -0.24171464 -0.2967775 0.022913216 -0.11651267 -0.06036985 -0.21938442 0.0789452 0.40504032 -0.37649107 0.47778416 0.12643413 0.03405581 -0.14502996 -0.22199331 0.25975588 -0.2612428 -0.39690375 0.18620247 -0.14572783 -0.1419854
167 0.30380496 -0.17769235 0.3665432 -0.21700208 0.06884253 -0.0053465324 0.094332315 0.18745449 0.45491087 -0.027200565 0.07199334 0.13621634 0.35379806 -0.11151686 0.29420748 0.18671852 -0.19072317 0.1434844 -0.2765396 0.21774217 0.23590174 0.12729475 0.28538877 -0.47064593 -0.13046332 0.0093748495 0.093321584 -0.011035775 -0.34637865 -0.43223414 -0.055608463 -0.3378573 -0.061538108 0.27450192 -0.48660308 0.38937587 0.22512595 -0.16256057 -0.10715681 0.16243692 -0.33047086 0.027834257 0.117429815 -0.07628027 0.21605775 -0.1456965 -0.08016689 -0.042187322 -0.16021253 -0.002856574 0.25136915 0.38550988 -0.06521904 0.20128132 -0.11019427 0.2741321 -0.118143804 -0.025309546 0.0013931075 0.07214716 -0.652536 -0.12141081 0.02367736 -0.2353472
500 -0.08268922 -0.116969675 0.1997822 -0.22719991 -0.22090413 -0.45733917 -0.17102641 -0.31385684 0.17339015 -0.38477352 0.13659298 -0.05396597 0.04210263 -0.26589784 0.026394725 0.16878037 -0.2138604 0.2549215 -0.2572086 -0.12754747 0.071821235 0.22055474 0.18945506 -0.10515376 -0.0454328 0.18982697 -0.60272706 0.028464545 0.115182236 -0.3049699 -0.0071548363 0.30274808 0.12897012 -0.34678388 -0.35306877 0.5804218 -0.24747092 -0.06347641 0.14694184 0.551468 0.35749555 0.14618444 -0.2673202 -0.03234375 -0.25673318 0.27343267 -0.4392731 0.0418782 -0.20534441 -0.0052729216 0.21245731 0.28784814 0.20279233 0.14435534 -0.16562463 -0.2120084 -0.019533478 -0.454969 0.0055139437 -0.033864357 -0.29267073 -0.37173203 -0.17634012 -0.29050913
419 0.27077475 0.019057246 0.23273326 0.3995301 -0.021320691 -0.09234816 0.0041708373 0.26690933 -0.26830178 -0.066290095 -0.08698635 0.02534343 0.026844516 0.13877474 0.34061283 0.36800274 -0.2952563 -0.08001277 0.1069664 0.1030016 0.042377263 0.29855895 0.056366347 -0.4245289 0.36466706 0.021911034 0.06986808 -0.2978633 -0.029083453 -0.08099557 0.09347148 0.055447277 -0.02292443 0.23948209 -0.1471796 0.2052183 0.3083903 -0.07601193 -0.20090863 0.41339678 -0.019679787 0.05174267 0.07511046 0.11138574 0.059096143 0.40715936 0.12034983 -0.04060034 0.022883847 -0.0070467284 -0.40149713 0.027954418 0.14192721 -0.06774348 -0.41428313 -0.2773047 0.17557727 0.16010642 0.27082926 -0.23419107 -0.25572616 -0.24168238 0.24168713 0.08396572
117 0.16375059 0.3687605 0.030460233 -0.05993564 0.37878293 -0.42088827 0.20117576 -0.4468923 -0.02388259 0.27663296 -0.23252045 -0.043088406 0.07492169 -0.42513448 -0.19956142 0.23237605 -0.029597243 -0.32612222 -0.19973566 -0.1306912 0.23329951 0.1143072 0.22222589 -0.45803457 0.044307545 0.08994805 -0.21505052 0.19372638 0.20452671 0.043906283 0.075968884 0.18248971 -0.24769409 -0.12080963 0.065354735 -0.19738455 0.15636332 0.04487359 -0.30006427 0.44079363 0.62656176 0.16311866 0.0021608283 0.16772644 0.27873337 0.44856793 0.06958075 -0.16036023 0.09784322 0.31372294 -0.100989014 -0.16802756 0.07894911 -0.022535654 0.03495007 0.1364312 0.54085845 -0.33542255 -0.23897704 0.2940195 -0.021815162 -0.011260655 -0.047391187 0.37883097
52 0.025314929 0.00688563 -0.10182115 0.49057963 0.09355689 -0.1987571 0.22221948 -0.14333087 -0.027918786 -0.45123622 0.09119629 -0.16469151 -0.2349197 0.12376685 0.0637933 0.035711955 -0.38611686 -0.24427764 -0.7538816 0.08169615 0.02267144 0.23109716 -0.09203302 -0.2685301 -0.018187605 0.059778385 0.49244222 -0.3171425 0.26129463 0.06894953 -0.038056258 -0.45235667 0.24183437 -0.01768844 -0.006438299 0.2491853 -0.30321768 0.15394458 -0.5062415 0.11202422 0.025757365 -0.27985448 0.22948495 0.30921516 0.16728875 0.522684 -0.29090405 0.0991791 -0.37340483 0.46475995 -0.16300066 -0.14426666 0.23758683 -0.4002774 0.16843517 0.45787132 0.3881946 0.074181594 -0.21764217 -0.13654682 -0.35803786 0.30482545 0.2215386 0.029184792
356 0.06636875 -0.25834864 0.008328018 0.16243845 0.1145784 -0.24561217 0.11245611 -0.1520634 0.050792735 -0.10402038 -0.09695749 -0.11880809 -0.1375304 0.15330918 0.12731177 0.26771685 0.022856934 0.6119725 -0.24540557 0.33854145 0.14070475 0.09776675 0.2076428 -0.34422496 0.24607572 -0.15729918 0.08573127 -0.048657145 -0.08217692 -0.019365454 0.41725817 0.19115742 0.005300496 0.070428126 -0.1484492 0.0168215 -0.13620897 0.07305641 -0.20849335 0.13694923 0.16189241 -0.3059156 -0.23602659 -0.041918017 0.054479636 0.2819208 0.24986057 0.13808112 -0.02731242 -0.013465242 -0.43589514 0.6638057 -0.30813682 -0.09577683 -0.041326575 -0.04286545 0.18656892 -0.3104491 0.1485288 -0.26968715 -0.25446236 0.39728656 0.29828274 -0.20799226
287 0.3230706 0.090829186 -0.1333476 0.2052982 -0.41397738 0.21974047 0.5178787 -0.0059033837 0.05800488 0.13028301 0.3450417 -0.31547648 -0.13132542 -0.37643203 0.074802086 0.19565652 -0.021161525 0.3851129 -0.06371416 0.36021483 0.0916764 -0.39428577 -0.4398723 -0.4351869 0.19077931 -0.24933553 -0.19179055 0.06709489 0.5022107 0.2259882 0.36860147 -0.08248228 -0.34448627 -0.5538324 -0.16589141 -0.0919171 -0.016088102 -0.4752715 -0.020107418 0.50731647 -0.44134992 -0.17313391 0.26435265 0.062378164 -0.15331952 -0.11314855 0.15643325 -0.2742462 0.022893935 -0.25130373 0.022279758 0.06410539 -0.12757562 -0.16031317 0.086650826 -0.111936666 -0.009317774 -0.019370684 -0.2483155 -0.17236812 -0.22181325 -0.29562613 -0.058579843 -0.059501063
276 0.20666097 -0.05162365 0.3026579 -0.5488969 0.011315299 -0.1904869 -0.08124166 0.072296314 -0.15211761 -0.05967724 -0.37465903 -0.22405262 -0.15905455 0.11394382 -0.14747234 0.016395923 -0.5535848 -0.008135268 -0.42683733 0.0752092 -0.120917484 0.34654865 0.17823961 -0.1672647 0.23204762 0.089523055 -0.042170584 0.07396066 0.08252824 0.2309285 0.34793997 0.15354982 -0.08437086 0.07396512 -0.16937394 -0.08179367 -0.12248641 -0.20724875 -0.006020368 0.16529974 0.033810064 0.05916924 -0.17264773 -0.3738754 0.047502838 0.120072916 -0.084425434 -0.518431 -0.27762517 0.3405438 -0.37586313 0.27805033 0.6311849 0.24895138 -0.09359832 -0.111367196 0.43378958 0.053422365 0.23259175 -0.17835644 -0.25473452 -0.45472437 0.24888454 -0.13199471
145 -0.13096114 -0.3661424 0.40142146 0.76578724 -0.07000316 0.05861651 0.0959518 0.103958055 0.045537814 0.41055793 0.02870809 0.16847956 -0.26425195 0.17266993 0.24632388 0.23166741 -0.40679985 -0.12578021 0.0086529255 0.09023465 0.00014996811 -0.046379622 0.25657305 -0.20999108 -0.22801735 0.4992981 -0.21650554 -0.1329599 0.38198945 0.09001948 0.06710298 -0.19057995 -0.16300672 -0.32815143 -0.28175235 -0.15940899 -0.5491956 0.38787276 -0.20680287 -0.15078454 0.06718588 -0.1006298 -0.2940144 -0.3322055 -0.025432229 -0.1481228 -0.40367824 -0.054483656 0.37086776 0.010131348 0.050140038 0.2424929 -0.49867722 -0.1664051 0.35975102 -0.37596375 0.075926594 -0.09909598 0.19726513 0.21073848 -0.31110737 0.14008296 0.10587528 0.0033509384
257 0.62381315 -0.2920518 -0.28305438 0.053220857 0.030750966 -0.26128098 -0.03463645 0.18121135 -0.06287266 0.11470753 0.21503037 -0.0135944 0.043588992 -0.6247064 0.12896074 -0.3868486 -0.2340796 -0.044441715 -0.18694326 0.07560588 0.14608598 0.5031668 0.0134795215 -0.077489845 -0.19980666 -0.27314582 -0.118764326 0.3702854 0.38146427 0.10944975 0.06684215 -0.10550531 0.101513505 -0.03666231 0.23467377 -0.31370842 -0.30499303 0.1971929 0.30750015 0.094390705 0.12777644 0.32501417 0.21257888 0.4102657 0.14933996 0.16987444 -0.09311425 -0.4230837 0.013215985 0.48075956 0.16891275 -0.12587018 -0.35973182 -0.031735566 -0.18907103 -0.51467633 0.21184179 -0.27641723 -0.23005447 0.03026567 -0.2809488 0.035316557 0.008262742 -0.534961
345 0.30488694 -0.13881326 -0.27926815 0.650947 -0.17445819 -0.11596079 -0.30129474 -0.44195512 0.094959535 0.1014979 0.2511935 -0.16154407 0.049144488 -0.07398544 -0.33918932 -0.22887702 -0.34708875 -0.12190326 0.11897344 0.39274728 0.1368746 -0.05556672 0.1773635 -0.17067 -0.20109177 0.004120043 -0.32271826 0.2547061 0.25223038 -0.3377199 0.08631496 0.40133697 -0.33541813 -0.28007647 0.048176635 0.04089948 0.01887054 -0.1087436 0.29867125 0.17063144 0.07807797 -0.15870968 -0.04120609 0.0013278152 0.23498426 0.33709946 0.31157067 0.024387863 0.3418604 0.152604 -0.1707405 0.14926974 0.28003496 0.43915716 -0.17947209 0.51779705 0.50396186 -0.05155522 -0.043909464 0.004341437 -0.42962703 -0.18314968 0.27964237 0.19742316
152 0.3276314 0.05118991 0.21868649 0.48957974 -0.29031575 0.24930555 0.50899833 -0.5040425 -0.3068919 0.09094554 -0.1469947 0.4865901 -0.082792036 0.017133676 0.09212 -0.08672399 0.21448481 -0.07132742 0.047423825 -0.20785017 0.17776212 -0.23922275 0.50184673 0.14069405 -0.0037141687 0.14143182 0.023228882 -0.017793799 0.19827347 -0.21852002 0.22323328 0.0911583 0.17211922 -0.049081687 -0.27162665 0.32127035 -0.43460166 0.44969365 -0.064148776 0.213427 0.057150308 0.12818488 0.28479546 -0.2618351 0.52195466 -0.16005147 0.029702673 -0.16470678 -0.013722844 -0.025195438 0.09336329 0.5681897 -0.22873327 0.002328147 -0.009090316 0.19448815 0.025469782 0.2589048 -0.13370754 -0.049167372 -0.18153705 -0.1602876 0.41388395 -0.075558975
188 0.018638514 0.07851277 0.21439245 -0.32080874 -0.25435293 -0.389036 0.023345722 -0.10026555 -0.24032457 0.4956192 0.011658439 0.65246546 -0.19441862 -0.14683077 0.14393938 0.11579615 0.09593266 0.0012212737 0.04026175 0.15494657 0.051046178 0.2228281 0.17196433 0.066415146 -0.026669435 -0.21937165 -0.14255376 0.12367103 0.30546698 -0.19241989 -0.116921 -0.04840624 -0.19747339 0.058392428 0.02163102 0.3487734 -0.2065151 -0.2913622 -0.41610342 0.41366106 -0.26953414 -0.007998881 -0.08211663 -0.09374578 0.07100995 0.27583247 0.4561593 0.373633 0.18150368 0.096538834 0.0018441442 0.03650686 0.11612835 0.31769288 0.017978894 -0.060751494 -0.24887629 -0.24898209 -0.4177319 -0.2160986 -0.5402264 -0.516908 0.13725747 -0.085152894
7 0.14991556 -0.011777472 0.2849738 -0.25606737 0.12112308 0.06933512 0.33391213 -0.20113039 -0.55840087 -0.4078107 0.18501465 0.3801218 -0.2169268 -0.22054107 -0.16888276 0.08368893 0.0049004355 -0.110678755 -0.07762644 0.3925447 0.24255778 -0.44317445 0.2295844 -0.34611964 0.11060255 0.06846074 -0.48930988 -0.24531826 -0.0074144322 0.017644167 -0.33216515 -0.13094349 -0.06927619 0.08641546 0.24499989 0.045059074 0.16036446 0.061841525 -0.09650878 0.03527703 0.040869303 -0.31813923 0.030050542 -0.39181855 0.38659725 0.04790575 -0.30788255 -0.045037333 -0.0757464 0.020629559 -0.19098838 0.49268404 0.18525983 0.14220442 0.21907674 0.18897602 0.11700951 -0.30831948 0.042868875 -0.029882511 -0.32631105 -0.3798053 -0.53423643 -0.10079811
100 0.28971508 -0.1362742 0.091979176 0.24149366 -0.15196812 -0.21481155 0.20704685 -0.16313747 -0.31480733 -0.13172773 -0.063114636 0.2690317 -0.015770081 0.00020940765 0.3550659 0.20685175 -0.15369573 -0.11183015 -0.32705152 0.08374808 -0.5161388 0.06251841 0.00211112 -0.37792286 -0.077254646 -0.14928852 -0.31814018 -0.2082857 -0.296822 -0.14249706 0.107900284 0.09144401 -0.2913212 0.084962845 0.23103485 -0.25047946 -0.010275982 -0.042787105 -0.11008139 -0.05574524 0.36461577 0.289497 -0.14617738 -0.241771 0.6635717 0.22646382 0.32899702 -0.20695381 0.25697434 -0.18140033 0.18424223 -0.2646065 0.02095112 0.20739643 0.2811057 0.16221651 0.35730603 -0.063694015 -0.31072694 0.19872917 -0.4893757 -0.044562645 -0.09793531 0.10996863
33 0.19339927 -0.21924034 -0.13091838 0.16274473 -0.26866716 0.10534792 0.04809899 -0.24688815 -0.12544109 -0.08090234 -0.2550276 -0.22515598 -0.28979027 -0.29530063 0.039503843 0.06717631 -0.10910811 -0.3384885 -0.5059594 0.2671866 -0.07896452 0.25683773 0.121156104 -0.16162063 -0.03141621 0.25045082 0.27616268 -0.21576615 -0.04037565 -0.053482722 0.46766284 -0.21362485 0.01353231 -0.050192356 0.09923516 0.0075132702 -0.028654436 -0.35818523 -0.15174659 0.09843046 -0.11853053 0.25487298 -0.10172334 0.11546247 -0.16198905 0.11556972 -0.08379959 -0.1590727 0.34747434 -0.1332222 -0.11518902 0.26120144 -0.271547 -0.2151226 0.14957066 0.32208857 0.0588781 -0.058023915 0.06835383 -0.08788553 -0.20457913 0.3520378 0.042338744 -0.020139413
