10 64
1 -0.11782143 -0.104874246 0.17504056 0.21392944 -0.15106718 -0.3155091 0.23382911 0.20756479 -0.20808646 -0.08608144 0.31937823 0.14275078 -0.056678016 0.09158533 -0.061026383 -0.0061280592 -0.003990412 0.1387467 -0.067854434 -0.023161976 0.22042198 0.13610634 0.2827185 -0.09079792 0.24554197 0.051496584 -0.095875375 0.15080854 -0.06835729 -0.1175435 -0.112656526 -0.10315216 0.047104087 -0.2908894 -0.040065087 0.083074726 0.1388343 -0.01216247 0.27446032 -0.14000838 0.0022701207 0.2026899 -0.15498029 -0.22302128 0.041121 -0.014686526 -0.1091716 0.028665043 0.08815254 0.11916955 0.04203235 0.090413615 -0.048506077 0.14128433 0.28490195 -0.10146945 0.00054310437 -0.26190388 0.0069341715 0.10496254 0.046336677 -0.12576254 -0.25088775 -0.090175025
6 -0.12368187 -0.10259652 0.17411533 0.2165407 -0.14801644 -0.31173095 0.23893581 0.21615566 -0.20793614 -0.10124263 0.32861546 0.15117393 -0.03401172 0.07933288 -0.06360927 -0.02371997 -0.012360108 0.14874212 -0.045998834 0.00033321689 0.20363887 0.13617194 0.29369038 -0.1037867 0.23580442 0.074196175 -0.093546145 0.1491893 -0.051482607 -0.112523176 -0.08740981 -0.09326754 0.01461618 -0.29991356 -0.035232645 0.098311864 0.11355902 0.0022751223 0.2933521 -0.1265548 0.030862758 0.19038926 -0.14725189 -0.2103155 0.038235325 -0.026818462 -0.1016374 -0.0023968716 0.0716039 0.12189241 0.06368278 0.09736706 -0.033639885 0.16037028 0.27236363 -0.1004309 -0.0018724831 -0.26958457 0.026439967 0.075467676 0.06413567 -0.12486421 -0.25936252 -0.07351387
4 -0.1242639 -0.09353815 0.18555313 0.19430421 -0.14054976 -0.3190026 0.22800685 0.20233421 -0.18967734 -0.07613002 0.33068556 0.16481726 -0.029239908 0.06719632 -0.0731442 -0.014233444 -0.020106617 0.15613838 -0.042139217 -0.015798215 0.20918329 0.12961231 0.2909938 -0.10980299 0.23405695 0.07038085 -0.09724458 0.15764748 -0.04038576 -0.10106749 -0.102627166 -0.08613128 0.014825859 -0.27424502 -0.039567553 0.08006366 0.12771665 0.005237068 0.29078263 -0.13998447 0.034202628 0.20604129 -0.15416312 -0.22583872 0.048203018 -0.006551548 -0.097904705 -0.0027716062 0.066361375 0.10394214 0.0676004 0.07670703 -0.055157706 0.15129252 0.27922973 -0.10365534 -0.0023839106 -0.26269025 0.012478911 0.07256752 0.0600522 -0.13568924 -0.24493018 -0.080449305
3 -0.11266865 -0.10928618 0.15603061 0.18509401 -0.1171366 -0.29699317 0.18641259 0.18622425 -0.18295401 -0.06999441 0.28457376 0.1444822 -0.022678984 0.08002058 -0.06162043 -0.007690452 -0.0337689 0.14780718 -0.05147615 -0.020211276 0.20817614 0.115656346 0.27191395 -0.10063912 0.22634703 0.07911162 -0.10555498 0.1273692 -0.05817318 -0.10916236 -0.10368246 -0.104848616 0.036656417 -0.26070073 -0.014165225 0.08840848 0.103650585 0.0055600666 0.2701967 -0.13578786 0.01442975 0.18249549 -0.15398906 -0.20291677 0.03780561 -0.006106631 -0.08344696 0.0017537804 0.061215535 0.096746124 0.059448738 0.08075721 -0.0341287 0.14170925 0.25661367 -0.08937774 -0.012520871 -0.24369305 0.010508435 0.07603828 0.041887388 -0.13763538 -0.24263114 -0.08252554
5 -0.12180129 -0.10952491 0.15248075 0.18797055 -0.11948979 -0.30928105 0.22737499 0.18244444 -0.20678592 -0.06380038 0.31196672 0.15513514 -0.058239486 0.08755747 -0.041252878 0.008040786 -0.009834285 0.13579375 -0.057529766 0.005220783 0.22111392 0.12750122 0.25796726 -0.090101846 0.23127902 0.03994998 -0.110958084 0.13876565 -0.056908634 -0.11664778 -0.10825883 -0.11464628 0.046503548 -0.264346 -0.036174063 0.091057666 0.13936317 -0.011350697 0.27889803 -0.11464462 0.029408392 0.19311814 -0.12217112 -0.22338907 0.020639054 0.0044161663 -0.085650355 0.011662851 0.08801949 0.08981882 0.060083266 0.086569816 -0.031210886 0.11962418 0.2828046 -0.076250814 0.0017888665 -0.25599134 0.01859371 0.0898302 0.06243703 -0.14086542 -0.25164697 -0.068485536
9 -0.11787758 -0.1082678 0.18109965 0.20955935 -0.148803 -0.3033 0.22699143 0.1926301 -0.19317761 -0.07406118 0.3074672 0.143748 -0.061994627 0.077038676 -0.04462649 0.013462095 0.0011109158 0.1272866 -0.07232277 0.0026616247 0.21710522 0.13061951 0.27912062 -0.096273884 0.24705899 0.059406277 -0.09453926 0.13591924 -0.062903926 -0.11610074 -0.10016629 -0.10278112 0.020975778 -0.28402418 -0.042343378 0.08355677 0.13291563 0.011922182 0.27944934 -0.13726594 0.021032222 0.20644233 -0.12854809 -0.21752377 0.043824624 -0.01859657 -0.092309736 0.029743377 0.077165514 0.08046357 0.066570655 0.069153674 -0.04330913 0.15066552 0.26914203 -0.09406567 -0.013184909 -0.23902367 -0.0043610153 0.09772949 0.041796476 -0.12117637 -0.23360565 -0.07491811
10 -0.12091169 -0.10744608 0.18058047 0.20208518 -0.1381842 -0.31968614 0.20026222 0.18588327 -0.19564949 -0.08219971 0.32148585 0.14568537 -0.035753574 0.06479854 -0.058828812 -0.01709753 -0.026816659 0.13968882 -0.06727744 -0.020543685 0.21215725 0.13177212 0.2697677 -0.086202584 0.2232254 0.070818834 -0.10641519 0.14759575 -0.070471555 -0.10628102 -0.11360273 -0.10635431 0.028592262 -0.25712475 -0.021362286 0.07405629 0.1260469 -0.01972745 0.28106993 -0.11323567 0.013868372 0.19555303 -0.14258598 -0.19991808 0.023124143 -0.011241574 -0.08084554 0.017756457 0.08079864 0.083489835 0.07085249 0.065065585 -0.046721958 0.14225139 0.2656616 -0.085986964 -0.0012437276 -0.26178727 -0.010526587 0.10788428 0.061981604 -0.13887501 -0.23147805 -0.07783395
2 -0.11461608 -0.12116293 0.17922536 0.21081015 -0.12155847 -0.32464293 0.22432809 0.18287063 -0.22148904 -0.09412095 0.31700745 0.14139867 -0.04326318 0.07209076 -0.049170196 -0.0005243434 -0.01788175 0.13960704 -0.042739414 0.00557636 0.21107867 0.1460615 0.2687319 -0.084284484 0.23659049 0.06332691 -0.096861355 0.15746212 -0.064477704 -0.10046523 -0.095607564 -0.123355694 0.022071907 -0.29378578 -0.030122563 0.08225927 0.12153963 -0.018848132 0.29707178 -0.12949987 0.0038885544 0.19465275 -0.13823353 -0.2304549 0.046405897 -0.017722724 -0.090852804 0.0024464652 0.094308905 0.108708225 0.061012693 0.086414285 -0.05771122 0.14455523 0.2798503 -0.108057894 -0.020951096 -0.26219794 0.015414956 0.102745645 0.041945193 -0.14624706 -0.25836113 -0.08398782
8 -0.12957107 -0.11815085 0.16130213 0.18111216 -0.13881572 -0.31305832 0.2125821 0.18190219 -0.2097062 -0.07941736 0.31673843 0.15928772 -0.05684038 0.071137115 -0.04646448 -0.017585976 -0.012705399 0.14632365 -0.042512536 -0.02210655 0.19899005 0.111113876 0.26655248 -0.07722332 0.23968035 0.064707555 -0.08866339 0.13586399 -0.040931363 -0.11884575 -0.11195453 -0.10493777 0.029083397 -0.27349332 -0.03257134 0.09451766 0.12319708 -0.0060836244 0.27519467 -0.14001766 0.032976672 0.20678996 -0.15301159 -0.20978114 0.052937485 -0.023101496 -0.10005455 -0.00048147456 0.0921324 0.09699373 0.07194215 0.06431111 -0.036628418 0.13979499 0.26965234 -0.08494265 -0.017562905 -0.26299718 0.011847327 0.09960863 0.06217128 -0.1218789 -0.24114156 -0.065062374
7 -0.13389978 -0.09856075 0.16986488 0.20526937 -0.12301849 -0.31925172 0.22820981 0.1770715 -0.19967571 -0.095123544 0.30285808 0.16280292 -0.046303846 0.08252452 -0.041721374 0.0069620907 -0.02820699 0.13533832 -0.03774947 -0.0030740374 0.2061926 0.11373457 0.27811643 -0.10428121 0.24567555 0.053685226 -0.099116266 0.1456723 -0.05742579 -0.107265845 -0.09255855 -0.10101397 0.025209203 -0.27681246 -0.02283913 0.08666605 0.12346193 0.010219912 0.26842353 -0.13052306 0.033825073 0.20564733 -0.14105113 -0.22837096 0.03979034 -0.016299885 -0.07823029 0.013039669 0.08082453 0.10659532 0.05509157 0.072591655 -0.04269896 0.13746154 0.28189424 -0.07837181 -0.0058267685 -0.24975252 -0.00023128596 0.0928844 0.041005515 -0.14476687 -0.25318375 -0.09355083
