34 64
1 0.12907495 -0.14020483 0.12501906 0.11235067 0.011872398 -0.14773361 0.092640914 0.1476729 -0.27620634 0.022982694 0.18843092 -0.1529836 -0.06101967 0.2184081 -0.06921005 0.1770729 -0.019748941 0.0077088797 -0.11443768 0.12504594 0.3120229 0.077155285 0.380973 -0.041591335 0.11796351 0.13456242 -0.2865901 -0.12827815 -0.3511106 -0.21024702 -0.030828794 -0.0010428631 -0.15002626 -0.28056446 0.07274118 0.12548077 0.23775996 0.11965745 0.16725127 -0.006069726 -0.044997934 0.20928836 -0.13361704 -0.2846507 -0.08313091 -0.04846702 0.0015835731 0.03677207 -0.0066503645 0.23039934 -0.058282923 0.17137033 0.02774673 0.14152592 0.31221902 0.2035632 0.19793138 -0.1657127 -0.06475092 0.10940366 0.14409228 -0.17394431 -0.11309749 0.10362023
34 -0.13134333 0.18503016 0.17343698 0.11092985 -0.10844176 -0.19258256 0.09518771 0.053383954 -0.038652856 -0.17793033 0.10056254 0.091001 0.30665335 -0.12604198 0.07785823 -0.071235746 -0.20193496 0.061525673 0.15513052 0.097548805 -0.056158483 0.021495568 0.3298666 -0.18432018 0.074625164 0.16242838 -0.08782021 0.055124637 0.26932022 -0.018665941 -0.1753265 0.18993916 -0.39980862 -0.32959238 0.16343771 0.25606743 -0.04009274 0.42752054 0.2232251 0.015132067 0.35671645 0.04145229 -0.11699384 -0.21370596 0.128604 0.08870626 -0.0004523075 -0.30202377 -0.12863785 0.18995951 0.13461062 0.15551448 0.14389645 0.18804088 0.19252849 0.16849126 0.14203565 -0.009555785 0.0375693 -0.22295861 -0.04172872 -0.1475689 -0.099666886 0.02386443
33 -0.09562385 0.12806536 0.18416552 0.040496275 -0.022578325 -0.20571268 0.08169793 0.011966044 -0.051416337 -0.14402492 0.052425843 0.14178614 0.258764 -0.15944113 0.04767523 -0.025541052 -0.20933749 0.07503912 0.20369208 0.0883007 0.013722577 0.010203815 0.34641278 -0.20047952 0.117268786 0.15935151 -0.080216 0.07334018 0.34358937 0.031744324 -0.14830536 0.20794228 -0.3758326 -0.27460948 0.1450005 0.20074156 -0.023230985 0.44955486 0.28917673 -0.028476188 0.38583088 0.03651389 -0.061140623 -0.23469208 0.13763833 0.09504153 0.022947347 -0.36562183 -0.14951591 0.114832655 0.15729545 0.07939809 0.10947485 0.18317701 0.1902237 0.11980637 0.086496405 -0.031720933 0.03980912 -0.31130046 -0.0274679 -0.20862363 -0.074683994 0.024803087
3 -0.028113216 -0.09834758 0.18360451 0.0451874 -0.038222473 -0.224707 0.044293176 0.09621176 -0.23676766 -0.07819392 0.1686305 -0.009301531 0.17687118 -0.0019125675 0.07454945 -0.05150891 -0.040761918 0.031405315 -0.043441605 0.13211647 0.10991253 0.03920705 0.33519396 -0.1490318 0.18629912 0.08159168 -0.29063034 0.0135750845 0.017722009 -0.10258277 -0.20114695 0.17457047 -0.18951288 -0.3621048 0.17598179 0.14023757 0.08960435 0.3179332 0.20105189 0.090238586 0.23111968 0.05879007 -0.14355838 -0.1891664 0.07824397 0.1018462 0.12094623 -0.11646416 -0.052050993 0.26587048 -0.008998595 0.26943943 0.04390672 0.09118759 0.17348935 0.22780004 0.12035196 -0.037210878 0.101423405 0.04169351 0.03673745 -0.11376269 -0.1581123 0.11035713
2 0.041196708 -0.26245424 0.16658796 0.007594089 0.011850667 -0.25616795 0.09752447 0.118236236 -0.40596953 0.027677545 0.24356295 -0.06255275 0.0072899438 0.082623884 0.09659543 0.04088237 0.0770871 -0.009778621 -0.16912957 0.19571084 0.26299837 0.07882 0.36379308 -0.089357056 0.27065033 0.030645303 -0.39221326 0.0036675178 -0.14265718 -0.17635858 -0.19958077 0.14424087 -0.0850896 -0.35935926 0.091995165 0.100747176 0.24184218 0.23341557 0.22825906 0.11730368 0.17589639 0.12506337 -0.09942174 -0.23667106 -0.019598225 0.09453488 0.17017536 -0.005250514 0.025638405 0.2575523 -0.05303376 0.29082572 0.010412739 0.04693412 0.21772417 0.28216076 0.1539957 -0.12507883 0.09929728 0.16796286 0.14581761 -0.10854806 -0.19090681 0.22328122
4 0.05536469 -0.29650328 0.22580738 0.021162981 -0.03590869 -0.26412898 0.06844498 0.14210668 -0.40148607 -0.010688907 0.26250345 -0.09822457 0.026944285 0.08250313 0.071692 0.0015750815 0.1155141 -0.016352816 -0.20277028 0.19819437 0.24947703 0.069604024 0.38196668 -0.10106468 0.27936384 0.031034674 -0.4211224 -0.0110908775 -0.19075441 -0.18295658 -0.19169025 0.18150525 -0.09968366 -0.39140654 0.13257304 0.06902179 0.24563697 0.24409716 0.21451615 0.14149214 0.14400852 0.12718509 -0.12819953 -0.20573689 0.03254795 0.06658067 0.20642382 0.04059615 0.014769417 0.31094912 -0.09392975 0.34005657 -0.036162693 0.06367309 0.19315873 0.28254846 0.15263525 -0.07173382 0.11171087 0.23666678 0.13098942 -0.08160969 -0.1723517 0.21215983
32 -0.20107418 0.27897832 0.16984867 0.19092356 -0.14722788 -0.15093106 0.053415433 0.032563034 0.1261767 -0.051355403 0.3754113 0.041245483 0.344413 -0.122166485 -0.069113724 0.039805014 -0.15307124 0.13214327 0.1036338 0.2032927 -0.20234272 0.07754879 0.13062648 -0.04125216 -0.23136932 0.22624715 -0.14607644 -0.14050674 -0.14934836 -0.10538876 -0.14428458 -0.044496547 -0.53606427 -0.28493762 0.21573827 0.29184976 -0.008264452 0.03555412 0.19489065 -0.06384763 0.06836298 0.28304276 -0.16245088 -0.25170547 0.15000583 0.036846057 -0.20727281 -0.17511745 -0.011761732 0.17861396 0.30413464 0.11078287 0.1223661 0.07901991 0.27123803 0.19997565 0.10497875 -0.008744769 0.0013762871 -0.015698541 -0.06349601 -0.0819623 -0.046365965 0.08305235
14 0.059802324 -0.15017816 0.17435119 0.052203342 0.025136154 -0.22166528 0.048784733 0.07472485 -0.2788894 -0.04497659 0.14499736 -0.058465198 0.094405964 0.053174805 0.03317697 0.073953934 -0.063349985 0.027591657 -0.02598069 0.155907 0.19561002 0.069452554 0.35592264 -0.06986561 0.16847393 0.107906334 -0.26152313 -0.03377008 -0.086164005 -0.10499111 -0.10914996 0.08071485 -0.20587286 -0.32800615 0.1399518 0.10871485 0.14270428 0.22004354 0.23775944 0.076110095 0.13121699 0.10008655 -0.09223055 -0.2345726 0.016070355 0.045701183 0.11202885 -0.11922938 -0.02112253 0.23359449 0.002284198 0.19809975 0.011298755 0.11956796 0.2165278 0.22991325 0.11994085 -0.09580818 0.039367713 0.051270623 0.09056003 -0.17613336 -0.13073176 0.12437705
24 -0.26937068 0.3109717 0.1945946 0.12304025 -0.18574497 -0.21320733 0.073766425 -0.00091939326 0.10593775 -0.099175714 0.32662737 0.14913082 0.41835037 -0.23295438 0.0631801 -0.07171825 -0.18190695 0.14251478 0.18106729 0.15692008 -0.27519134 0.032471225 0.16335264 -0.0669724 -0.12281023 0.17621832 -0.06993532 -0.009799552 0.17258877 -0.032428924 -0.25977245 0.0615812 -0.55829304 -0.33453217 0.19293055 0.2926352 -0.084222004 0.20889644 0.2534053 -0.048745956 0.28024024 0.22018546 -0.16511539 -0.26500237 0.22348621 0.10815558 -0.14883752 -0.29801577 -0.027038125 0.17098206 0.34107873 0.09802407 0.13530861 0.0917453 0.23788618 0.2236183 0.0711033 0.0102594225 0.067888044 -0.09747849 -0.095114134 -0.04842666 -0.07205463 0.08923196
9 -0.07052138 0.08994083 0.15461352 0.105305664 -0.038561415 -0.19217288 0.10512432 0.04174217 -0.10901011 -0.11645378 0.10349578 0.052360352 0.19261187 -0.041364744 0.074771896 0.02658947 -0.17101088 0.045001198 0.11724441 0.103409894 0.04551618 0.029185904 0.32113567 -0.1443688 0.106636256 0.13617523 -0.12224732 0.021970524 0.1308473 -0.050306194 -0.12649329 0.12201305 -0.31678486 -0.29538336 0.12762837 0.20302135 0.037432596 0.3468917 0.20066619 -0.0065473253 0.2714321 0.09670403 -0.09721567 -0.24976002 0.06688988 0.060452756 0.01649851 -0.22145113 -0.07972079 0.17109835 0.10227171 0.10460484 0.09730219 0.1612054 0.23167928 0.17626573 0.12738413 -0.06445809 -0.012225856 -0.1366759 0.0033959483 -0.17711072 -0.10834859 0.027481956
8 0.07583191 -0.24448436 0.20421052 0.008029909 -0.0023181583 -0.25215572 0.046852943 0.10679495 -0.38204563 -0.047699112 0.17998199 -0.101784155 0.07518901 0.07675514 0.060566545 -0.026816512 0.016823268 -0.0002379337 -0.1283451 0.1372673 0.22536129 0.06135303 0.4042617 -0.09481255 0.24964102 0.05963971 -0.37603918 0.0039384626 -0.10382775 -0.14320312 -0.18672505 0.1999922 -0.12880658 -0.36494544 0.1431682 0.07586514 0.21826915 0.28927788 0.20577417 0.15839364 0.18986826 0.062215053 -0.14787956 -0.2069718 0.016457913 0.07606073 0.20468241 -0.061915077 -0.016606782 0.32406926 -0.10416202 0.32103798 -0.020432528 0.09103947 0.19391271 0.2898458 0.1824914 -0.095676765 0.08269176 0.16490434 0.1374126 -0.12783861 -0.16480163 0.19059041
28 -0.21791628 0.24010012 0.1690456 0.12787996 -0.18364717 -0.18875416 0.066429205 0.044331178 0.061788328 -0.048522245 0.3484198 0.040712565 0.3588288 -0.15472789 -0.01876273 -0.04826852 -0.08961022 0.12903935 0.07811431 0.17874353 -0.23920612 0.08990531 0.12629372 -0.03106847 -0.17718819 0.18781053 -0.1796932 -0.068041556 -0.06108481 -0.10650279 -0.21049294 0.040187888 -0.51904225 -0.31535804 0.1727244 0.28997865 0.031063752 0.10078804 0.18816024 -0.017642673 0.14994973 0.21473756 -0.1764685 -0.23008406 0.2002277 0.09803176 -0.16178155 -0.17856918 0.017361512 0.21462063 0.23472069 0.21637915 0.08794393 0.07145093 0.23592953 0.23331144 0.12549137 0.024439633 0.05374133 0.03103675 -0.056811485 -0.01584123 -0.087200984 0.1571964
6 0.29607934 -0.17869331 0.10895774 0.18026821 0.19333716 -0.035229232 0.08441448 0.17364648 -0.23204663 0.07807821 0.11229829 -0.27119014 -0.2577606 0.39515972 -0.34828436 0.52617615 -0.12041655 -0.005318601 -0.061605133 0.17477548 0.57860845 0.09988627 0.5640233 -0.061168347 0.02285607 0.38343245 -0.2674988 -0.36422518 -0.7109685 -0.34371474 0.25786722 -0.19705765 -0.30245817 -0.23350208 0.06513622 0.22518846 0.3123029 0.041131854 0.22573218 -0.22193363 -0.27168494 0.35543245 -0.13629052 -0.42432365 -0.13933104 -0.19210519 -0.12353951 0.017764518 -0.09252524 0.12783808 -0.05917672 0.032663435 0.063161485 0.31559685 0.48265335 0.10276884 0.18301591 -0.27212185 -0.23344769 -0.0768052 0.22307941 -0.3491253 0.004993209 0.12385614
7 0.28243434 -0.04997039 0.10474628 0.2150687 0.16935343 -0.0116780745 0.07404766 0.14545718 -0.14938883 0.050360437 0.053019997 -0.20772548 -0.1557988 0.3626769 -0.33060843 0.5039673 -0.22714198 0.04131933 0.017320214 0.12912019 0.48892626 0.07296933 0.5432489 -0.07824414 -0.022935528 0.40317568 -0.16848415 -0.3790841 -0.6055196 -0.305056 0.27998194 -0.22708908 -0.36976936 -0.24323684 0.08798045 0.24633119 0.18917221 0.059906293 0.19620301 -0.20930858 -0.21679845 0.33489946 -0.15511185 -0.4026645 -0.15222794 -0.19705008 -0.20097904 -0.0907443 -0.11730869 0.095722094 0.03360727 -0.012880647 0.110233024 0.334531 0.46261412 0.09477073 0.14423859 -0.24984407 -0.25789884 -0.1372278 0.19042817 -0.369541 0.018350504 0.085443385
31 -0.07951753 0.0555066 0.16272706 0.05964906 -0.060648274 -0.21042575 0.078163765 0.05824726 -0.15380335 -0.10105384 0.1147334 0.07077719 0.21012208 -0.099333934 0.1105864 -0.024658652 -0.12061107 0.03453594 0.05929022 0.13179034 0.028740942 0.030991428 0.31235766 -0.1470738 0.13577195 0.12054217 -0.16409579 0.050728805 0.19249591 -0.047539864 -0.20053825 0.17876413 -0.29539427 -0.32576796 0.14527139 0.19724913 0.05505379 0.36700293 0.21741684 0.048017204 0.29993144 0.059747588 -0.07584319 -0.19948028 0.092931874 0.113001466 0.055506706 -0.22286953 -0.07564219 0.18285681 0.10367775 0.16571608 0.10130847 0.13607496 0.17321028 0.20304129 0.12958606 -0.023500687 0.054186586 -0.12052297 -0.0052094595 -0.14658242 -0.11329589 0.07697688
30 -0.23742084 0.34219137 0.2000648 0.122722454 -0.18396603 -0.21257307 0.08858781 -0.010703745 0.08377679 -0.17032495 0.20548068 0.14622869 0.39148912 -0.23839863 0.10777885 -0.07439111 -0.21807739 0.07552803 0.20903058 0.1344105 -0.18522294 0.036392942 0.24075978 -0.11287284 -0.04196602 0.16292416 -0.05725725 0.05807706 0.31326723 0.015022909 -0.28450185 0.14619428 -0.5240711 -0.32751945 0.18511783 0.2921827 -0.09533694 0.38181433 0.29070586 -0.03029407 0.36427143 0.12124534 -0.097484544 -0.29252487 0.18113293 0.115268625 -0.105325125 -0.3177416 -0.093430586 0.11979939 0.27814844 0.097982794 0.18131866 0.14285336 0.2388035 0.20701467 0.13883519 0.022469139 0.047067754 -0.25613153 -0.12576045 -0.107495144 -0.061502952 0.019619789
25 -0.32359758 0.41110736 0.17426345 0.21545784 -0.23527268 -0.1455829 0.08571284 0.027098918 0.22423449 -0.031974975 0.5247653 0.07922797 0.45138016 -0.19984885 -0.036513723 -0.011211731 -0.116785355 0.14154452 0.09127748 0.24855535 -0.39292458 0.076694995 0.034584466 -0.012447313 -0.33706436 0.20479432 -0.14637652 -0.13425496 -0.15869457 -0.11019414 -0.23021825 -0.040281937 -0.6351985 -0.33763406 0.22292618 0.34999225 -0.03786176 -0.018429998 0.17866492 -0.07727061 0.06752651 0.36027116 -0.21669917 -0.29640844 0.23000602 0.063190155 -0.28253552 -0.13783292 0.033501953 0.23823269 0.39106286 0.16472486 0.13865767 0.0014211601 0.27816638 0.2542086 0.14218628 0.04798909 0.05673009 0.058862526 -0.14273965 0.025457181 -0.06964937 0.114193365
29 -0.09601927 0.09059165 0.21993703 0.10378315 -0.09778345 -0.19221094 0.060265157 0.047736283 -0.038427334 -0.1001563 0.24269256 0.024391796 0.28347164 -0.08053613 0.042665713 0.0027542396 -0.09347371 0.045016658 0.051015377 0.1627916 -0.04966521 0.046992384 0.26937148 -0.09593208 0.030588344 0.116792984 -0.1548632 -0.014600298 0.031770464 -0.08357179 -0.18667226 0.08609848 -0.36446378 -0.34193227 0.16165602 0.16786104 0.018906824 0.20783094 0.2061944 0.03249576 0.21646409 0.14388348 -0.13393258 -0.24716906 0.13634062 0.0959955 0.010782702 -0.1669062 -0.039149385 0.20605583 0.12047911 0.15908428 0.029558346 0.09319002 0.20776062 0.21824026 0.09917079 -0.019445298 0.08095778 -0.024256933 -0.017266367 -0.06823184 -0.07813557 0.08687328
5 0.31608835 -0.19202986 0.11115418 0.1486405 0.16940337 -0.073805355 0.057291713 0.15737942 -0.26260808 0.04723121 0.08421128 -0.23916781 -0.1981472 0.39421043 -0.25313073 0.4425613 -0.15032732 0.02493892 -0.069806635 0.14625326 0.55018175 0.08653727 0.554279 -0.052555762 0.07745524 0.31454915 -0.2689509 -0.31674665 -0.57828176 -0.2691565 0.17542586 -0.15138854 -0.2163729 -0.2617584 0.07201153 0.14520422 0.27779838 0.0921414 0.2238111 -0.12752092 -0.21025185 0.29238254 -0.13315772 -0.38910586 -0.1713158 -0.16636884 -0.08161808 -0.03281761 -0.084074974 0.15743011 -0.056127444 0.044252757 0.051396616 0.28665242 0.42521492 0.16940852 0.1857423 -0.2718859 -0.20524657 -0.030276407 0.20343466 -0.34151074 -0.05161328 0.08063643
11 0.3424198 -0.2087415 0.11126296 0.13554646 0.2288353 -0.06593225 0.041344162 0.1699886 -0.279196 0.06729501 -0.027734853 -0.19152759 -0.21031894 0.40237656 -0.31280378 0.4715013 -0.19211099 0.042089596 -0.029147357 0.09360108 0.59408677 0.03791146 0.6072377 -0.09137632 0.1107859 0.35527176 -0.25000086 -0.3421884 -0.5531734 -0.29348373 0.26482362 -0.15486047 -0.24863237 -0.23212926 0.116402455 0.15535635 0.23548122 0.11581594 0.2470031 -0.15193059 -0.17795503 0.26694146 -0.10780818 -0.35381463 -0.2046877 -0.19432147 -0.062419187 -0.092100166 -0.13361569 0.13005124 -0.03640518 0.010620114 0.07266319 0.3173112 0.4344 0.14302143 0.144937 -0.28418308 -0.22255054 -0.11377216 0.24362144 -0.4223561 -0.038540583 0.09219265
26 -0.36629632 0.44986752 0.17809239 0.22874627 -0.28514612 -0.17294814 0.08639566 0.012442097 0.23174559 -0.050996494 0.5291332 0.07012488 0.51052916 -0.24725416 -0.055913456 -0.054403767 -0.091548495 0.18544358 0.13940674 0.25635237 -0.46240208 0.09915181 0.01232986 -0.0060917665 -0.3767867 0.20143114 -0.16740136 -0.15727665 -0.15170832 -0.117977 -0.25819165 -0.015759952 -0.7133999 -0.34691235 0.26176044 0.38506123 -0.035644576 -0.014113206 0.18982969 -0.08574479 0.10028848 0.35708058 -0.2148604 -0.26504022 0.28437907 0.09568887 -0.32683206 -0.19437192 0.037483536 0.2663451 0.3988662 0.20886934 0.15244316 0.006150718 0.3010049 0.24631768 0.101105094 0.088440716 0.07429889 0.049360875 -0.14907384 0.030608473 -0.044926777 0.14385208
20 0.03383093 -0.11104349 0.16166379 0.058013353 0.0010053649 -0.19941863 0.06642869 0.094664596 -0.2447124 -0.038031083 0.16252449 -0.05580826 0.08913571 0.04760906 -0.0027402975 0.068953484 -0.027246445 0.027240695 -0.03764715 0.15184473 0.19714399 0.05223797 0.3827895 -0.0790581 0.15718809 0.10969742 -0.26734167 -0.04038329 -0.12234118 -0.12801242 -0.10424182 0.13588591 -0.21427591 -0.29347363 0.12029117 0.12286662 0.15708487 0.22397067 0.22553194 0.052930873 0.13887727 0.13424566 -0.10616222 -0.22891882 0.01866422 0.031208234 0.09332226 -0.06472244 -0.03865249 0.22620578 -0.028793471 0.19820637 0.044180665 0.11519573 0.21457802 0.23639926 0.1622165 -0.07335463 0.030460682 0.014343025 0.10322443 -0.13456894 -0.091292016 0.14697629
13 0.079083666 -0.22720571 0.19217151 0.013797136 -0.022042133 -0.2612565 0.043870263 0.13693081 -0.332404 -0.014351961 0.24874595 -0.10376876 0.061112247 0.104718134 0.020067656 0.021327714 0.023516705 0.033911265 -0.119602315 0.16697294 0.25011292 0.056655362 0.3623503 -0.060316626 0.19265692 0.05695165 -0.38431802 -0.057654325 -0.18114209 -0.14662133 -0.16451272 0.14676729 -0.13115665 -0.34329402 0.14609648 0.096753836 0.2254095 0.21042182 0.21974942 0.10710567 0.1011194 0.15041085 -0.13455997 -0.23620078 0.0060371943 0.028917482 0.12408801 -0.023439584 0.019023903 0.31361097 -0.06438472 0.2913194 -0.0077298163 0.07297814 0.24154042 0.2976849 0.18142408 -0.098461345 0.070525624 0.1626844 0.13620044 -0.12636903 -0.1613884 0.16360377
22 0.089270756 -0.18745841 0.14474021 0.039782587 0.030840658 -0.17976582 0.06911831 0.13797897 -0.31910303 0.025972452 0.20640318 -0.13333529 0.005159021 0.11756292 -0.04056074 0.105471425 0.03232706 -0.0037806942 -0.11313179 0.16099915 0.26504782 0.07996715 0.38108343 -0.071692 0.1480313 0.13739519 -0.35991913 -0.07381182 -0.2918944 -0.18876742 -0.078344256 0.12186259 -0.18418045 -0.30069977 0.1000726 0.1289723 0.23331374 0.18007283 0.1932408 0.026643705 0.038783416 0.17423879 -0.13328342 -0.23957202 -0.027737755 0.017188024 0.0863619 0.020106843 -0.02193488 0.2656607 -0.073741086 0.23975357 0.01119734 0.10401859 0.23886253 0.24871752 0.18159382 -0.12367609 0.007833422 0.10000033 0.14942455 -0.11453011 -0.11721963 0.20655528
18 0.11283076 -0.23805378 0.15455669 0.05516072 0.058854382 -0.21647029 0.05019287 0.14178908 -0.33866185 0.040693335 0.19413993 -0.123776235 -0.0002982809 0.115893096 -0.05201369 0.10572119 0.025381934 0.036688417 -0.120989464 0.17668673 0.30075762 0.063225605 0.41678843 -0.060133252 0.1782134 0.12749209 -0.37756458 -0.099990584 -0.26746035 -0.2070086 -0.07923888 0.108221084 -0.16828966 -0.3049837 0.1156583 0.115880616 0.24902281 0.16688162 0.23213193 0.06525795 0.061427385 0.17129679 -0.12883672 -0.25461766 -0.043027118 0.0038000129 0.098760635 -0.015429279 -0.023215985 0.2743933 -0.055654902 0.22776757 0.022829555 0.12306679 0.2542716 0.25959393 0.15446101 -0.1536386 0.010634549 0.13260698 0.17679581 -0.1534693 -0.122668326 0.21331012
17 0.4109654 -0.1878132 0.10625782 0.19565445 0.3149994 0.0021977727 0.06685765 0.1725554 -0.21818748 0.047118414 -0.0881527 -0.25016245 -0.29617092 0.47321457 -0.40263793 0.64613724 -0.3048555 0.015017956 0.02908197 0.078280516 0.72405356 0.08496344 0.69408864 -0.11477809 0.08327845 0.48355216 -0.15183577 -0.4151521 -0.62189513 -0.3116508 0.38075763 -0.24252816 -0.30038998 -0.23500292 0.05994026 0.22666357 0.25115174 0.13481158 0.23869874 -0.28930584 -0.22943121 0.29436854 -0.12876803 -0.4348543 -0.2086916 -0.2399688 -0.16838488 -0.14538576 -0.16017804 0.044652466 -0.036295418 -0.11237374 0.10369596 0.42647308 0.5031643 0.056887902 0.13302594 -0.36367175 -0.3447418 -0.26504886 0.25289613 -0.48184803 0.02472275 0.06431144
23 -0.17626964 0.2252356 0.13459419 0.13464561 -0.0904669 -0.18522844 0.11983149 0.022853287 -0.009604021 -0.12350711 0.15093192 0.10142485 0.3175918 -0.17306384 0.12922812 -0.02336183 -0.19912219 0.049700275 0.14680277 0.111597545 -0.0982131 0.052636705 0.24130766 -0.14548776 0.019485835 0.14707498 -0.07008949 0.059431132 0.27286696 0.0012273099 -0.23366682 0.13296099 -0.43071216 -0.3160092 0.13851282 0.2809361 -0.020662256 0.38094214 0.26718757 -0.04614712 0.33672833 0.09012945 -0.061681777 -0.2523351 0.12187938 0.10193573 -0.057382826 -0.29794052 -0.073281206 0.1223989 0.239164 0.07112412 0.16614132 0.13669294 0.23223941 0.15732509 0.14101662 -0.026506566 0.004729432 -0.22724742 -0.08303123 -0.161355 -0.106671184 0.008265705
10 -0.09736344 0.030659191 0.1991144 0.056005415 -0.111195624 -0.24625173 0.09488512 0.065789744 -0.18214926 -0.103650466 0.1721418 0.05374678 0.25419 -0.12978241 0.15104654 -0.05940375 -0.08067861 0.017974207 0.040141612 0.13596682 0.00085241266 0.044772033 0.32712892 -0.114499904 0.17851505 0.073988184 -0.16349268 0.08514676 0.21682711 -0.033794012 -0.24194375 0.21210639 -0.30155465 -0.36425665 0.12708153 0.17008768 0.06372172 0.37349856 0.23210597 0.08681207 0.3445701 0.039541554 -0.093603306 -0.22806984 0.12957868 0.1473875 0.11408728 -0.18999076 -0.048608564 0.23412246 0.09122583 0.22190353 0.050972693 0.13267374 0.1716377 0.22507733 0.14716189 -0.006632024 0.11209461 -0.05437305 0.011398609 -0.09501594 -0.11172763 0.10140166
15 -0.106877536 0.21393706 0.16769814 0.13744426 -0.05187301 -0.16582102 0.09180122 -0.0103659015 0.044662885 -0.14678295 0.061892334 0.115514524 0.29904532 -0.13750142 0.067882895 0.063743055 -0.2733628 0.05865823 0.19338654 0.08778001 -0.038087513 0.05184905 0.30207992 -0.15448745 0.030482765 0.20276926 9.7157936e-05 0.023668593 0.2709667 -0.0052156015 -0.14864965 0.06646295 -0.42699102 -0.29713774 0.13268387 0.26158172 -0.049921587 0.36217806 0.27241254 -0.06518994 0.29890057 0.08449789 -0.07241327 -0.26902804 0.12061009 0.090314865 -0.053580906 -0.35690245 -0.12351771 0.07599642 0.2391304 0.02790533 0.13806848 0.18995708 0.2167803 0.12933965 0.09922095 -0.038266446 -0.033381794 -0.28963816 -0.078220986 -0.20307092 -0.059809245 -0.0008989825
19 -0.142046 0.22105576 0.17580627 0.13684171 -0.089414544 -0.17699376 0.11869301 0.030939233 -0.020231145 -0.12818635 0.118568316 0.11119937 0.31090277 -0.12866339 0.12765482 -0.0017001203 -0.22995904 0.062667586 0.19086888 0.10190849 -0.054729357 0.061808333 0.27824932 -0.15676121 0.034420025 0.15482797 -0.050232235 0.063088395 0.29926217 -0.0003171285 -0.20492879 0.10856732 -0.42116126 -0.3359157 0.1604406 0.2537512 -0.02635469 0.40629226 0.2692726 -0.017127609 0.33672008 0.069687486 -0.0673664 -0.267888 0.12351542 0.121435 -0.02977657 -0.3064367 -0.11615308 0.13790382 0.21876074 0.06449328 0.1517797 0.1659438 0.23734263 0.16976689 0.1459363 -0.02525698 0.0051749554 -0.24388252 -0.054689463 -0.1958837 -0.102803744 -0.020992626
16 -0.161242 0.2692641 0.14598382 0.10340121 -0.08078818 -0.1785956 0.08660301 -0.01840702 0.035952546 -0.16311552 0.027198384 0.15303911 0.34561098 -0.19426797 0.107122935 -0.0026030224 -0.29905868 0.05550521 0.2344819 0.07621637 -0.07397941 0.033373605 0.3142545 -0.17671609 0.061302293 0.18305852 0.00032513827 0.06979456 0.42330182 0.049104843 -0.20863432 0.14470589 -0.46143046 -0.3124452 0.16136377 0.28316903 -0.091306046 0.47519347 0.28898135 -0.04166482 0.40563142 0.016470619 -0.054330613 -0.25226012 0.13812394 0.12876737 -0.04098607 -0.4006926 -0.15726042 0.075030185 0.22881797 0.036245953 0.18238252 0.19291529 0.19024915 0.1415862 0.112198226 0.00048234215 -0.0012853915 -0.36627704 -0.10882514 -0.20435292 -0.074733704 -0.029013455
21 -0.11737539 0.15294455 0.15414137 0.07421735 -0.055321846 -0.20974222 0.098649524 0.022832515 -0.07180686 -0.11465043 0.04266682 0.11389931 0.24925895 -0.13227844 0.13320015 0.016930059 -0.21747428 0.0524687 0.17123456 0.11100034 0.000535809 0.03801633 0.31889272 -0.17666687 0.13050117 0.15877771 -0.048692066 0.075252205 0.3488781 0.015538565 -0.18480676 0.1424597 -0.38596347 -0.30389428 0.12308749 0.2454995 -0.035544816 0.45617288 0.25534427 -0.018927163 0.37692946 0.033936735 -0.05085619 -0.24534354 0.10597857 0.10919841 0.0069209305 -0.34080005 -0.120346114 0.10169702 0.1787469 0.06559263 0.1537854 0.20194863 0.2002566 0.15060633 0.1045035 -0.033862695 -0.0011741923 -0.26741678 -0.05583921 -0.20494193 -0.110503405 0.0033743796
27 -0.1403288 0.22399189 0.20090806 0.07593166 -0.10200369 -0.22605708 0.07459622 0.019092195 -0.0013744159 -0.16860151 0.0699517 0.1201381 0.35108837 -0.16639128 0.13958691 -0.07359666 -0.25307345 0.079515174 0.18198264 0.07944626 -0.065976255 0.02130864 0.3227389 -0.15601283 0.0646661 0.14147346 -0.03382639 0.11722508 0.37425107 0.03488931 -0.24585496 0.16071153 -0.44165507 -0.32928428 0.14581455 0.23057401 -0.087688506 0.45568368 0.29330546 0.0060627423 0.3859925 0.0551305 -0.1034389 -0.2508541 0.14415173 0.15380631 0.018559242 -0.35367295 -0.11274458 0.12491911 0.17106186 0.09706807 0.13463102 0.18468226 0.21706401 0.20258766 0.09749914 0.00982466 0.025760107 -0.2519694 -0.073568106 -0.1387389 -0.08320029 0.030278144
12 0.1795336 -0.21330239 0.12899144 0.055436227 0.07487135 -0.17395866 0.03851313 0.14395446 -0.30593085 0.025243152 0.160851 -0.13995829 -0.045806058 0.22441463 -0.10895959 0.1837426 -0.0031847423 0.035967465 -0.10546647 0.14049646 0.35794327 0.04647465 0.41003096 -0.07356001 0.13698252 0.11872611 -0.33955926 -0.16976866 -0.35952583 -0.20103616 -0.009778077 0.012893514 -0.1542506 -0.2950036 0.122715324 0.088005714 0.21200813 0.11892074 0.21419637 0.0387048 -0.054242022 0.19597654 -0.13385436 -0.2762345 -0.075949006 -0.04361645 0.033206712 -0.014509824 -0.030371146 0.25191537 -0.07973459 0.20738585 0.01582128 0.1272279 0.30094644 0.23199242 0.14930685 -0.14377674 -0.01848018 0.12162419 0.16074915 -0.209252 -0.11015975 0.1262859
